{"learner":{"attributes":{"scikit_learn":"{\"_estimator_type\": \"regressor\"}"},"feature_names":["lag_1_pm25","lag_2_pm25","lag_3_pm25","temperature_2m_mean","precipitation_sum","wind_speed_10m_max","wind_direction_10m_dominant"],"feature_types":["float","float","float","float","float","float","float"],"gradient_booster":{"model":{"gbtree_model_param":{"num_parallel_tree":"1","num_trees":"100"},"iteration_indptr":[0,1,2,3,4,5,6,7,8,9,10,11,12,13,14,15,16,17,18,19,20,21,22,23,24,25,26,27,28,29,30,31,32,33,34,35,36,37,38,39,40,41,42,43,44,45,46,47,48,49,50,51,52,53,54,55,56,57,58,59,60,61,62,63,64,65,66,67,68,69,70,71,72,73,74,75,76,77,78,79,80,81,82,83,84,85,86,87,88,89,90,91,92,93,94,95,96,97,98,99,100],"tree_info":[0,0,0,0,0,0,0,0,0,0,0,0,0,0,0,0,0,0,0,0,0,0,0,0,0,0,0,0,0,0,0,0,0,0,0,0,0,0,0,0,0,0,0,0,0,0,0,0,0,0,0,0,0,0,0,0,0,0,0,0,0,0,0,0,0,0,0,0,0,0,0,0,0,0,0,0,0,0,0,0,0,0,0,0,0,0,0,0,0,0,0,0,0,0,0,0,0,0,0,0],"trees":[{"base_weights":[1.06828686E-7,-8.7126404E-1,3.9317956E0,-1.4839302E0,1.1584256E-1,5.3676753E0,1.3968748E0,-1.078687E0,-1.9654624E0,8.055822E-1,-8.4377915E-1,4.631733E0,1.1629793E1,1.000864E0,3.5050898E0,-1.6282507E0,-7.1124023E-1,-2.1482904E0,-1.5066478E0,-2.4540228E-1,1.2344233E0,9.270489E-1,-1.0918801E0,8.629863E-1,5.3059664E0,1.4923433E1,1.9695548E0,2.8617363E0,2.3442382E-1,4.224021E0,-4.2663953E-1,-1.810215E0,-1.1310385E0,3.9107652E0,-7.5222087E-1,-2.1877344E0,-1.2670494E0,-5.1369864E-1,-1.7245644E0,-7.114191E-1,2.721243E-1,1.8741196E0,7.047105E-1,2.0455885E0,3.2564056E-1,-8.114786E-2,-1.2469612E0,3.4230325E0,-2.8759834E-1,4.176137E0,7.1944623E0,1.7417982E1,5.452918E0,-3.4571064E-1,2.379172E0,3.3639634E0,-5.2308226E-1,1.0918509E0,-6.729848E-1,7.129178E-1,5.2495203E0,-2.8177056E-1,1.6667211E-1,-5.514213E-1,-8.974187E-2,5.011721E-1,-3.6205152E-1,1.7611723E0,-1.3279081E-3,-3.9124206E-1,-1.5946251E-1,-5.155955E-1,-6.77611E-1,-4.368788E-1,2.3567213E-1,-2.6937306E-1,2.557868E-1,1.0222946E-1,-5.301449E-1,-3.4497803E-1,-6.422414E-2,-1.3415399E-2,3.0432123E-1,7.732244E-1,1.0225379E-1,9.5367676E-1,1.2792414E-1,6.768098E-1,-8.827901E-3,-2.3323135E-2,4.242868E-1,-1.83246E-1,6.682868E-1,-2.4634674E-1,-4.6460578E-1,1.0622943E-1,1.2438011E0,1.0391215E-1,-5.358479E-1,8.3572E-1,1.4613811E0,3.365495E0,1.8670737E0,5.458816E0,1.2121723E0,2.5321722E0,7.7875817E-1,-2.4274187E-1,1.16229445E-1,8.522945E-2,1.0769848E0,-1.0770559E-2,-2.5077057E-1,1.9719972E-1,1.2266754E0,1.0546721E0,-2.6271755E-1,-2.0277056E-1,5.592295E-1,2.2897868E0,8.4180117E-1],"categories":[],"categories_nodes":[],"categories_segments":[],"categories_sizes":[],"default_left":[0,0,0,0,0,0,0,0,0,0,0,0,0,0,0,0,0,0,0,0,0,0,0,0,0,0,0,0,0,0,0,0,0,0,0,0,0,0,0,0,0,0,0,0,0,0,0,0,0,0,0,0,0,0,0,0,0,0,0,0,0,0,0,0,0,0,0,0,0,0,0,0,0,0,0,0,0,0,0,0,0,0,0,0,0,0,0,0,0,0,0,0,0,0,0,0,0,0,0,0,0,0,0,0,0,0,0,0,0,0,0,0,0,0,0,0,0,0,0,0,0],"id":0,"left_children":[1,3,5,7,9,11,13,15,17,19,21,23,25,27,29,31,33,35,37,39,41,43,45,47,49,51,53,55,57,59,61,63,65,67,69,71,73,75,77,79,81,83,85,87,89,91,93,95,97,99,101,103,105,107,-1,109,111,113,115,117,119,-1,-1,-1,-1,-1,-1,-1,-1,-1,-1,-1,-1,-1,-1,-1,-1,-1,-1,-1,-1,-1,-1,-1,-1,-1,-1,-1,-1,-1,-1,-1,-1,-1,-1,-1,-1,-1,-1,-1,-1,-1,-1,-1,-1,-1,-1,-1,-1,-1,-1,-1,-1,-1,-1,-1,-1,-1,-1,-1,-1],"loss_changes":[6.666281E3,9.6356555E2,1.2773662E3,1.897002E2,4.05094E2,9.8306055E2,1.0419084E2,1.07079285E2,3.4343384E1,1.6075404E2,1.1348433E2,5.1124707E2,7.0240625E2,1.5621635E2,5.8335007E1,1.7314209E1,6.412204E1,8.281616E0,2.745993E1,2.5275908E1,8.44097E1,2.0860243E1,3.5166565E1,9.524205E1,3.3694775E2,3.0664062E2,9.935107E1,5.615793E1,6.21997E1,5.7468292E1,2.5357275E0,5.974457E0,1.47578125E1,2.3045063E1,3.840364E1,6.205078E0,7.3581314E0,1.3889486E1,1.00130005E1,1.1748598E1,1.1804644E1,1.22052734E2,9.5043564E1,4.869808E0,9.771117E0,3.927031E1,2.3781097E1,2.0719437E1,2.2469738E1,9.2746704E1,1.7630371E2,6.1788574E1,2.0768967E1,2.3520415E0,0E0,1.8468262E1,7.319875E-1,5.0705746E1,3.6197075E1,9.253857E0,5.4283752E1,0E0,0E0,0E0,0E0,0E0,0E0,0E0,0E0,0E0,0E0,0E0,0E0,0E0,0E0,0E0,0E0,0E0,0E0,0E0,0E0,0E0,0E0,0E0,0E0,0E0,0E0,0E0,0E0,0E0,0E0,0E0,0E0,0E0,0E0,0E0,0E0,0E0,0E0,0E0,0E0,0E0,0E0,0E0,0E0,0E0,0E0,0E0,0E0,0E0,0E0,0E0,0E0,0E0,0E0,0E0,0E0,0E0,0E0,0E0,0E0],"parents":[2147483647,0,0,1,1,2,2,3,3,4,4,5,5,6,6,7,7,8,8,9,9,10,10,11,11,12,12,13,13,14,14,15,15,16,16,17,17,18,18,19,19,20,20,21,21,22,22,23,23,24,24,25,25,26,26,27,27,28,28,29,29,30,30,31,31,32,32,33,33,34,34,35,35,36,36,37,37,38,38,39,39,40,40,41,41,42,42,43,43,44,44,45,45,46,46,47,47,48,48,49,49,50,50,51,51,52,52,53,53,55,55,56,56,57,57,58,58,59,59,60,60],"right_children":[2,4,6,8,10,12,14,16,18,20,22,24,26,28,30,32,34,36,38,40,42,44,46,48,50,52,54,56,58,60,62,64,66,68,70,72,74,76,78,80,82,84,86,88,90,92,94,96,98,100,102,104,106,108,-1,110,112,114,116,118,120,-1,-1,-1,-1,-1,-1,-1,-1,-1,-1,-1,-1,-1,-1,-1,-1,-1,-1,-1,-1,-1,-1,-1,-1,-1,-1,-1,-1,-1,-1,-1,-1,-1,-1,-1,-1,-1,-1,-1,-1,-1,-1,-1,-1,-1,-1,-1,-1,-1,-1,-1,-1,-1,-1,-1,-1,-1,-1,-1,-1],"split_conditions":[4.73E0,2.02E0,2.146952E2,2.5360262E2,2.2470253E2,1.86E1,1.188E1,1.1E0,1.37E0,1.0993966E2,1.20694E1,4.8976078E1,2.0957443E1,1.2566526E1,9.11E0,1.8000002E0,4.7E-1,1.6760752E1,1.2979984E1,3.1E0,9.762834E0,-4.991333E0,2.3763672E2,1.2496719E1,8.49E0,9.5545E0,3.2E0,6.52E0,2.5360262E2,1.37E0,1.86E1,2.5175612E2,1.9000001E0,1.22E0,1.02037224E2,-1.9580001E0,3E0,3.97E0,1.39E0,4.8976078E1,1.1512834E1,2.0957443E1,1.2525951E2,6.13E0,3.4E0,3.73E0,1.6808569E1,5.03E0,1.9694992E1,5.67E0,3.43E0,2.1364937E2,5.33E0,8.49E0,2.379172E0,1.12E0,1.083E1,2.494633E2,1.7E0,1.533E1,6.7669997E0,-2.8177056E-1,1.6667211E-1,-5.514213E-1,-8.974187E-2,5.011721E-1,-3.6205152E-1,1.7611723E0,-1.3279081E-3,-3.9124206E-1,-1.5946251E-1,-5.155955E-1,-6.77611E-1,-4.368788E-1,2.3567213E-1,-2.6937306E-1,2.557868E-1,1.0222946E-1,-5.301449E-1,-3.4497803E-1,-6.422414E-2,-1.3415399E-2,3.0432123E-1,7.732244E-1,1.0225379E-1,9.5367676E-1,1.2792414E-1,6.768098E-1,-8.827901E-3,-2.3323135E-2,4.242868E-1,-1.83246E-1,6.682868E-1,-2.4634674E-1,-4.6460578E-1,1.0622943E-1,1.2438011E0,1.0391215E-1,-5.358479E-1,8.3572E-1,1.4613811E0,3.365495E0,1.8670737E0,5.458816E0,1.2121723E0,2.5321722E0,7.7875817E-1,-2.4274187E-1,1.16229445E-1,8.522945E-2,1.0769848E0,-1.0770559E-2,-2.5077057E-1,1.9719972E-1,1.2266754E0,1.0546721E0,-2.6271755E-1,-2.0277056E-1,5.592295E-1,2.2897868E0,8.4180117E-1],"split_indices":[0,0,6,6,6,0,0,0,0,6,5,6,5,5,2,4,1,3,5,0,3,3,6,5,0,3,4,1,6,2,0,6,4,0,6,3,4,2,0,6,3,5,6,2,1,0,5,0,5,0,1,6,1,2,0,1,1,6,1,0,3,0,0,0,0,0,0,0,0,0,0,0,0,0,0,0,0,0,0,0,0,0,0,0,0,0,0,0,0,0,0,0,0,0,0,0,0,0,0,0,0,0,0,0,0,0,0,0,0,0,0,0,0,0,0,0,0,0,0,0,0],"split_type":[0,0,0,0,0,0,0,0,0,0,0,0,0,0,0,0,0,0,0,0,0,0,0,0,0,0,0,0,0,0,0,0,0,0,0,0,0,0,0,0,0,0,0,0,0,0,0,0,0,0,0,0,0,0,0,0,0,0,0,0,0,0,0,0,0,0,0,0,0,0,0,0,0,0,0,0,0,0,0,0,0,0,0,0,0,0,0,0,0,0,0,0,0,0,0,0,0,0,0,0,0,0,0,0,0,0,0,0,0,0,0,0,0,0,0,0,0,0,0,0,0],"sum_hessian":[1.944E3,1.592E3,3.52E2,9.82E2,6.1E2,2.24E2,1.28E2,5.35E2,4.47E2,3.55E2,2.55E2,2.02E2,2.2E1,1.09E2,1.9E1,2.13E2,3.22E2,3.17E2,1.3E2,1.03E2,2.52E2,3.1E1,2.24E2,3.1E1,1.71E2,1.6E1,6E0,3.1E1,7.8E1,1.6E1,3E0,1.54E2,5.9E1,2E0,3.2E2,3.02E2,1.5E1,2.4E1,1.06E2,5.4E1,4.9E1,1.13E2,1.39E2,1E1,2.1E1,3E1,1.94E2,9E0,2.2E1,1.09E2,6.2E1,1.2E1,4E0,5E0,1E0,2.7E1,4E0,4E1,3.8E1,4E0,1.2E1,2E0,1E0,1.51E2,3E0,1E0,5.8E1,1E0,1E0,9E1,2.3E2,4.3E1,2.59E2,1.4E1,1E0,1.9E1,5E0,2E0,1.04E2,2.8E1,2.6E1,3.5E1,1.4E1,7.7E1,3.6E1,1.3E1,1.26E2,9E0,1E0,1.6E1,5E0,2.5E1,5E0,8.2E1,1.12E2,2E0,7E0,1.6E1,6E0,3.8E1,7.1E1,1E1,5.2E1,1.1E1,1E0,1E0,3E0,3E0,2E0,2E0,2.5E1,2E0,2E0,3.6E1,4E0,1E0,3.7E1,2E0,2E0,5E0,7E0],"tree_param":{"num_deleted":"0","num_feature":"7","num_nodes":"121","size_leaf_vector":"1"}},{"base_weights":[1.4768553E-2,-6.0890996E-1,2.8292308E0,-1.2056732E0,-7.251906E-2,2.4307306E0,7.9603224E0,-9.7984993E-1,-1.5088841E0,5.346545E-1,-5.825456E-1,3.2729018E0,1.0301241E0,1.0473068E1,1.3116028E0,-1.3779413E0,-8.6456573E-1,-1.2101947E0,-1.6470946E0,-2.7387694E-1,1.0484632E0,1.9787088E-2,-9.32759E-1,6.3278097E-1,3.7396314E0,7.023623E-1,2.9394658E0,1.1865649E1,4.4792285E0,-4.2702165E-1,2.0222962E0,-1.4059466E0,1.9238527E-1,-5.319158E-1,-1.0322227E0,-1.2485485E0,5.100167E-1,-1.6611799E0,-9.3316555E-2,-4.0726736E-1,7.936639E-1,1.9246173E0,5.204226E-1,-3.61427E-1,5.775094E-1,-7.03437E-1,-1.4239933E0,2.5311258E0,-2.200986E-1,2.9302459E0,5.11918E0,2.4651105E0,2.4853678E-1,4.493072E0,4.3582428E-1,1.3192137E1,2.6044836E0,2.1523461E0,6.035376E-1,-2.3513922E-1,3.099451E-1,-4.2969617E-1,1.6097982E-1,-3.2493985E-1,1.3951948E-1,-3.1751987E-1,3.7729988E-1,-4.198179E-1,-2.1658143E-1,4.033137E-1,-1.7380619E-1,-5.0082815E-1,-1.5739483E-1,-1.981863E-1,1.5619384E-1,-1.6081867E-1,3.244879E-1,1.3002217E-1,5.56844E-1,2.9118213E-1,1.2869697E0,-8.597304E-2,2.7682236E-1,9.6282355E-2,-2.8139108E-1,3.7631032E-1,7.657536E-2,-2.5674158E-1,7.7298686E-2,-4.3919718E-1,3.2636297E-1,8.498351E-2,9.173034E-1,1.0552138E-1,-4.008778E-1,-2.2674501E-2,9.394063E-1,1.6205912E0,-7.0118535E-1,-1.7613573E-1,9.5280045E-1,2.0079331E-1,-2.4652672E-1,1.7110029E-1,1.9959481E0,7.937718E-1,-4.258218E-1,5.0117593E0,2.8041122E0,1.0303464E0,1.4167129E-1,-2.0262338E-2,1.5973765E-1],"categories":[],"categories_nodes":[],"categories_segments":[],"categories_sizes":[],"default_left":[0,0,0,0,0,0,0,0,0,0,0,0,0,0,0,0,0,0,0,0,0,0,0,0,0,0,0,0,0,0,0,0,0,0,0,0,0,0,0,0,0,0,0,0,0,0,0,0,0,0,0,0,0,0,0,0,0,0,0,0,0,0,0,0,0,0,0,0,0,0,0,0,0,0,0,0,0,0,0,0,0,0,0,0,0,0,0,0,0,0,0,0,0,0,0,0,0,0,0,0,0,0,0,0,0,0,0,0,0,0,0,0,0],"id":1,"left_children":[1,3,5,7,9,11,13,15,17,19,21,23,25,27,29,31,33,35,37,39,41,43,45,47,49,51,53,55,57,59,-1,61,-1,63,65,67,69,71,73,75,77,79,81,83,85,87,89,91,93,95,97,99,101,103,105,107,109,-1,-1,-1,111,-1,-1,-1,-1,-1,-1,-1,-1,-1,-1,-1,-1,-1,-1,-1,-1,-1,-1,-1,-1,-1,-1,-1,-1,-1,-1,-1,-1,-1,-1,-1,-1,-1,-1,-1,-1,-1,-1,-1,-1,-1,-1,-1,-1,-1,-1,-1,-1,-1,-1,-1,-1],"loss_changes":[3.4158193E3,5.0982935E2,7.0244385E2,5.0149414E1,2.604381E2,3.847008E2,4.0392725E2,1.87724E1,1.121698E1,1.5981247E2,9.64203E1,2.5023926E2,7.6161575E1,9.709534E1,7.839584E1,6.3303223E0,1.8413132E1,7.564331E0,4.5722046E0,2.1683193E1,1.0771994E2,3.6140087E1,3.1554398E1,5.2367E1,1.7928564E2,8.578519E1,6.805594E1,1.3762903E2,1.8818321E1,2.0834572E0,0E0,5.635681E0,0E0,6.425185E1,1.48181E1,7.1716614E0,3.5056608E0,1.1299438E0,1.3888608E0,2.6275904E1,5.7025642E0,1.9440839E2,4.8315727E1,4.0035927E1,1.4730318E1,2.9362274E1,1.0735199E1,1.096991E1,1.5150025E1,6.794025E1,1.4546875E2,4.960034E1,3.973059E1,8.941353E1,3.65573E1,5.9768066E0,3.6874256E0,0E0,0E0,0E0,2.8795043E-1,0E0,0E0,0E0,0E0,0E0,0E0,0E0,0E0,0E0,0E0,0E0,0E0,0E0,0E0,0E0,0E0,0E0,0E0,0E0,0E0,0E0,0E0,0E0,0E0,0E0,0E0,0E0,0E0,0E0,0E0,0E0,0E0,0E0,0E0,0E0,0E0,0E0,0E0,0E0,0E0,0E0,0E0,0E0,0E0,0E0,0E0,0E0,0E0,0E0,0E0,0E0,0E0],"parents":[2147483647,0,0,1,1,2,2,3,3,4,4,5,5,6,6,7,7,8,8,9,9,10,10,11,11,12,12,13,13,14,14,15,15,16,16,17,17,18,18,19,19,20,20,21,21,22,22,23,23,24,24,25,25,26,26,27,27,28,28,29,29,31,31,33,33,34,34,35,35,36,36,37,37,38,38,39,39,40,40,41,41,42,42,43,43,44,44,45,45,46,46,47,47,48,48,49,49,50,50,51,51,52,52,53,53,54,54,55,55,56,56,60,60],"right_children":[2,4,6,8,10,12,14,16,18,20,22,24,26,28,30,32,34,36,38,40,42,44,46,48,50,52,54,56,58,60,-1,62,-1,64,66,68,70,72,74,76,78,80,82,84,86,88,90,92,94,96,98,100,102,104,106,108,110,-1,-1,-1,112,-1,-1,-1,-1,-1,-1,-1,-1,-1,-1,-1,-1,-1,-1,-1,-1,-1,-1,-1,-1,-1,-1,-1,-1,-1,-1,-1,-1,-1,-1,-1,-1,-1,-1,-1,-1,-1,-1,-1,-1,-1,-1,-1,-1,-1,-1,-1,-1,-1,-1,-1,-1],"split_conditions":[4.73E0,1.6E0,1.86E1,2.624799E2,2.057134E2,2.1603712E2,2.0957443E1,7.5E-1,1.5646544E1,1.12163055E2,1.5281989E1,4.8976078E1,1.188E1,9.5545E0,3.2E0,2.8001427E1,1.4458382E1,1.5528064E1,1.0000001E1,1.8223253E1,8.714917E0,2.6E0,2.792987E2,1.2496719E1,8.49E0,1.1298495E1,6.95E0,2.1364937E2,5.33E0,8.49E0,2.0222962E0,1.4300001E1,1.9238527E-1,1.288981E1,1.74E1,1.19E0,5.3E-1,1.922325E1,1.22E0,4.26E0,3E-1,1.9291292E2,2.2E0,5.7774167E0,2.3501485E2,3.87E0,1.88E1,5.03E0,7.6E0,-5.9758335E-1,2.440046E1,2.3361554E2,2.0008356E1,1.37E0,2.4621312E2,3.23E0,2.42E1,2.1523461E0,6.035376E-1,-2.3513922E-1,2.007E1,-4.2969617E-1,1.6097982E-1,-3.2493985E-1,1.3951948E-1,-3.1751987E-1,3.7729988E-1,-4.198179E-1,-2.1658143E-1,4.033137E-1,-1.7380619E-1,-5.0082815E-1,-1.5739483E-1,-1.981863E-1,1.5619384E-1,-1.6081867E-1,3.244879E-1,1.3002217E-1,5.56844E-1,2.9118213E-1,1.2869697E0,-8.597304E-2,2.7682236E-1,9.6282355E-2,-2.8139108E-1,3.7631032E-1,7.657536E-2,-2.5674158E-1,7.7298686E-2,-4.3919718E-1,3.2636297E-1,8.498351E-2,9.173034E-1,1.0552138E-1,-4.008778E-1,-2.2674501E-2,9.394063E-1,1.6205912E0,-7.0118535E-1,-1.7613573E-1,9.5280045E-1,2.0079331E-1,-2.4652672E-1,1.7110029E-1,1.9959481E0,7.937718E-1,-4.258218E-1,5.0117593E0,2.8041122E0,1.0303464E0,1.4167129E-1,-2.0262338E-2,1.5973765E-1],"split_indices":[0,0,0,6,6,6,5,0,5,6,5,6,0,3,4,5,5,5,4,3,3,0,6,5,0,5,2,6,1,2,0,4,0,5,4,0,0,3,0,0,4,6,0,3,6,0,4,0,0,3,5,6,5,2,6,2,0,0,0,0,0,0,0,0,0,0,0,0,0,0,0,0,0,0,0,0,0,0,0,0,0,0,0,0,0,0,0,0,0,0,0,0,0,0,0,0,0,0,0,0,0,0,0,0,0,0,0,0,0,0,0,0,0],"split_type":[0,0,0,0,0,0,0,0,0,0,0,0,0,0,0,0,0,0,0,0,0,0,0,0,0,0,0,0,0,0,0,0,0,0,0,0,0,0,0,0,0,0,0,0,0,0,0,0,0,0,0,0,0,0,0,0,0,0,0,0,0,0,0,0,0,0,0,0,0,0,0,0,0,0,0,0,0,0,0,0,0,0,0,0,0,0,0,0,0,0,0,0,0,0,0,0,0,0,0,0,0,0,0,0,0,0,0,0,0,0,0,0,0],"sum_hessian":[1.944E3,1.592E3,3.52E2,7.53E2,8.39E2,3.28E2,2.4E1,4.34E2,3.19E2,3.83E2,4.56E2,2.04E2,1.24E2,1.7E1,7E0,9.5E1,3.39E2,1.04E2,2.15E2,1.49E2,2.34E2,1.68E2,2.88E2,3.1E1,1.73E2,1.07E2,1.7E1,1.3E1,4E0,6E0,1E0,9.4E1,1E0,1.15E2,2.24E2,1.02E2,2E0,2.13E2,2E0,1.33E2,1.6E1,8.7E1,1.47E2,1E2,6.8E1,1.98E2,9E1,9E0,2.2E1,1.11E2,6.2E1,2.1E1,8.6E1,1E1,7E0,1.1E1,2E0,1E0,3E0,4E0,2E0,9.3E1,1E0,7.4E1,4.1E1,2.22E2,2E0,7.8E1,2.4E1,1E0,1E0,2.11E2,2E0,1E0,1E0,1.23E2,1E1,1.3E1,3E0,6.3E1,2.4E1,4.9E1,9.8E1,4.6E1,5.4E1,2.1E1,4.7E1,1.71E2,2.7E1,8.9E1,1E0,2E0,7E0,1.5E1,7E0,7E0,1.04E2,6E1,2E0,4E0,1.7E1,6.2E1,2.4E1,4E0,6E0,3E0,4E0,4E0,7E0,1E0,1E0,1E0,1E0],"tree_param":{"num_deleted":"0","num_feature":"7","num_nodes":"113","size_leaf_vector":"1"}},{"base_weights":[2.101427E-2,-3.918935E-1,2.2864316E0,-6.571813E-1,3.2999912E-1,3.345649E0,9.8453957E-1,-3.8075694E-1,-9.239501E-1,7.075439E-1,-1.7645553E-1,1.6561633E0,4.701317E0,1.783468E0,2.706222E-1,-8.0143124E-1,-1.9693537E-1,-5.945069E-1,-1.0513812E0,4.7909778E-1,1.817382E0,8.219456E-1,-3.687929E-1,-6.9057417E-1,2.0702991E0,1.0252907E1,4.1888175E0,1.469762E0,5.1912475E0,1.0451982E-1,3.1097584E0,-2.3632763E-1,-9.22019E-1,-6.7026633E-1,7.7656964E-3,-2.2870647E-3,-8.420555E-1,-1.0672349E0,-6.18798E-2,3.0150378E-1,1.9991596E0,6.6198816E0,1.1550773E0,-3.7763909E-1,1.1249515E0,-9.663518E-2,-6.759499E-1,3.9628524E-1,-1.0968924E0,3.8816822E0,1.2192333E0,1.4425925E0,1.3133945E1,3.2697988E0,8.259584E0,1.0960438E0,4.1427646E0,1.9902908E0,-8.714576E-2,1.9840014E0,-2.0530535E-1,1.4633119E0,2.6836216E-1,-1.4776324E-1,1.2066742E-1,-3.1784236E-1,-1.7825831E-1,-2.1270844E-1,6.204285E-1,3.5925218E-1,-3.718587E-2,-8.799311E-2,2.6800355E-1,-2.8923422E-1,-2.4979923E-2,-2.7453327E-1,-3.4591195E-1,-1.9793321E-1,3.4636256E-1,1.0315507E-1,-5.292469E-1,1.3310636E0,1.6972962E-1,4.4975016E-1,2.8601909E0,6.121339E-1,1.13454305E-1,1.2241889E-2,-1.3625433E-1,4.7317782E-1,4.36793E-2,1.7458403E-1,-9.3325034E-2,-4.4130996E-2,-2.5582594E-1,-2.5174296E-1,3.2634273E-1,-4.1620293E-1,-1.16097935E-1,7.144124E-1,2.3718991E0,6.7553574E-1,-1.8416984E-1,1.111554E0,4.5125427E0,1.0772659E0,-5.060197E-1,3.364458E0,1.5129915E0,4.541662E-1,-2.0249106E-1,-3.1816363E-2,1.7590511E0,8.201075E-1,-2.0295206E-1,-3.3590677E-1,5.202805E-2],"categories":[],"categories_nodes":[],"categories_segments":[],"categories_sizes":[],"default_left":[0,0,0,0,0,0,0,0,0,0,0,0,0,0,0,0,0,0,0,0,0,0,0,0,0,0,0,0,0,0,0,0,0,0,0,0,0,0,0,0,0,0,0,0,0,0,0,0,0,0,0,0,0,0,0,0,0,0,0,0,0,0,0,0,0,0,0,0,0,0,0,0,0,0,0,0,0,0,0,0,0,0,0,0,0,0,0,0,0,0,0,0,0,0,0,0,0,0,0,0,0,0,0,0,0,0,0,0,0,0,0,0,0,0,0,0,0],"id":2,"left_children":[1,3,5,7,9,11,13,15,17,19,21,23,25,27,29,31,33,35,37,39,41,43,45,47,49,51,53,55,57,59,61,63,65,67,69,71,73,75,77,79,81,83,85,87,89,91,93,95,97,99,101,-1,103,105,107,109,111,-1,-1,113,115,-1,-1,-1,-1,-1,-1,-1,-1,-1,-1,-1,-1,-1,-1,-1,-1,-1,-1,-1,-1,-1,-1,-1,-1,-1,-1,-1,-1,-1,-1,-1,-1,-1,-1,-1,-1,-1,-1,-1,-1,-1,-1,-1,-1,-1,-1,-1,-1,-1,-1,-1,-1,-1,-1,-1,-1],"loss_changes":[1.8202654E3,3.1544116E2,4.104021E2,8.843292E1,8.4830574E1,3.701267E2,7.708751E1,4.5698265E1,2.5067505E1,6.3528015E1,3.6788795E1,7.431981E1,2.1596436E2,6.078871E1,3.4100838E1,1.2048126E1,4.011823E1,2.5360428E1,6.8363037E0,5.6627464E1,1.291244E2,1.1692745E1,1.3309904E1,5.7340117E0,9.3930115E1,4.6639587E1,2.9098718E2,5.5396347E1,4.147937E1,4.1169075E1,1.1302254E1,5.597165E0,6.039543E0,1.4734295E1,4.5594643E1,1.3815819E1,1.1218964E1,4.5968323E0,6.580105E0,1.7314028E1,7.436244E1,6.031804E1,2.6054092E1,2.4273384E-1,1.0844589E1,1.2695816E1,6.887188E0,4.33014E0,1.3188238E0,1.0193625E2,8.6558624E1,0E0,1.6222534E1,1.1905194E2,8.601495E1,4.098217E1,5.179959E1,0E0,0E0,2.1794937E1,2.1318888E1,0E0,0E0,0E0,0E0,0E0,0E0,0E0,0E0,0E0,0E0,0E0,0E0,0E0,0E0,0E0,0E0,0E0,0E0,0E0,0E0,0E0,0E0,0E0,0E0,0E0,0E0,0E0,0E0,0E0,0E0,0E0,0E0,0E0,0E0,0E0,0E0,0E0,0E0,0E0,0E0,0E0,0E0,0E0,0E0,0E0,0E0,0E0,0E0,0E0,0E0,0E0,0E0,0E0,0E0,0E0,0E0],"parents":[2147483647,0,0,1,1,2,2,3,3,4,4,5,5,6,6,7,7,8,8,9,9,10,10,11,11,12,12,13,13,14,14,15,15,16,16,17,17,18,18,19,19,20,20,21,21,22,22,23,23,24,24,25,25,26,26,27,27,28,28,29,29,30,30,31,31,32,32,33,33,34,34,35,35,36,36,37,37,38,38,39,39,40,40,41,41,42,42,43,43,44,44,45,45,46,46,47,47,48,48,49,49,50,50,52,52,53,53,54,54,55,55,56,56,59,59,60,60],"right_children":[2,4,6,8,10,12,14,16,18,20,22,24,26,28,30,32,34,36,38,40,42,44,46,48,50,52,54,56,58,60,62,64,66,68,70,72,74,76,78,80,82,84,86,88,90,92,94,96,98,100,102,-1,104,106,108,110,112,-1,-1,114,116,-1,-1,-1,-1,-1,-1,-1,-1,-1,-1,-1,-1,-1,-1,-1,-1,-1,-1,-1,-1,-1,-1,-1,-1,-1,-1,-1,-1,-1,-1,-1,-1,-1,-1,-1,-1,-1,-1,-1,-1,-1,-1,-1,-1,-1,-1,-1,-1,-1,-1,-1,-1,-1,-1,-1,-1],"split_conditions":[5.3E0,2.6E0,1.9993867E2,2.3968571E2,2.1882977E2,5.2378335E0,2.392312E2,1.1E0,1.4561099E1,1.9845604E2,1.2015589E1,-5.9758335E-1,6.47325E0,1.653E1,1.533E1,5.544999E-1,1.05722626E2,8.545E-1,1.0000001E1,8.400001E0,2.0236023E2,2.392312E2,1.8161278E1,-3.2038329E0,4.09E0,5.7774167E0,1.653E1,2.3501485E2,7.79E0,1.0739832E1,1.343E1,2.67E0,1.8671474E1,2.52E0,1.0961665E0,4E0,1.6892E1,2.7398795E2,2.02E0,1.9765706E2,9.599999E0,3.43E0,3.23E0,8.797931E0,3.97E0,2.3763672E2,2.7961667E0,6.23E0,-1.2996666E0,1.7882974E2,1.6516901E1,1.4425925E0,2.5E0,2.6987997E1,9.394084E0,7.79E0,2.517E0,1.9902908E0,-8.714576E-2,4.05E0,2.62325E0,1.4633119E0,2.6836216E-1,-1.4776324E-1,1.2066742E-1,-3.1784236E-1,-1.7825831E-1,-2.1270844E-1,6.204285E-1,3.5925218E-1,-3.718587E-2,-8.799311E-2,2.6800355E-1,-2.8923422E-1,-2.4979923E-2,-2.7453327E-1,-3.4591195E-1,-1.9793321E-1,3.4636256E-1,1.0315507E-1,-5.292469E-1,1.3310636E0,1.6972962E-1,4.4975016E-1,2.8601909E0,6.121339E-1,1.13454305E-1,1.2241889E-2,-1.3625433E-1,4.7317782E-1,4.36793E-2,1.7458403E-1,-9.3325034E-2,-4.4130996E-2,-2.5582594E-1,-2.5174296E-1,3.2634273E-1,-4.1620293E-1,-1.16097935E-1,7.144124E-1,2.3718991E0,6.7553574E-1,-1.8416984E-1,1.111554E0,4.5125427E0,1.0772659E0,-5.060197E-1,3.364458E0,1.5129915E0,4.541662E-1,-2.0249106E-1,-3.1816363E-2,1.7590511E0,8.201075E-1,-2.0295206E-1,-3.3590677E-1,5.202805E-2],"split_indices":[0,0,6,6,6,3,6,0,5,6,5,3,3,1,0,3,6,3,4,4,6,6,5,3,1,3,0,6,2,5,1,2,5,0,3,2,3,6,0,6,4,0,0,5,2,6,3,0,3,6,5,0,2,5,3,1,3,0,0,2,3,0,0,0,0,0,0,0,0,0,0,0,0,0,0,0,0,0,0,0,0,0,0,0,0,0,0,0,0,0,0,0,0,0,0,0,0,0,0,0,0,0,0,0,0,0,0,0,0,0,0,0,0,0,0,0,0],"split_type":[0,0,0,0,0,0,0,0,0,0,0,0,0,0,0,0,0,0,0,0,0,0,0,0,0,0,0,0,0,0,0,0,0,0,0,0,0,0,0,0,0,0,0,0,0,0,0,0,0,0,0,0,0,0,0,0,0,0,0,0,0,0,0,0,0,0,0,0,0,0,0,0,0,0,0,0,0,0,0,0,0,0,0,0,0,0,0,0,0,0,0,0,0,0,0,0,0,0,0,0,0,0,0,0,0,0,0,0,0,0,0,0,0,0,0,0,0],"sum_hessian":[1.944E3,1.645E3,2.99E2,1.203E3,4.42E2,1.64E2,1.35E2,5.92E2,6.11E2,2.53E2,1.89E2,7.4E1,9E1,6.3E1,7.2E1,1.79E2,4.13E2,1.72E2,4.39E2,2.11E2,4.2E1,3E1,1.59E2,1.1E1,6.3E1,6E0,8.4E1,5.9E1,4E0,6.9E1,3E0,3.2E1,1.47E2,1.24E2,2.89E2,5.1E1,1.21E2,4.32E2,7E0,1.9E2,2.1E1,4E0,3.8E1,6E0,2.4E1,8.5E1,7.4E1,3E0,8E0,1.9E1,4.4E1,3E0,3E0,7E1,1.4E1,5.3E1,6E0,3E0,1E0,9E0,6E1,1E0,2E0,2.3E1,9E0,1.02E2,4.5E1,1.23E2,1E0,2.8E1,2.61E2,3.9E1,1.2E1,1.04E2,1.7E1,1.6E2,2.72E2,5E0,2E0,1.87E2,3E0,7E0,1.4E1,2E0,2E0,1.7E1,2.1E1,1E0,5E0,1.6E1,8E0,2E1,6.5E1,1.9E1,5.5E1,1E0,2E0,5E0,3E0,1.5E1,4E0,2.8E1,1.6E1,1E0,2E0,6.6E1,4E0,6E0,8E0,4.3E1,1E1,2E0,4E0,7E0,2E0,1.7E1,4.3E1],"tree_param":{"num_deleted":"0","num_feature":"7","num_nodes":"117","size_leaf_vector":"1"}},{"base_weights":[2.8317768E-2,-2.5919968E-1,1.767904E0,-5.1044697E-1,1.6494438E-1,1.4726076E0,4.673776E0,-3.6895874E-1,-7.390892E-1,1.3223186E-1,4.175223E0,2.1124518E0,7.281028E-1,6.132036E0,8.0846953E-1,-5.4361117E-1,-1.5430169E-1,-6.2883484E-1,-9.0397984E-1,3.914486E-1,-1.9250557E-1,-1.4334042E-1,2.230952E0,4.05001E-1,2.729252E0,1.0862046E0,-8.520677E-2,9.346578E0,4.545983E0,-4.9699003E-1,1.4920031E0,-6.937177E-1,-2.4011882E-1,1.8992995E-1,-3.5925373E-1,-4.1583607E-1,-7.5141037E-1,-9.147662E-1,-4.1759968E-2,3.5839307E-1,3.111569E0,5.355085E-1,-3.3349314E-1,1.7062725E0,-1.2262756E0,4.4828053E0,1.974572E0,3.1370267E-1,1.7462358E0,1.8633732E0,-6.8700033E-1,8.0766946E-1,3.101132E0,5.6314707E0,4.243952E-1,-7.6138E-1,1.6340247E-1,-2.2697021E-1,-2.974985E-2,3.4907153E-1,-1.2646055E-1,-1.6533473E-1,1.8142363E-1,-1.4867358E-1,8.386591E-2,-1.5367793E-1,7.8492366E-2,-2.4595262E-1,-7.660426E-2,-1.878951E-1,-2.8649902E-1,-8.850689E-2,6.9714904E-2,8.625097E-2,3.9780673E-1,1.4297508E0,-2.7768475E-1,-6.550897E-2,2.1901263E-1,-1.1134129E-1,4.3267924E-1,-1.366897E-1,6.2757087E-1,-2.1495335E-1,-6.919223E-1,8.277047E-1,3.189249E0,9.122975E-1,1.24729656E-1,3.3632886E-1,-4.161968E-1,-1.9199607E-1,6.419549E-1,7.076949E-1,2.5747946E-2,4.690934E-1,-3.020491E-1,5.897877E-1,2.2335594E0,2.4817206E-1,-1.1762095E-1,-1.0323068E-1,-2.6519802E-1],"categories":[],"categories_nodes":[],"categories_segments":[],"categories_sizes":[],"default_left":[0,0,0,0,0,0,0,0,0,0,0,0,0,0,0,0,0,0,0,0,0,0,0,0,0,0,0,0,0,0,0,0,0,0,0,0,0,0,0,0,0,0,0,0,0,0,0,0,0,0,0,0,0,0,0,0,0,0,0,0,0,0,0,0,0,0,0,0,0,0,0,0,0,0,0,0,0,0,0,0,0,0,0,0,0,0,0,0,0,0,0,0,0,0,0,0,0,0,0,0,0,0,0],"id":3,"left_children":[1,3,5,7,9,11,13,15,17,19,21,23,25,27,29,31,33,35,37,39,41,-1,-1,43,45,47,49,51,53,55,-1,57,59,61,63,65,67,69,71,73,75,77,79,81,83,85,87,89,91,93,95,-1,-1,97,99,101,-1,-1,-1,-1,-1,-1,-1,-1,-1,-1,-1,-1,-1,-1,-1,-1,-1,-1,-1,-1,-1,-1,-1,-1,-1,-1,-1,-1,-1,-1,-1,-1,-1,-1,-1,-1,-1,-1,-1,-1,-1,-1,-1,-1,-1,-1,-1],"loss_changes":[9.732722E2,1.780478E2,2.2995111E2,3.366266E1,8.104579E1,1.1850641E2,1.3595801E2,2.4284859E1,6.7035065E0,5.2096977E1,7.942732E1,1.4107074E2,3.4459774E1,4.928241E1,4.5968296E1,1.614254E1,2.0739672E1,6.0318832E0,1.4312439E0,2.9815586E1,2.8404846E1,0E0,0E0,8.06335E1,1.2216217E2,4.1261993E1,4.466792E1,5.126709E0,6.0245117E1,2.3425448E0,0E0,8.855782E0,3.1048775E1,3.414698E1,1.6162216E1,6.0785885E0,4.984459E0,1.2121735E0,2.7684915E-1,2.3009697E1,3.1125664E1,6.7588167E0,1.5977032E1,1.8460754E1,7.7078514E0,2.7800854E2,1.1676193E2,5.511779E1,4.2696472E1,7.726259E0,2.244921E1,0E0,0E0,5.8493652E1,1.639971E0,2.7985573E-3,0E0,0E0,0E0,0E0,0E0,0E0,0E0,0E0,0E0,0E0,0E0,0E0,0E0,0E0,0E0,0E0,0E0,0E0,0E0,0E0,0E0,0E0,0E0,0E0,0E0,0E0,0E0,0E0,0E0,0E0,0E0,0E0,0E0,0E0,0E0,0E0,0E0,0E0,0E0,0E0,0E0,0E0,0E0,0E0,0E0,0E0,0E0],"parents":[2147483647,0,0,1,1,2,2,3,3,4,4,5,5,6,6,7,7,8,8,9,9,10,10,11,11,12,12,13,13,14,14,15,15,16,16,17,17,18,18,19,19,20,20,23,23,24,24,25,25,26,26,27,27,28,28,29,29,31,31,32,32,33,33,34,34,35,35,36,36,37,37,38,38,39,39,40,40,41,41,42,42,43,43,44,44,45,45,46,46,47,47,48,48,49,49,50,50,53,53,54,54,55,55],"right_children":[2,4,6,8,10,12,14,16,18,20,22,24,26,28,30,32,34,36,38,40,42,-1,-1,44,46,48,50,52,54,56,-1,58,60,62,64,66,68,70,72,74,76,78,80,82,84,86,88,90,92,94,96,-1,-1,98,100,102,-1,-1,-1,-1,-1,-1,-1,-1,-1,-1,-1,-1,-1,-1,-1,-1,-1,-1,-1,-1,-1,-1,-1,-1,-1,-1,-1,-1,-1,-1,-1,-1,-1,-1,-1,-1,-1,-1,-1,-1,-1,-1,-1,-1,-1,-1,-1],"split_conditions":[5.67E0,2.2E0,1.86E1,2.639055E2,2.42E1,1.9993867E2,2.0957443E1,1.33E0,1.8671474E1,2.1882977E2,4.37E0,8.529074E1,2.6175684E2,5.33E0,3.2E0,9.0000004E-1,5.7774167E0,1.93575E0,1.7425333E1,3.371338E1,1.2145665E1,-1.4334042E-1,2.230952E0,1.477755E1,3.67E0,4.75E0,2.57E0,2.1420002E0,9.5545E0,2.007E1,1.4920031E0,2.93E0,1.2000002E0,6.295E-1,1.7833666E1,3.97E0,2.7E0,-1.5663332E0,1.02E0,2.0450335E1,2.75E0,2.4163106E2,1.533E1,-1.9580001E0,2.141319E1,8.67E0,2.0000002E0,8.400332E0,1.0829959E1,6.13E0,1.0172787E1,8.0766946E-1,3.101132E0,6.47325E0,2.42E1,8.400332E0,1.6340247E-1,-2.2697021E-1,-2.974985E-2,3.4907153E-1,-1.2646055E-1,-1.6533473E-1,1.8142363E-1,-1.4867358E-1,8.386591E-2,-1.5367793E-1,7.8492366E-2,-2.4595262E-1,-7.660426E-2,-1.878951E-1,-2.8649902E-1,-8.850689E-2,6.9714904E-2,8.625097E-2,3.9780673E-1,1.4297508E0,-2.7768475E-1,-6.550897E-2,2.1901263E-1,-1.1134129E-1,4.3267924E-1,-1.366897E-1,6.2757087E-1,-2.1495335E-1,-6.919223E-1,8.277047E-1,3.189249E0,9.122975E-1,1.24729656E-1,3.3632886E-1,-4.161968E-1,-1.9199607E-1,6.419549E-1,7.076949E-1,2.5747946E-2,4.690934E-1,-3.020491E-1,5.897877E-1,2.2335594E0,2.4817206E-1,-1.1762095E-1,-1.0323068E-1,-2.6519802E-1],"split_indices":[0,0,0,6,1,6,5,0,5,6,0,6,6,1,4,4,3,3,3,5,5,0,0,5,1,1,2,3,3,1,0,1,4,3,3,2,4,3,0,3,0,6,2,3,5,0,4,3,5,1,5,0,0,3,0,3,0,0,0,0,0,0,0,0,0,0,0,0,0,0,0,0,0,0,0,0,0,0,0,0,0,0,0,0,0,0,0,0,0,0,0,0,0,0,0,0,0,0,0,0,0,0,0],"split_type":[0,0,0,0,0,0,0,0,0,0,0,0,0,0,0,0,0,0,0,0,0,0,0,0,0,0,0,0,0,0,0,0,0,0,0,0,0,0,0,0,0,0,0,0,0,0,0,0,0,0,0,0,0,0,0,0,0,0,0,0,0,0,0,0,0,0,0,0,0,0,0,0,0,0,0,0,0,0,0,0,0,0,0,0,0,0,0,0,0,0,0,0,0,0,0,0,0,0,0,0,0,0,0],"sum_hessian":[1.944E3,1.669E3,2.75E2,1.048E3,6.21E2,2.51E2,2.4E1,6.49E2,3.99E2,6.17E2,4E0,1.34E2,1.17E2,1.7E1,7E0,3.57E2,2.92E2,2.42E2,1.57E2,3.43E2,2.74E2,2E0,2E0,3.6E1,9.8E1,8.1E1,3.6E1,4E0,1.3E1,6E0,1E0,2.38E2,1.19E2,1.09E2,1.83E2,9E1,1.52E2,1.55E2,2E0,3.4E2,3E0,4.4E1,2.3E2,2E1,1.6E1,2.8E1,7E1,3.8E1,4.3E1,8E0,2.8E1,1E0,3E0,1E1,3E0,5E0,1E0,2.15E2,2.3E1,1.3E1,1.06E2,3.9E1,7E1,1.51E2,3.2E1,7.9E1,1.1E1,1.33E2,1.9E1,2.1E1,1.34E2,1E0,1E0,3.18E2,2.2E1,2E0,1E0,9E0,3.5E1,2.26E2,4E0,3E0,1.7E1,1.2E1,4E0,2.3E1,5E0,4.1E1,2.9E1,2.6E1,1.2E1,6E0,3.7E1,6E0,2E0,3E0,2.5E1,4E0,6E0,2E0,1E0,2E0,3E0],"tree_param":{"num_deleted":"0","num_feature":"7","num_nodes":"103","size_leaf_vector":"1"}},{"base_weights":[2.870832E-2,-2.5775093E-1,9.540338E-1,-4.3375024E-1,-7.635769E-2,6.969647E-1,2.796158E0,-6.293887E-1,-3.540341E-1,2.0044932E-1,-3.1113756E-1,8.764188E-1,-2.7288336E-1,4.12925E0,1.2113835E0,-7.6961213E-1,-4.5447978E-1,4.641614E-1,-3.7838802E-1,-1.5108602E-1,6.842555E-1,5.7657734E-2,-4.3717128E-1,7.854799E-1,3.311782E0,1.3929791E0,-6.071723E-1,7.4673424E0,2.3430512E0,-1.3771145E0,2.1862135E0,-7.855402E-1,3.243624E-2,-5.767937E-1,-2.5234247E-2,-1.4013252E-1,1.4292855E0,-3.8836026E-1,1.0126026E0,-3.1756142E-1,9.496209E-1,3.6679466E0,2.7626342E-1,4.5841813E-1,-2.3051484E-1,-4.60556E-1,1.0159302E0,7.163804E-1,3.4858255E0,2.4042819E0,2.1557126E0,-4.9234402E-1,3.046139E0,-1.1326009E0,3.4268638E-1,8.114659E0,2.4622315E-1,-6.5791124E-1,3.0878606E0,-7.6586205E-1,-1.6791485E-1,4.5279016E0,5.770043E-1,-2.6594463E-1,-2.0246123E-1,-6.347455E-2,-2.1570945E-1,4.094247E-1,-6.678049E-2,-1.1328843E-1,5.5571355E-2,-6.377282E-2,-1.4149602E-1,5.3804344E-1,4.6345428E-2,-1.2832147E-1,1.9281133E-1,7.6407486E-1,2.9464988E-2,-6.669411E-1,1.5267352E0,1.304375E0,4.2481765E-2,8.72424E-2,5.022281E-1,-1.4352535E-1,6.582825E-2,-1.2226208E-1,-2.5928986E-1,9.134925E-3,3.7640634E-1,2.0087667E-1,1.2876923E0,4.8893535E-1,1.282048E0,8.45645E-1,-1.6565105E-1,-3.8046354E-1,5.080492E-1,1.1996831E0,-2.576824E-1,-4.6519724E-1,-1.4154458E-1,2.6205483E-1,-5.997035E-1,6.8484735E-1,2.5674858E0,-3.5829332E-1,2.2315322E-1,-1.2792063E-2,1.2163115E0,1.8536355E0,3.9969674E-1,-1.0024556E-1,1.1176727E0],"categories":[],"categories_nodes":[],"categories_segments":[],"categories_sizes":[],"default_left":[0,0,0,0,0,0,0,0,0,0,0,0,0,0,0,0,0,0,0,0,0,0,0,0,0,0,0,0,0,0,0,0,0,0,0,0,0,0,0,0,0,0,0,0,0,0,0,0,0,0,0,0,0,0,0,0,0,0,0,0,0,0,0,0,0,0,0,0,0,0,0,0,0,0,0,0,0,0,0,0,0,0,0,0,0,0,0,0,0,0,0,0,0,0,0,0,0,0,0,0,0,0,0,0,0,0,0,0,0,0,0,0,0,0,0],"id":4,"left_children":[1,3,5,7,9,11,13,15,17,19,21,23,25,27,29,31,33,35,37,39,41,43,45,47,49,51,53,55,57,59,61,63,-1,65,67,69,-1,71,73,75,77,79,81,83,85,87,89,91,93,-1,95,97,99,101,103,105,-1,107,109,-1,-1,111,113,-1,-1,-1,-1,-1,-1,-1,-1,-1,-1,-1,-1,-1,-1,-1,-1,-1,-1,-1,-1,-1,-1,-1,-1,-1,-1,-1,-1,-1,-1,-1,-1,-1,-1,-1,-1,-1,-1,-1,-1,-1,-1,-1,-1,-1,-1,-1,-1,-1,-1,-1,-1],"loss_changes":[5.158032E2,4.7407562E1,2.1588562E2,1.1536224E1,4.7699093E1,7.072667E1,1.13306305E2,4.9724426E0,1.0895966E1,5.7418648E1,1.847802E1,7.314114E1,3.648606E1,1.6137854E2,7.1141E1,1.7486267E0,5.1832104E0,4.2244247E1,7.647949E0,3.6216724E1,1.7184647E2,1.1885464E1,1.0526077E1,5.926497E1,4.7960403E1,3.5783897E1,2.7338608E1,3.6364502E1,4.8969574E1,6.2596226E0,7.2752716E1,7.087631E-1,0E0,3.8477802E0,6.613555E0,1.2290612E0,0E0,7.5133743E0,2.4032679E0,1.8366537E1,3.510839E1,1.536418E2,6.846743E1,8.274817E0,6.7975E0,5.8979607E0,1.1382504E0,5.133864E1,4.7306747E0,0E0,2.1308151E1,1.2323256E1,2.575953E1,8.936977E0,2.6607025E1,3.7473145E0,0E0,4.647887E0,5.1609177E1,0E0,0E0,3.397209E1,3.8539825E1,0E0,0E0,0E0,0E0,0E0,0E0,0E0,0E0,0E0,0E0,0E0,0E0,0E0,0E0,0E0,0E0,0E0,0E0,0E0,0E0,0E0,0E0,0E0,0E0,0E0,0E0,0E0,0E0,0E0,0E0,0E0,0E0,0E0,0E0,0E0,0E0,0E0,0E0,0E0,0E0,0E0,0E0,0E0,0E0,0E0,0E0,0E0,0E0,0E0,0E0,0E0,0E0],"parents":[2147483647,0,0,1,1,2,2,3,3,4,4,5,5,6,6,7,7,8,8,9,9,10,10,11,11,12,12,13,13,14,14,15,15,16,16,17,17,18,18,19,19,20,20,21,21,22,22,23,23,24,24,25,25,26,26,27,27,28,28,29,29,30,30,31,31,33,33,34,34,35,35,37,37,38,38,39,39,40,40,41,41,42,42,43,43,44,44,45,45,46,46,47,47,48,48,50,50,51,51,52,52,53,53,54,54,55,55,57,57,58,58,61,61,62,62],"right_children":[2,4,6,8,10,12,14,16,18,20,22,24,26,28,30,32,34,36,38,40,42,44,46,48,50,52,54,56,58,60,62,64,-1,66,68,70,-1,72,74,76,78,80,82,84,86,88,90,92,94,-1,96,98,100,102,104,106,-1,108,110,-1,-1,112,114,-1,-1,-1,-1,-1,-1,-1,-1,-1,-1,-1,-1,-1,-1,-1,-1,-1,-1,-1,-1,-1,-1,-1,-1,-1,-1,-1,-1,-1,-1,-1,-1,-1,-1,-1,-1,-1,-1,-1,-1,-1,-1,-1,-1,-1,-1,-1,-1,-1,-1,-1,-1],"split_conditions":[3.9E0,1.6E0,1.343E1,7.5E-1,2.0656497E2,2.1518847E1,1.9144002E2,3E-1,4.7E-1,1.5622366E2,1.4021525E1,2.0620804E1,2E0,7.6E0,2.1006218E2,1.8516998E1,1.37E0,6E-1,1.88E1,1.8394083E1,1.0961665E0,1.619083E0,1.8825333E1,2.22545E1,1.57E0,1.6E0,3.7E0,1.5089915E1,7.483107E1,1.653E1,2.2577449E2,5.4E-1,3.243624E-2,5.3E-1,1.43E0,1.8161278E1,1.4292855E0,1.4404499E1,1.27E0,3.57E0,2.33E0,-1.7017502E0,1.6007182E2,1.375558E1,3E-1,5.7E0,2.52E0,2.42E1,4.9E0,2.4042819E0,7.53E0,9.2E-1,1.3171165E1,5.43E0,1.533E1,1.442E1,2.4622315E-1,1.653E1,4.8399167E0,-7.6586205E-1,-1.6791485E-1,9.0000004E-1,2.0808498E1,-2.6594463E-1,-2.0246123E-1,-6.347455E-2,-2.1570945E-1,4.094247E-1,-6.678049E-2,-1.1328843E-1,5.5571355E-2,-6.377282E-2,-1.4149602E-1,5.3804344E-1,4.6345428E-2,-1.2832147E-1,1.9281133E-1,7.6407486E-1,2.9464988E-2,-6.669411E-1,1.5267352E0,1.304375E0,4.2481765E-2,8.72424E-2,5.022281E-1,-1.4352535E-1,6.582825E-2,-1.2226208E-1,-2.5928986E-1,9.134925E-3,3.7640634E-1,2.0087667E-1,1.2876923E0,4.8893535E-1,1.282048E0,8.45645E-1,-1.6565105E-1,-3.8046354E-1,5.080492E-1,1.1996831E0,-2.576824E-1,-4.6519724E-1,-1.4154458E-1,2.6205483E-1,-5.997035E-1,6.8484735E-1,2.5674858E0,-3.5829332E-1,2.2315322E-1,-1.2792063E-2,1.2163115E0,1.8536355E0,3.9969674E-1,-1.0024556E-1,1.1176727E0],"split_indices":[0,0,0,0,6,5,6,4,1,6,5,5,1,1,6,3,1,4,4,3,3,3,3,3,2,1,4,3,6,0,6,0,0,1,1,5,0,5,0,0,1,3,6,5,4,1,0,1,0,0,0,2,3,2,1,0,0,1,3,0,0,4,5,0,0,0,0,0,0,0,0,0,0,0,0,0,0,0,0,0,0,0,0,0,0,0,0,0,0,0,0,0,0,0,0,0,0,0,0,0,0,0,0,0,0,0,0,0,0,0,0,0,0,0,0],"split_type":[0,0,0,0,0,0,0,0,0,0,0,0,0,0,0,0,0,0,0,0,0,0,0,0,0,0,0,0,0,0,0,0,0,0,0,0,0,0,0,0,0,0,0,0,0,0,0,0,0,0,0,0,0,0,0,0,0,0,0,0,0,0,0,0,0,0,0,0,0,0,0,0,0,0,0,0,0,0,0,0,0,0,0,0,0,0,0,0,0,0,0,0,0,0,0,0,0,0,0,0,0,0,0,0,0,0,0,0,0,0,0,0,0,0,0],"sum_hessian":[1.944E3,1.485E3,4.59E2,7.53E2,7.32E2,4.04E2,5.5E1,2.16E2,5.37E2,3.36E2,3.96E2,3.41E2,6.3E1,2.9E1,2.6E1,1.18E2,9.8E1,1.5E1,5.22E2,1.95E2,1.41E2,1.01E2,2.95E2,3.3E2,1.1E1,1E1,5.3E1,9E0,2E1,7E0,1.9E1,1.16E2,2E0,7.6E1,2.2E1,1.4E1,1E0,5.19E2,3E0,1.7E2,2.5E1,1.6E1,1.25E2,4.2E1,5.9E1,2.91E2,4E0,3.23E2,7E0,1E0,1E1,5E0,5E0,3.4E1,1.9E1,8E0,1E0,4E0,1.6E1,2E0,5E0,7E0,1.2E1,5.7E1,5.9E1,2.2E1,5.4E1,2E0,2E1,8E0,6E0,1.68E2,3.51E2,1E0,2E0,1.53E2,1.7E1,8E0,1.7E1,3E0,1.3E1,3E0,1.22E2,3.8E1,4E0,3.8E1,2.1E1,2.59E2,3.2E1,1E0,3E0,3.2E2,3E0,3E0,4E0,8E0,2E0,4E0,1E0,4E0,1E0,2E1,1.4E1,1.6E1,3E0,1E0,7E0,3E0,1E0,4E0,1.2E1,4E0,3E0,1E1,2E0],"tree_param":{"num_deleted":"0","num_feature":"7","num_nodes":"115","size_leaf_vector":"1"}},{"base_weights":[2.9520793E-2,-1.205491E-1,1.0382068E0,-2.2741161E-1,1.417381E-1,3.7340812E-2,1.4004807E0,-1.04834475E-1,-3.3929875E-1,8.689777E-3,6.428455E-1,1.3867542E0,-4.3965492E-1,-7.16572E-1,1.5384357E0,-1.9478565E-1,1.1477781E-1,4.7581386E-2,-3.8017818E-1,2.1216996E-1,-2.6883587E-1,1.3414673E0,-4.1542318E-2,3.3593205E-1,3.4324098E0,2.3770316E0,-6.652193E-1,1.4697858E-2,-4.3508747E-1,2.2192829E0,8.159492E-1,-3.8744456E-1,7.834921E-2,1.1153888E0,-1.4743234E-1,-1.6619891E-1,5.6751204E-1,-4.0108898E-1,7.196227E-2,1.2816343E-1,2.005494E0,-4.071005E-1,6.4838886E-1,8.98807E-1,4.5116177E0,1.4111056E0,-3.7074545E-1,1.5434239E0,-3.722225E-1,-4.726583E-1,1.424731E0,2.0691717E-1,8.1286794E-1,-1.6775155E0,-1.0664884E-1,-2.586224E-1,5.3782177E-1,4.4627724E0,1.5465817E0,3.6617565E0,6.3247377E-1,-1.8758596E-1,-4.0872347E-2,2.1425954E-1,-6.004778E-2,6.1857957E-2,2.433032E0,6.952664E-1,-7.8282006E-2,-8.0641225E-2,6.2861726E-2,2.903319E-1,-1.18291624E-1,7.2232716E-2,-1.2406794E-1,-3.8929958E-2,2.8355294E-1,1.8031628E-1,-2.1145435E-2,2.146513E0,1.9149521E-1,5.612089E-1,-1.406495E-1,3.8990483E-1,-2.7987298E-1,1.3204234E0,1.918697E-1,-2.476075E-2,2.0487986E0,7.9862624E-1,-1.1168814E-1,-1.7746326E-2,-4.2727187E-1,6.758057E-1,-1.9404353E-1,9.1618426E-2,-3.8867787E-1,1.00104906E-1,-5.4722124E-1,1.589605E0,-1.355819E-1,2.7877873E-1,6.2293805E-2,7.021184E-2,2.3704104E0,6.7528975E-1,-6.1250914E-2,5.831056E-2,1.7725679E0,4.0411207E-1,2.9477764E-2],"categories":[],"categories_nodes":[],"categories_segments":[],"categories_sizes":[],"default_left":[0,0,0,0,0,0,0,0,0,0,0,0,0,0,0,0,0,0,0,0,0,0,0,0,0,0,0,0,0,0,0,0,0,0,0,0,0,0,0,0,0,0,0,0,0,0,0,0,0,0,0,0,0,0,0,0,0,0,0,0,0,0,0,0,0,0,0,0,0,0,0,0,0,0,0,0,0,0,0,0,0,0,0,0,0,0,0,0,0,0,0,0,0,0,0,0,0,0,0,0,0,0,0,0,0,0,0,0,0,0,0],"id":5,"left_children":[1,3,5,7,9,11,13,15,17,19,21,23,25,27,29,31,33,35,37,39,41,43,45,47,49,51,53,55,-1,57,59,61,63,65,67,69,71,73,75,77,79,81,83,85,87,89,91,93,95,-1,-1,-1,-1,97,99,-1,101,103,105,107,109,-1,-1,-1,-1,-1,-1,-1,-1,-1,-1,-1,-1,-1,-1,-1,-1,-1,-1,-1,-1,-1,-1,-1,-1,-1,-1,-1,-1,-1,-1,-1,-1,-1,-1,-1,-1,-1,-1,-1,-1,-1,-1,-1,-1,-1,-1,-1,-1,-1,-1],"loss_changes":[2.945464E2,4.75128E1,9.131979E1,1.6477058E1,3.2730118E1,4.4378872E1,5.5133087E1,1.1400882E1,9.965988E0,2.2024246E1,4.9302937E1,3.7540108E1,3.3983803E1,6.45988E0,8.3780304E1,2.1552694E1,4.4242664E1,6.874526E0,5.4085464E0,3.3639435E1,2.118922E1,6.7513176E1,2.5868622E1,1.1690678E1,4.7045837E1,3.7545967E-1,2.6962158E1,3.674267E0,0E0,1.27416504E2,4.258772E1,1.4254021E1,3.0248148E1,2.2091258E2,3.8097263E1,1.752642E0,7.311201E0,4.4540634E0,4.702616E0,2.033317E1,6.5836235E1,2.1125013E1,2.3870075E1,3.8953926E1,6.445118E1,2.330108E1,1.4359158E1,9.224316E0,6.026891E0,0E0,0E0,0E0,0E0,5.619438E0,6.2119854E1,0E0,4.532634E-1,2.889688E2,8.678369E1,3.7804237E1,3.1169647E1,0E0,0E0,0E0,0E0,0E0,0E0,0E0,0E0,0E0,0E0,0E0,0E0,0E0,0E0,0E0,0E0,0E0,0E0,0E0,0E0,0E0,0E0,0E0,0E0,0E0,0E0,0E0,0E0,0E0,0E0,0E0,0E0,0E0,0E0,0E0,0E0,0E0,0E0,0E0,0E0,0E0,0E0,0E0,0E0,0E0,0E0,0E0,0E0,0E0,0E0],"parents":[2147483647,0,0,1,1,2,2,3,3,4,4,5,5,6,6,7,7,8,8,9,9,10,10,11,11,12,12,13,13,14,14,15,15,16,16,17,17,18,18,19,19,20,20,21,21,22,22,23,23,24,24,25,25,26,26,27,27,29,29,30,30,31,31,32,32,33,33,34,34,35,35,36,36,37,37,38,38,39,39,40,40,41,41,42,42,43,43,44,44,45,45,46,46,47,47,48,48,53,53,54,54,56,56,57,57,58,58,59,59,60,60],"right_children":[2,4,6,8,10,12,14,16,18,20,22,24,26,28,30,32,34,36,38,40,42,44,46,48,50,52,54,56,-1,58,60,62,64,66,68,70,72,74,76,78,80,82,84,86,88,90,92,94,96,-1,-1,-1,-1,98,100,-1,102,104,106,108,110,-1,-1,-1,-1,-1,-1,-1,-1,-1,-1,-1,-1,-1,-1,-1,-1,-1,-1,-1,-1,-1,-1,-1,-1,-1,-1,-1,-1,-1,-1,-1,-1,-1,-1,-1,-1,-1,-1,-1,-1,-1,-1,-1,-1,-1,-1,-1,-1,-1,-1],"split_conditions":[5.99E0,2.6E0,2.62325E0,2.3707654E2,3.2E0,1.2145665E1,3.934051E1,2.33E0,-3.8600829E0,9.762834E0,1.8751125E1,1.0948973E1,1.31E0,7.77E0,1.9144002E2,1.8316722E2,1.37E0,1.93E0,1.7425333E1,8.625333E0,5.33E0,5.05E0,9.7E-1,7.207649E1,3.62E0,8.3E-1,3.2E0,1.77E0,-4.3508747E-1,3.62E0,3.2753334E0,2E-1,2.0129744E2,1.7E0,2.43E0,4E-1,1.662249E1,9.793058E0,1E0,1.2496719E1,8.714917E0,2.63E0,7E-1,3.5000002E0,1.4869351E1,1.9683173E2,2.6368616E1,3.87E0,6E0,-4.726583E-1,1.424731E0,2.0691717E-1,8.1286794E-1,1.37E0,3.4E0,-2.586224E-1,4.33E0,1.528682E2,1.6392322E2,2.06E0,2.9E0,-1.8758596E-1,-4.0872347E-2,2.1425954E-1,-6.004778E-2,6.1857957E-2,2.433032E0,6.952664E-1,-7.8282006E-2,-8.0641225E-2,6.2861726E-2,2.903319E-1,-1.18291624E-1,7.2232716E-2,-1.2406794E-1,-3.8929958E-2,2.8355294E-1,1.8031628E-1,-2.1145435E-2,2.146513E0,1.9149521E-1,5.612089E-1,-1.406495E-1,3.8990483E-1,-2.7987298E-1,1.3204234E0,1.918697E-1,-2.476075E-2,2.0487986E0,7.9862624E-1,-1.1168814E-1,-1.7746326E-2,-4.2727187E-1,6.758057E-1,-1.9404353E-1,9.1618426E-2,-3.8867787E-1,1.00104906E-1,-5.4722124E-1,1.589605E0,-1.355819E-1,2.7877873E-1,6.2293805E-2,7.021184E-2,2.3704104E0,6.7528975E-1,-6.1250914E-2,5.831056E-2,1.7725679E0,4.0411207E-1,2.9477764E-2],"split_indices":[0,0,3,6,4,5,6,2,3,3,5,5,1,0,6,6,1,0,3,3,1,1,2,6,1,1,2,1,0,1,3,4,6,0,2,4,5,5,4,5,3,0,4,4,5,6,5,2,1,0,0,0,0,1,2,0,1,6,6,1,2,0,0,0,0,0,0,0,0,0,0,0,0,0,0,0,0,0,0,0,0,0,0,0,0,0,0,0,0,0,0,0,0,0,0,0,0,0,0,0,0,0,0,0,0,0,0,0,0,0,0],"split_type":[0,0,0,0,0,0,0,0,0,0,0,0,0,0,0,0,0,0,0,0,0,0,0,0,0,0,0,0,0,0,0,0,0,0,0,0,0,0,0,0,0,0,0,0,0,0,0,0,0,0,0,0,0,0,0,0,0,0,0,0,0,0,0,0,0,0,0,0,0,0,0,0,0,0,0,0,0,0,0,0,0,0,0,0,0,0,0,0,0,0,0,0,0,0,0,0,0,0,0,0,0,0,0,0,0,0,0,0,0,0,0],"sum_hessian":[1.944E3,1.693E3,2.51E2,1.203E3,4.9E2,6.7E1,1.84E2,5.75E2,6.28E2,3.88E2,1.02E2,1.7E1,5E1,1.1E1,1.73E2,4.08E2,1.67E2,6E1,5.68E2,2.24E2,1.64E2,5E1,5.2E1,1.2E1,5E0,3E0,4.7E1,6E0,5E0,8.8E1,8.5E1,2.39E2,1.69E2,3.4E1,1.33E2,4.3E1,1.7E1,5.43E2,2.5E1,2.15E2,9E0,1.43E2,2.1E1,4.5E1,5E0,9E0,4.3E1,4E0,8E0,1E0,4E0,1E0,2E0,1.6E1,3.1E1,2E0,4E0,1.9E1,6.9E1,4E0,8.1E1,1.22E2,1.17E2,5.1E1,1.18E2,3.1E1,3E0,5E0,1.28E2,3.4E1,9E0,1.2E1,5E0,1E1,5.33E2,2.1E1,4E0,6.3E1,1.52E2,1E0,8E0,3E0,1.4E2,1.5E1,6E0,2E0,4.3E1,2E0,3E0,5E0,4E0,3.4E1,9E0,3E0,1E0,5E0,3E0,1E0,1.5E1,1E0,3E1,1E0,3E0,9E0,1E1,4.9E1,2E1,2E0,2E0,3.4E1,4.7E1],"tree_param":{"num_deleted":"0","num_feature":"7","num_nodes":"111","size_leaf_vector":"1"}},{"base_weights":[3.0083908E-2,-6.456168E-2,1.0250846E0,-1.4380722E-1,1.7296386E-1,1.1834013E0,-9.657469E-1,-1.6613121E-1,3.2442638E-1,-3.6809814E-1,3.1696063E-1,4.178185E-1,1.7197608E0,-1.2446296E0,3.5712683E-1,-1.4818068E-1,-9.310374E-1,-2.0732544E-2,1.3842958E0,-5.254129E-1,5.683729E-1,3.9470264E-1,-9.2719704E-1,4.317711E0,1.6357423E-1,2.1073906E0,1.1953123E-1,-6.969131E-1,-5.6161505E-1,-8.127597E-2,-2.9355937E-1,-1.133235E0,-4.3353865E-1,9.51932E-1,-1.8629156E-1,7.2634023E-1,2.2501726E0,5.923906E-1,-6.067472E-1,-9.584028E-1,1.2749234E0,6.305199E-1,3.262712E-2,-1.4268075E0,2.7585343E-1,2.556044E-1,1.5566815E0,3.3667383E-1,-1.0231926E0,-2.0053384E0,2.309412E0,2.8944104E0,-5.8165926E-1,-5.495476E-2,-8.376262E-1,8.485438E-3,-9.8274834E-2,-1.13910295E-1,-8.300367E-3,-3.6305463E-1,4.9314097E-2,-2.390761E-1,-1.7539252E-2,6.9595486E-1,-1.961905E-1,-1.19096905E-1,1.5197149E-1,3.4196717E-1,-5.3687412E-2,7.6743066E-1,1.06578864E-1,4.1719928E-1,-4.6323683E-2,-2.7795023E-1,-7.878365E-2,-4.178958E-1,-6.130563E-2,-1.7075732E-1,5.4213035E-1,1.7109033E-1,1.3244579E0,3.082167E-1,-2.8230645E-2,-1.738698E-2,-5.757908E-1,2.217151E-1,-7.689203E-2,6.545911E-1,1.7118562E-2,-6.886916E-1,-1.7016573E-1,-3.889385E-2,7.99668E-1,1.0294801E0,1.9242619E-1,-4.6194026E-1,4.4161722E-2,-2.781951E-1,-5.8375884E-2],"categories":[],"categories_nodes":[],"categories_segments":[],"categories_sizes":[],"default_left":[0,0,0,0,0,0,0,0,0,0,0,0,0,0,0,0,0,0,0,0,0,0,0,0,0,0,0,0,0,0,0,0,0,0,0,0,0,0,0,0,0,0,0,0,0,0,0,0,0,0,0,0,0,0,0,0,0,0,0,0,0,0,0,0,0,0,0,0,0,0,0,0,0,0,0,0,0,0,0,0,0,0,0,0,0,0,0,0,0,0,0,0,0,0,0,0,0,0,0],"id":6,"left_children":[1,3,5,7,9,11,13,15,17,19,21,23,25,27,-1,29,31,33,35,37,39,41,43,45,47,49,51,53,-1,55,57,59,61,63,65,67,69,71,73,75,77,79,81,83,85,-1,-1,87,-1,89,91,93,95,-1,97,-1,-1,-1,-1,-1,-1,-1,-1,-1,-1,-1,-1,-1,-1,-1,-1,-1,-1,-1,-1,-1,-1,-1,-1,-1,-1,-1,-1,-1,-1,-1,-1,-1,-1,-1,-1,-1,-1,-1,-1,-1,-1,-1,-1],"loss_changes":[1.8323155E2,3.3473057E1,5.44086E1,1.3987537E1,3.4787148E1,6.3749985E1,9.298776E0,1.734093E1,2.234393E1,1.414678E1,3.4412582E1,6.47344E1,5.681537E1,2.8191261E0,0E0,1.2085655E1,2.4258957E0,7.745906E0,6.911234E0,7.72361E0,1.632431E1,2.8326801E1,1.3015778E1,7.6565857E0,4.0126083E1,6.611478E1,3.8652218E1,4.2487025E-1,0E0,2.3054935E1,8.967987E0,2.1958847E0,1.3163605E0,1.6894281E1,6.1864867E0,3.9478574E0,2.5921898E0,3.7916534E0,8.119604E0,1.3538294E0,1.0842548E1,4.3287758E1,1.6737316E1,1.0001053E1,1.9148881E0,0E0,0E0,3.1349474E1,0E0,3.6781502E-1,6.2020844E1,2.6400337E0,1.140036E1,0E0,1.6560555E-1,0E0,0E0,0E0,0E0,0E0,0E0,0E0,0E0,0E0,0E0,0E0,0E0,0E0,0E0,0E0,0E0,0E0,0E0,0E0,0E0,0E0,0E0,0E0,0E0,0E0,0E0,0E0,0E0,0E0,0E0,0E0,0E0,0E0,0E0,0E0,0E0,0E0,0E0,0E0,0E0,0E0,0E0,0E0,0E0],"parents":[2147483647,0,0,1,1,2,2,3,3,4,4,5,5,6,6,7,7,8,8,9,9,10,10,11,11,12,12,13,13,15,15,16,16,17,17,18,18,19,19,20,20,21,21,22,22,23,23,24,24,25,25,26,26,27,27,29,29,30,30,31,31,32,32,33,33,34,34,35,35,36,36,37,37,38,38,39,39,40,40,41,41,42,42,43,43,44,44,47,47,49,49,50,50,51,51,52,52,54,54],"right_children":[2,4,6,8,10,12,14,16,18,20,22,24,26,28,-1,30,32,34,36,38,40,42,44,46,48,50,52,54,-1,56,58,60,62,64,66,68,70,72,74,76,78,80,82,84,86,-1,-1,88,-1,90,92,94,96,-1,98,-1,-1,-1,-1,-1,-1,-1,-1,-1,-1,-1,-1,-1,-1,-1,-1,-1,-1,-1,-1,-1,-1,-1,-1,-1,-1,-1,-1,-1,-1,-1,-1,-1,-1,-1,-1,-1,-1,-1,-1,-1,-1,-1,-1],"split_conditions":[7.53E0,3.1E0,2.3667091E1,1.8648252E1,2.1E0,4.8399167E0,3.1338614E1,2.89E0,6E-1,2.3233253E1,7.07E0,1.63E0,2.392312E2,1.4791999E1,3.5712683E-1,1.0896167E1,2.3553001E2,1.876075E1,2.019825E1,-4.0809164E0,7.6E-1,2.1882977E2,7.33E0,1.139E1,4.8045E0,1.33E0,5.8524165E0,1.9683173E2,-5.6161505E-1,2.0240196E1,2.9E0,8.799999E0,1.7414476E1,2.22E0,2.47E0,1.9321169E1,2.63E0,3.3E0,1.9144002E2,1E-1,3.62E0,2.42E1,1.0630672E1,9.4445625E1,2.3999999E0,2.556044E-1,1.5566815E0,8E0,-1.0231926E0,1.43E0,8.3379364E1,1.343E1,1.2849528E1,-5.495476E-2,1.043E1,8.485438E-3,-9.8274834E-2,-1.13910295E-1,-8.300367E-3,-3.6305463E-1,4.9314097E-2,-2.390761E-1,-1.7539252E-2,6.9595486E-1,-1.961905E-1,-1.19096905E-1,1.5197149E-1,3.4196717E-1,-5.3687412E-2,7.6743066E-1,1.06578864E-1,4.1719928E-1,-4.6323683E-2,-2.7795023E-1,-7.878365E-2,-4.178958E-1,-6.130563E-2,-1.7075732E-1,5.4213035E-1,1.7109033E-1,1.3244579E0,3.082167E-1,-2.8230645E-2,-1.738698E-2,-5.757908E-1,2.217151E-1,-7.689203E-2,6.545911E-1,1.7118562E-2,-6.886916E-1,-1.7016573E-1,-3.889385E-2,7.99668E-1,1.0294801E0,1.9242619E-1,-4.6194026E-1,4.4161722E-2,-2.781951E-1,-5.8375884E-2],"split_indices":[0,0,5,3,1,3,5,0,4,5,0,1,6,3,0,3,6,3,3,3,2,6,0,0,3,2,3,6,0,5,2,4,5,0,0,3,0,0,6,4,0,1,5,6,4,0,0,0,0,1,6,1,5,0,1,0,0,0,0,0,0,0,0,0,0,0,0,0,0,0,0,0,0,0,0,0,0,0,0,0,0,0,0,0,0,0,0,0,0,0,0,0,0,0,0,0,0,0,0],"split_type":[0,0,0,0,0,0,0,0,0,0,0,0,0,0,0,0,0,0,0,0,0,0,0,0,0,0,0,0,0,0,0,0,0,0,0,0,0,0,0,0,0,0,0,0,0,0,0,0,0,0,0,0,0,0,0,0,0,0,0,0,0,0,0,0,0,0,0,0,0,0,0,0,0,0,0,0,0,0,0,0,0,0,0,0,0,0,0,0,0,0,0,0,0,0,0,0,0,0,0],"sum_hessian":[1.944E3,1.776E3,1.68E2,1.332E3,4.44E2,1.56E2,1.2E1,1.272E3,6E1,9.3E1,3.51E2,6.5E1,9.1E1,1.1E1,1E0,1.244E3,2.8E1,4.6E1,1.4E1,8E1,1.3E1,3.31E2,2E1,3E0,6.2E1,7.3E1,1.8E1,7E0,4E0,8.53E2,3.91E2,1.9E1,9E0,6E0,4E1,9E0,5E0,5E0,7.5E1,4E0,9E0,2E2,1.31E2,1.4E1,6E0,1E0,2E0,6E1,2E0,3E0,7E1,3E0,1.5E1,2E0,5E0,5.91E2,2.62E2,2.95E2,9.6E1,1.8E1,1E0,4E0,5E0,3E0,3E0,3.1E1,9E0,6E0,3E0,4E0,1E0,2E0,3E0,3.8E1,3.7E1,2E0,2E0,2E0,7E0,1.98E2,2E0,1.4E1,1.17E2,4E0,1E1,3E0,3E0,7E0,5.3E1,2E0,1E0,9E0,6.1E1,2E0,1E0,6E0,9E0,4E0,1E0],"tree_param":{"num_deleted":"0","num_feature":"7","num_nodes":"99","size_leaf_vector":"1"}},{"base_weights":[2.2969743E-2,-1.7183967E-2,1.3777473E0,-2.7022002E-2,2.0419676E0,2.23982E0,3.688612E-1,8.33946E-2,-1.723095E-1,9.4000286E-1,2.735539E0,2.9258199E0,3.140623E-1,-3.1673864E-1,1.775254E0,-1.2545934E-2,2.9951763E-1,4.6556202E-1,-1.9734362E-1,1.0569094E-1,3.643105E-1,9.181146E-1,2.1542503E-1,3.1618466E0,3.7703452E-1,-6.210405E-1,7.1738446E-1,7.4250287E-1,-1.3443062E0,-4.458708E-1,1.3989384E0,1.08664155E-1,-1.692573E-1,-4.022987E-1,4.3574432E-1,3.4480715E-1,6.1323124E-1,-2.1286595E-1,4.380213E-1,4.4119587E0,1.9607754E0,-3.311026E-1,5.007682E-1,-9.87841E-1,2.3696437E-1,1.3671927E0,-1.1708379E0,-1.6154366E0,-1.601255E-1,-1.4928318E0,7.183402E-1,-5.0428987E-2,1.2552688E-1,2.121348E-2,-1.0363246E-1,9.2538066E-2,-3.3734462E-1,6.851393E-1,1.0071362E-1,4.518027E-2,3.289596E-1,-3.562219E-2,-9.1493025E-2,2.5132698E-1,-1.100756E-1,1.5277507E0,6.8644625E-1,-5.718566E-1,8.7743616E-1,-5.241542E-1,1.0616756E-1,-8.836377E-3,6.633217E-1,-2.92758E-2,-4.976013E-1,-1.4169317E-1,-5.181718E-1,-1.06002085E-1,-6.404139E-1],"categories":[],"categories_nodes":[],"categories_segments":[],"categories_sizes":[],"default_left":[0,0,0,0,0,0,0,0,0,0,0,0,0,0,0,0,0,0,0,0,0,0,0,0,0,0,0,0,0,0,0,0,0,0,0,0,0,0,0,0,0,0,0,0,0,0,0,0,0,0,0,0,0,0,0,0,0,0,0,0,0,0,0,0,0,0,0,0,0,0,0,0,0,0,0,0,0,0,0],"id":7,"left_children":[1,3,5,7,9,11,13,15,17,19,21,23,25,27,29,31,33,35,37,-1,-1,-1,-1,39,41,43,-1,45,47,49,-1,51,53,55,57,59,-1,61,63,65,67,-1,-1,69,-1,71,73,75,-1,77,-1,-1,-1,-1,-1,-1,-1,-1,-1,-1,-1,-1,-1,-1,-1,-1,-1,-1,-1,-1,-1,-1,-1,-1,-1,-1,-1,-1,-1],"loss_changes":[1.05830414E2,3.8342808E1,4.7878883E1,3.02057E1,4.307205E0,3.871318E1,2.6596302E1,2.2190163E1,1.3074301E1,3.78397E-1,1.079174E0,1.2042679E1,1.8966803E1,2.1678555E1,5.9808105E1,1.4112681E1,3.1629711E1,5.204294E0,7.815462E0,0E0,0E0,0E0,0E0,2.1378616E1,7.5823717E0,4.4029646E0,0E0,1.3553209E1,1.3354187E0,2.141688E1,0E0,3.5990814E1,1.3722735E1,2.806496E1,5.0256023E1,4.214551E0,0E0,6.596302E0,6.420883E0,1.3556519E0,5.0308777E1,0E0,0E0,6.731296E0,0E0,9.49394E0,1.4088397E0,7.883644E-2,0E0,2.9028091E0,0E0,0E0,0E0,0E0,0E0,0E0,0E0,0E0,0E0,0E0,0E0,0E0,0E0,0E0,0E0,0E0,0E0,0E0,0E0,0E0,0E0,0E0,0E0,0E0,0E0,0E0,0E0,0E0,0E0],"parents":[2147483647,0,0,1,1,2,2,3,3,4,4,5,5,6,6,7,7,8,8,9,9,10,10,11,11,12,12,13,13,14,14,15,15,16,16,17,17,18,18,23,23,24,24,25,25,27,27,28,28,29,29,31,31,32,32,33,33,34,34,35,35,37,37,38,38,39,39,40,40,43,43,45,45,46,46,47,47,49,49],"right_children":[2,4,6,8,10,12,14,16,18,20,22,24,26,28,30,32,34,36,38,-1,-1,-1,-1,40,42,44,-1,46,48,50,-1,52,54,56,58,60,-1,62,64,66,68,-1,-1,70,-1,72,74,76,-1,78,-1,-1,-1,-1,-1,-1,-1,-1,-1,-1,-1,-1,-1,-1,-1,-1,-1,-1,-1,-1,-1,-1,-1,-1,-1,-1,-1,-1,-1],"split_conditions":[1.343E1,2.22545E1,9.0000004E-1,2.3968571E2,2.82E0,2.2577449E2,4.3E0,3.5E0,1.0172787E1,2.1E0,2.93E0,1.7358667E1,7.69825E0,2.3999999E0,2.0808498E1,1.0896167E1,1.0883676E1,8.400001E0,1.0000001E1,1.0569094E-1,3.643105E-1,9.181146E-1,2.1542503E-1,4.09E0,1.232E1,1.7414476E1,7.1738446E-1,1.188E1,2.2961115E1,2.007E1,1.3989384E0,1.6836409E2,1.6392322E2,1.3747388E2,1.1521406E1,5.42E0,6.1323124E-1,2.8538995E2,1.5700003E1,1E-1,6.13E0,-3.311026E-1,5.007682E-1,1.232E1,2.3696437E-1,3.67E0,1.86E1,2.43E0,-1.601255E-1,4.33E0,7.183402E-1,-5.0428987E-2,1.2552688E-1,2.121348E-2,-1.0363246E-1,9.2538066E-2,-3.3734462E-1,6.851393E-1,1.0071362E-1,4.518027E-2,3.289596E-1,-3.562219E-2,-9.1493025E-2,2.5132698E-1,-1.100756E-1,1.5277507E0,6.8644625E-1,-5.718566E-1,8.7743616E-1,-5.241542E-1,1.0616756E-1,-8.836377E-3,6.633217E-1,-2.92758E-2,-4.976013E-1,-1.4169317E-1,-5.181718E-1,-1.06002085E-1,-6.404139E-1],"split_indices":[0,3,4,6,1,6,4,0,5,2,2,3,3,4,5,3,5,4,4,0,0,0,0,2,1,5,0,2,5,0,0,6,6,6,5,0,0,6,4,4,2,0,0,1,0,2,0,2,0,1,0,0,0,0,0,0,0,0,0,0,0,0,0,0,0,0,0,0,0,0,0,0,0,0,0,0,0,0,0],"split_type":[0,0,0,0,0,0,0,0,0,0,0,0,0,0,0,0,0,0,0,0,0,0,0,0,0,0,0,0,0,0,0,0,0,0,0,0,0,0,0,0,0,0,0,0,0,0,0,0,0,0,0,0,0,0,0,0,0,0,0,0,0,0,0,0,0,0,0,0,0,0,0,0,0,0,0,0,0,0,0],"sum_hessian":[1.944E3,1.889E3,5.5E1,1.881E3,8E0,2.9E1,2.6E1,1.069E3,8.12E2,4E0,4E0,2.1E1,8E0,1.8E1,8E0,7.41E2,3.28E2,3E1,7.82E2,2E0,2E0,3E0,1E0,1.9E1,2E0,6E0,2E0,9E0,9E0,5E0,3E0,4.18E2,3.23E2,5.3E1,2.75E2,2.9E1,1E0,7.64E2,1.8E1,8E0,1.1E1,1E0,1E0,5E0,1E0,7E0,2E0,6E0,3E0,4E0,1E0,2.21E2,1.97E2,1.37E2,1.86E2,2.7E1,2.6E1,1.3E1,2.62E2,2.4E1,5E0,3.79E2,3.85E2,1.2E1,6E0,5E0,3E0,2E0,9E0,3E0,2E0,3E0,4E0,1E0,1E0,1E0,5E0,2E0,2E0],"tree_param":{"num_deleted":"0","num_feature":"7","num_nodes":"79","size_leaf_vector":"1"}},{"base_weights":[1.9699916E-2,-8.261586E-3,1.1249338E0,-1.5951548E-2,1.6075486E0,2.5233793E0,8.24629E-1,-2.1123974E-1,3.333372E-2,1.030995E0,9.3299663E-1,2.9898553E0,-1.1129287E-1,2.0246022E0,4.238678E-1,-2.1306831E-2,-2.6325712E-1,9.05412E-2,-2.1719489E-1,8.455274E-2,3.7012166E-1,1.7999934E-1,3.2881653E0,1.0321707E-1,3.2883227E0,2.0310364E0,-1.9648157E-1,1.1254195E0,-1.4173451E-1,-4.228526E-1,-1.9789042E-1,6.821248E-2,7.706769E-1,-7.9526085E-1,-1.3971147E-1,2.649602E-1,1.0777555E0,5.2517796E-1,-7.4627525E-1,2.6899196E-2,1.1730365E0,1.2722771E-1,3.5286376E0,5.771908E-1,-4.76703E-1,1.6779101E-1,7.63235E-1,7.029389E-2,-7.6217584E-2,1.9580677E-2,-1.4212595E-1,-2.1112037E-1,-5.089334E-2,1.8353302E-2,6.4267695E-1,5.2791458E-2,8.200428E-1,-1.6431001E-1,-4.9095896E-1,3.87914E-1,-6.531362E-2,-2.819205E-1,-2.4884433E-2,1.9782801E-1,-1.3421416E-1,-1.8590927E-1,1.4161938E0,-5.2581394E-1,7.068477E-2],"categories":[],"categories_nodes":[],"categories_segments":[],"categories_sizes":[],"default_left":[0,0,0,0,0,0,0,0,0,0,0,0,0,0,0,0,0,0,0,0,0,0,0,0,0,0,0,0,0,0,0,0,0,0,0,0,0,0,0,0,0,0,0,0,0,0,0,0,0,0,0,0,0,0,0,0,0,0,0,0,0,0,0,0,0,0,0,0,0],"id":8,"left_children":[1,3,5,7,9,11,13,15,17,19,-1,21,-1,23,25,27,29,31,33,-1,-1,-1,35,37,39,41,43,45,47,49,51,53,55,57,59,-1,-1,-1,61,-1,-1,63,65,-1,67,-1,-1,-1,-1,-1,-1,-1,-1,-1,-1,-1,-1,-1,-1,-1,-1,-1,-1,-1,-1,-1,-1,-1,-1],"loss_changes":[6.0117577E1,2.360928E1,1.8077225E1,1.8197971E1,4.589752E0,1.1910343E1,1.8858845E1,3.7585983E0,2.1661154E1,8.6736774E-1,0E0,3.0175362E0,0E0,2.3941528E1,3.2303253E1,1.1621612E1,3.0355587E0,1.8626896E1,1.2475031E1,0E0,0E0,0E0,1.2188339E0,8.303591E0,1.1582939E1,2.5211376E1,1.5177857E1,5.002247E0,3.2697072E0,2.1676455E0,2.9382591E0,1.7260822E1,4.5043182E1,5.976425E0,2.8108755E1,0E0,0E0,0E0,4.35359E-1,0E0,0E0,1.8240443E0,2.7649624E1,0E0,2.040934E1,0E0,0E0,0E0,0E0,0E0,0E0,0E0,0E0,0E0,0E0,0E0,0E0,0E0,0E0,0E0,0E0,0E0,0E0,0E0,0E0,0E0,0E0,0E0,0E0],"parents":[2147483647,0,0,1,1,2,2,3,3,4,4,5,5,6,6,7,7,8,8,9,9,11,11,13,13,14,14,15,15,16,16,17,17,18,18,22,22,23,23,24,24,25,25,26,26,27,27,28,28,29,29,30,30,31,31,32,32,33,33,34,34,38,38,41,41,42,42,44,44],"right_children":[2,4,6,8,10,12,14,16,18,20,-1,22,-1,24,26,28,30,32,34,-1,-1,-1,36,38,40,42,44,46,48,50,52,54,56,58,60,-1,-1,-1,62,-1,-1,64,66,-1,68,-1,-1,-1,-1,-1,-1,-1,-1,-1,-1,-1,-1,-1,-1,-1,-1,-1,-1,-1,-1,-1,-1,-1,-1],"split_conditions":[1.442E1,2.22545E1,1.30447235E1,1E0,8.67E0,7.6E0,1.4014499E2,7.4200004E-1,2.141319E1,2.1E0,9.3299663E-1,7.483107E1,-1.1129287E-1,7.483107E1,1.98E0,4.2856228E1,1.4044615E1,2.0892412E1,1.3747388E2,8.455274E-2,3.7012166E-1,1.7999934E-1,1.6711665E0,5.33E0,1.533E1,1.37E0,3.53E0,1.31E0,6.7E-1,1.030883E1,3.934051E1,2.42E1,3.33E0,3.97E0,1.6392322E2,2.649602E-1,1.0777555E0,5.2517796E-1,1.442E1,2.6899196E-2,1.1730365E0,4.8961663E0,1.3450708E1,5.771908E-1,6.13E0,1.6779101E-1,7.63235E-1,7.029389E-2,-7.6217584E-2,1.9580677E-2,-1.4212595E-1,-2.1112037E-1,-5.089334E-2,1.8353302E-2,6.4267695E-1,5.2791458E-2,8.200428E-1,-1.6431001E-1,-4.9095896E-1,3.87914E-1,-6.531362E-2,-2.819205E-1,-2.4884433E-2,1.9782801E-1,-1.3421416E-1,-1.8590927E-1,1.4161938E0,-5.2581394E-1,7.068477E-2],"split_indices":[0,3,5,0,0,2,6,3,5,2,0,6,0,6,2,6,5,5,6,0,0,0,3,1,0,2,1,1,1,5,6,1,0,1,6,0,0,0,1,0,0,3,5,0,2,0,0,0,0,0,0,0,0,0,0,0,0,0,0,0,0,0,0,0,0,0,0,0,0],"split_type":[0,0,0,0,0,0,0,0,0,0,0,0,0,0,0,0,0,0,0,0,0,0,0,0,0,0,0,0,0,0,0,0,0,0,0,0,0,0,0,0,0,0,0,0,0,0,0,0,0,0,0,0,0,0,0,0,0,0,0,0,0,0,0,0,0,0,0,0,0],"sum_hessian":[1.944E3,1.897E3,4.7E1,1.889E3,8E0,7E0,4E1,3.8E2,1.509E3,7E0,1E0,6E0,1E0,9E0,3.1E1,8.2E1,2.98E2,1.229E3,2.8E2,2E0,5E0,1E0,5E0,4E0,5E0,8E0,2.3E1,7E0,7.5E1,8.5E1,2.13E2,1.191E3,3.8E1,3.2E1,2.48E2,1E0,4E0,1E0,3E0,1E0,4E0,4E0,4E0,2E0,2.1E1,6E0,1E0,1.7E1,5.8E1,8E0,7.7E1,1E1,2.03E2,1.188E3,3E0,3E1,8E0,2.6E1,6E0,1.2E1,2.36E2,2E0,1E0,2E0,2E0,1E0,3E0,7E0,1.4E1],"tree_param":{"num_deleted":"0","num_feature":"7","num_nodes":"69","size_leaf_vector":"1"}},{"base_weights":[1.7581753E-2,-6.145658E-3,8.1806797E-1,-1.2290393E-2,1.2794696E0,1.359891E0,1.8574345E-1,4.7736507E-2,-1.1871175E-1,7.785307E-1,7.9304713E-1,6.4897627E-1,2.2396276E0,-2.2515415E-1,1.0325558E0,3.74153E-2,1.4140067E0,-8.678795E-2,-4.5271122E-1,6.764219E-2,2.775912E-1,2.454409E0,-7.230635E-1,-2.9153523E-1,2.7263422E0,3.4852764E-1,-9.0130365E-1,-4.171298E-1,8.846836E-1,3.0864185E-2,1.9819309E0,7.1464145E-1,1.0513394E0,1.3497895E-1,-1.3479057E-1,2.915691E-1,-5.751781E-1,9.857567E-1,1.2983699E0,-7.479041E-1,-5.273974E-2,-2.841903E-1,1.5299943E-1,2.3437186E-1,8.528186E-1,6.724229E-1,-4.335638E-1,-8.5461006E-2,-1.0367318E0,1.1498934E0,-1.4881148E0,1.3197925E-2,-2.4858153E-1,-1.7717336E-1,9.1088796E-1,4.008332E-1,-7.22566E-2,1.634062E-2,3.4942183E-1,-4.300933E-2,2.9633668E-1,-4.9339868E-2,1.3360803E-1,-2.5193334E-1,-5.6464802E-2,5.6590015E-1,-1.5802288E-1,-3.199532E-1,1.1678033E-1,1.2941831E-2,3.254266E-1,-3.773283E-1,-1.6695593E-1,8.281832E-2,4.3463376E-1,-1.11016616E-1,-5.2123487E-1],"categories":[],"categories_nodes":[],"categories_segments":[],"categories_sizes":[],"default_left":[0,0,0,0,0,0,0,0,0,0,0,0,0,0,0,0,0,0,0,0,0,0,0,0,0,0,0,0,0,0,0,0,0,0,0,0,0,0,0,0,0,0,0,0,0,0,0,0,0,0,0,0,0,0,0,0,0,0,0,0,0,0,0,0,0,0,0,0,0,0,0,0,0,0,0,0,0],"id":9,"left_children":[1,3,5,7,9,11,13,15,17,19,-1,21,23,25,27,29,31,33,35,-1,-1,37,39,41,43,45,47,49,-1,51,53,55,-1,57,59,61,63,-1,65,-1,67,-1,-1,-1,-1,69,-1,-1,71,73,75,-1,-1,-1,-1,-1,-1,-1,-1,-1,-1,-1,-1,-1,-1,-1,-1,-1,-1,-1,-1,-1,-1,-1,-1,-1,-1],"loss_changes":[3.694732E1,1.49462805E1,1.893346E1,1.2028154E1,4.0915813E0,1.7309067E1,9.627221E0,1.6925375E1,7.20057E0,4.4075966E-1,0E0,4.6362953E1,1.6810226E1,7.6841273E0,2.6233555E1,1.5174362E1,1.0653507E1,6.6289825E0,5.545537E0,0E0,0E0,3.4232216E0,1.2919354E1,2.0599759E0,2.6937103E-1,7.3626184E0,4.5600843E-1,1.1780724E1,0E0,1.3498125E1,1.2642592E1,5.072304E0,0E0,9.139151E0,5.0599136E0,7.044537E-1,5.063833E0,0E0,6.3591156E0,0E0,4.448008E0,0E0,0E0,0E0,0E0,2.5479445E0,0E0,0E0,4.3017387E-2,3.8357663E-1,4.7213173E-1,0E0,0E0,0E0,0E0,0E0,0E0,0E0,0E0,0E0,0E0,0E0,0E0,0E0,0E0,0E0,0E0,0E0,0E0,0E0,0E0,0E0,0E0,0E0,0E0,0E0,0E0],"parents":[2147483647,0,0,1,1,2,2,3,3,4,4,5,5,6,6,7,7,8,8,9,9,11,11,12,12,13,13,14,14,15,15,16,16,17,17,18,18,21,21,22,22,23,23,24,24,25,25,26,26,27,27,29,29,30,30,31,31,33,33,34,34,35,35,36,36,38,38,40,40,45,45,48,48,49,49,50,50],"right_children":[2,4,6,8,10,12,14,16,18,20,-1,22,24,26,28,30,32,34,36,-1,-1,38,40,42,44,46,48,50,-1,52,54,56,-1,58,60,62,64,-1,66,-1,68,-1,-1,-1,-1,70,-1,-1,72,74,76,-1,-1,-1,-1,-1,-1,-1,-1,-1,-1,-1,-1,-1,-1,-1,-1,-1,-1,-1,-1,-1,-1,-1,-1,-1,-1],"split_conditions":[1.343E1,2.22545E1,9.0000004E-1,2.5360262E2,8.67E0,7.69825E0,4.3E0,2.5271356E2,6.23E0,2.1E0,7.9304713E-1,4.09E0,1.2261157E1,2.6000001E0,2.0808498E1,2.42E1,3.23E0,1.2979984E1,-1.7017502E0,6.764219E-2,2.775912E-1,1.8186261E2,6.13E0,1.442E1,3.23E0,1.86E1,2.43E0,1.4499742E2,8.846836E-1,1.442E1,2E0,2.23E0,1.0513394E0,5.42E0,6E0,-4.991333E0,1.7731598E1,9.857567E-1,1.63E0,-7.479041E-1,6.13E0,-2.841903E-1,1.5299943E-1,2.3437186E-1,8.528186E-1,3.67E0,-4.335638E-1,-8.5461006E-2,1.8514643E1,1.653E1,1.23E0,1.3197925E-2,-2.4858153E-1,-1.7717336E-1,9.1088796E-1,4.008332E-1,-7.22566E-2,1.634062E-2,3.4942183E-1,-4.300933E-2,2.9633668E-1,-4.9339868E-2,1.3360803E-1,-2.5193334E-1,-5.6464802E-2,5.6590015E-1,-1.5802288E-1,-3.199532E-1,1.1678033E-1,1.2941831E-2,3.254266E-1,-3.773283E-1,-1.6695593E-1,8.281832E-2,4.3463376E-1,-1.11016616E-1,-5.2123487E-1],"split_indices":[0,3,4,6,0,3,4,6,1,2,0,2,5,4,5,1,0,5,3,0,0,6,2,0,1,1,2,6,0,1,0,2,0,0,1,3,5,0,2,0,1,0,0,0,0,2,0,0,5,0,1,0,0,0,0,0,0,0,0,0,0,0,0,0,0,0,0,0,0,0,0,0,0,0,0,0,0],"split_type":[0,0,0,0,0,0,0,0,0,0,0,0,0,0,0,0,0,0,0,0,0,0,0,0,0,0,0,0,0,0,0,0,0,0,0,0,0,0,0,0,0,0,0,0,0,0,0,0,0,0,0,0,0,0,0,0,0,0,0,0,0,0,0,0,0,0,0,0,0,0,0,0,0,0,0,0,0],"sum_hessian":[1.944E3,1.889E3,5.5E1,1.881E3,8E0,2.9E1,2.6E1,1.203E3,6.78E2,7E0,1E0,1.7E1,1.2E1,1.8E1,8E0,1.195E3,8E0,6.2E2,5.8E1,2E0,5E0,7E0,1E1,2E0,1E1,1E1,8E0,5E0,3E0,1.192E3,3E0,7E0,1E0,1.1E2,5.1E2,8E0,5E1,3E0,4E0,2E0,8E0,1E0,1E0,1E0,9E0,9E0,1E0,2E0,6E0,2E0,3E0,1.175E3,1.7E1,1E0,2E0,4E0,3E0,1.03E2,7E0,5.07E2,3E0,2E0,6E0,2.9E1,2.1E1,3E0,1E0,2E0,6E0,4E0,5E0,3E0,3E0,1E0,1E0,1E0,2E0],"tree_param":{"num_deleted":"0","num_feature":"7","num_nodes":"77","size_leaf_vector":"1"}},{"base_weights":[1.4803368E-2,-2.1728396E-2,3.79831E-1,-1.0147057E-2,-1.2899747E0,-7.242111E-1,5.093717E-1,-2.7053282E-2,4.595135E-1,-4.3408182E-1,-1.7601023E0,5.469042E-1,-9.9672675E-1,1.4942347E0,2.6875055E-1,-5.000066E-2,2.0776664E-1,1.2392268E0,-1.16377085E-1,-3.9155206E-1,1.7538957E-1,-6.534597E-1,-7.1668625E-1,2.1579438E-1,4.450965E-3,3.9429188E-2,-1.3453978E0,3.6314528E0,-4.671635E-2,1.1399918E0,1.1719799E-1,-1.329839E-1,2.21057E-2,8.84194E-2,3.0772548E0,2.6536387E-1,1.3323629E0,-2.1206427E0,3.5516414E-1,-7.461877E-2,5.410452E-1,-2.8165914E-2,-2.3096445E-1,2.5401875E-1,-2.3430414E-1,-4.6440616E-1,-1.5874611E0,7.433351E-1,8.103774E0,4.4720113E-1,-1.1914045E0,-7.137506E-1,1.9485323E0,-3.564961E-1,5.8879924E-1,-9.758133E-2,-1.665298E-2,6.5633535E-2,-8.396985E-3,1.0135916E-2,8.043993E-1,2.6578904E-4,1.3845654E0,-3.1734923E-1,3.007562E-1,-8.5873234E-1,-3.7543055E-1,3.3869702E-1,-1.4817835E-1,3.9462376E-2,2.0400797E-1,-3.4786463E-2,-1.6257149E-1,-5.216564E-1,-5.6446895E-2,-1.5775946E-1,1.0371071E0,2.6914206E0,6.949897E-1,2.8070486E-1,-3.0237713E-1,-6.201099E-1,-7.104955E-2,9.2090267E-1,1.331039E-1,2.2921886E-2,-5.382845E-1,-5.1812893E-1,2.4004756E-1],"categories":[],"categories_nodes":[],"categories_segments":[],"categories_sizes":[],"default_left":[0,0,0,0,0,0,0,0,0,0,0,0,0,0,0,0,0,0,0,0,0,0,0,0,0,0,0,0,0,0,0,0,0,0,0,0,0,0,0,0,0,0,0,0,0,0,0,0,0,0,0,0,0,0,0,0,0,0,0,0,0,0,0,0,0,0,0,0,0,0,0,0,0,0,0,0,0,0,0,0,0,0,0,0,0,0,0,0,0],"id":10,"left_children":[1,3,5,7,9,11,13,15,17,19,21,23,25,27,29,31,33,35,37,-1,39,41,-1,-1,-1,43,45,47,49,51,53,55,57,59,61,63,-1,65,67,-1,69,-1,-1,-1,-1,71,73,75,77,79,81,-1,83,85,87,-1,-1,-1,-1,-1,-1,-1,-1,-1,-1,-1,-1,-1,-1,-1,-1,-1,-1,-1,-1,-1,-1,-1,-1,-1,-1,-1,-1,-1,-1,-1,-1,-1,-1],"loss_changes":[2.5945028E1,2.5969969E1,2.5683142E1,1.3939521E1,5.674034E0,7.126691E0,3.727806E1,9.13851E0,2.753502E1,3.9452524E0,5.398056E0,3.5626376E-1,5.8334904E0,1.0226346E2,1.6899403E1,9.241648E0,5.1440197E1,7.9897064E1,3.4776554E1,0E0,9.099809E-1,2.5345135E-1,0E0,0E0,0E0,3.9730248E0,1.8218384E0,1.6189186E2,1.1275045E1,5.869818E1,2.5006723E1,1.0678167E1,8.154099E0,2.0591562E1,2.8383953E1,2.1543932E1,0E0,9.3128014E-1,2.0269121E1,0E0,8.1288636E-2,0E0,0E0,0E0,0E0,4.518169E-2,1.5794373E0,3.2815845E1,4.321991E0,1.0894321E1,4.525568E0,0E0,2.563253E1,3.4992657E1,2.879316E1,0E0,0E0,0E0,0E0,0E0,0E0,0E0,0E0,0E0,0E0,0E0,0E0,0E0,0E0,0E0,0E0,0E0,0E0,0E0,0E0,0E0,0E0,0E0,0E0,0E0,0E0,0E0,0E0,0E0,0E0,0E0,0E0,0E0,0E0],"parents":[2147483647,0,0,1,1,2,2,3,3,4,4,5,5,6,6,7,7,8,8,9,9,10,10,11,11,12,12,13,13,14,14,15,15,16,16,17,17,18,18,20,20,21,21,25,25,26,26,27,27,28,28,29,29,30,30,31,31,32,32,33,33,34,34,35,35,37,37,38,38,40,40,45,45,46,46,47,47,48,48,49,49,50,50,52,52,53,53,54,54],"right_children":[2,4,6,8,10,12,14,16,18,20,22,24,26,28,30,32,34,36,38,-1,40,42,-1,-1,-1,44,46,48,50,52,54,56,58,60,62,64,-1,66,68,-1,70,-1,-1,-1,-1,72,74,76,78,80,82,-1,84,86,88,-1,-1,-1,-1,-1,-1,-1,-1,-1,-1,-1,-1,-1,-1,-1,-1,-1,-1,-1,-1,-1,-1,-1,-1,-1,-1,-1,-1,-1,-1,-1,-1,-1,-1],"split_conditions":[7.33E0,7.07E0,1.1669999E0,5.99E0,1.4344312E2,-3.5246668E0,3.67E0,6.299999E0,1.5829005E2,2.0586665E0,8.310752E0,2.3707654E2,1.0948973E1,1.8582622E2,2.4E0,1.7E0,1.9321169E1,1.528682E2,1.8186261E2,-3.9155206E-1,5.77E0,2.13E0,-7.1668625E-1,2.1579438E-1,4.450965E-3,7.77E0,2.6152784E1,1.4757248E2,8.194085E0,1.4014499E2,6.13E0,1.8186261E2,2.13E0,3.371338E1,1.2496719E1,2.29E0,1.3323629E0,2.2253335E0,2.77E0,-7.461877E-2,7.17E0,-2.8165914E-2,-2.3096445E-1,2.5401875E-1,-2.3430414E-1,7.6E0,2.146952E2,2.64E0,1.019E1,2.0008356E1,8.939917E0,-7.137506E-1,2.1364937E2,1.9826164E1,1.0436895E1,-9.758133E-2,-1.665298E-2,6.5633535E-2,-8.396985E-3,1.0135916E-2,8.043993E-1,2.6578904E-4,1.3845654E0,-3.1734923E-1,3.007562E-1,-8.5873234E-1,-3.7543055E-1,3.3869702E-1,-1.4817835E-1,3.9462376E-2,2.0400797E-1,-3.4786463E-2,-1.6257149E-1,-5.216564E-1,-5.6446895E-2,-1.5775946E-1,1.0371071E0,2.6914206E0,6.949897E-1,2.8070486E-1,-3.0237713E-1,-6.201099E-1,-7.104955E-2,9.2090267E-1,1.331039E-1,2.2921886E-2,-5.382845E-1,-5.1812893E-1,2.4004756E-1],"split_indices":[0,0,3,0,6,3,1,4,6,3,3,6,5,6,2,2,3,6,6,0,1,2,0,0,0,0,6,6,3,6,2,6,2,5,5,2,0,3,2,0,0,0,0,0,0,0,6,1,0,5,3,0,6,5,5,0,0,0,0,0,0,0,0,0,0,0,0,0,0,0,0,0,0,0,0,0,0,0,0,0,0,0,0,0,0,0,0,0,0],"split_type":[0,0,0,0,0,0,0,0,0,0,0,0,0,0,0,0,0,0,0,0,0,0,0,0,0,0,0,0,0,0,0,0,0,0,0,0,0,0,0,0,0,0,0,0,0,0,0,0,0,0,0,0,0,0,0,0,0,0,0,0,0,0,0,0,0,0,0,0,0,0,0,0,0,0,0,0,0,0,0,0,0,0,0,0,0,0,0,0,0],"sum_hessian":[1.944E3,1.768E3,1.76E2,1.753E3,1.5E1,1.8E1,1.58E2,1.693E3,6E1,6E0,9E0,3E0,1.5E1,3E1,1.28E2,1.543E3,1.5E2,2.5E1,3.5E1,2E0,4E0,4E0,5E0,2E0,1E0,4E0,1.1E1,1.2E1,1.8E1,1.8E1,1.1E2,7.17E2,8.26E2,1.45E2,5E0,2E1,5E0,6E0,2.9E1,2E0,2E0,1E0,3E0,2E0,2E0,3E0,8E0,8E0,4E0,1.3E1,5E0,3E0,1.5E1,5.5E1,5.5E1,2.05E2,5.12E2,1.67E2,6.59E2,1.43E2,2E0,2E0,3E0,7E0,1.3E1,2E0,4E0,1.5E1,1.4E1,1E0,1E0,1E0,2E0,7E0,1E0,6E0,2E0,3E0,1E0,1E1,3E0,2E0,3E0,8E0,7E0,4.3E1,1.2E1,4E0,5.1E1],"tree_param":{"num_deleted":"0","num_feature":"7","num_nodes":"89","size_leaf_vector":"1"}},{"base_weights":[1.2305946E-2,-1.4522464E-2,2.8036895E-1,-3.5322453E-3,-8.486698E-1,1.4098696E0,1.896788E-1,-2.0656744E-2,3.6315295E-1,-1.8063784E0,-3.167737E-1,2.424729E-1,2.3127944E0,-1.3978975E-1,5.330757E-1,-3.636028E-2,2.2110306E-1,6.434348E-1,-2.56782E-1,-9.8487385E-2,-6.733077E-1,1.238988E0,-7.711024E-1,-5.217529E-1,8.127203E-1,9.300938E-1,-3.4588113E-1,2.120782E0,3.3002868E-1,1.4349413E-1,-6.006395E-2,1.0651257E0,-8.165635E-2,3.2967124E-2,2.3852735E0,-1.0429252E0,1.745163E-1,6.651467E-1,-2.543273E-1,4.598883E-1,-1.036727E0,1.2450812E0,-1.4709124E-1,-2.3597705E-1,2.1298757E0,-9.9811554E-1,-3.8935695E-2,-4.3632007E-1,4.2537274E0,1.4953908E0,2.8593314E-3,2.8047344E-1,-1.700469E-2,-8.085718E-2,-5.9755025E-3,1.8064025E-1,1.0730381E0,-1.6638108E-1,3.2702163E-2,4.8733833E-1,-1.027415E-1,-2.7489975E-1,8.129191E-1,-1.4480478E-1,-4.8676738E-1,-2.3454387E-1,1.5867327E-1,3.354299E-2,1.7340675E-1,-8.248258E-2,-3.5263905E-1,4.853632E-1,1.6830444E-1,1.3337976E-1,-1.4775632E-1,-3.4641856E-1,7.881847E-2,1.1208007E0,-2.6160122E-3,-4.5419872E-1,-8.224066E-3,-9.048261E-2,7.1563286E-1,-6.535585E-1,4.353985E-1,1.4284321E0,3.3343163E-1,-2.2548284E-1,7.755248E-1,-3.2528853E-1,9.301094E-2],"categories":[],"categories_nodes":[],"categories_segments":[],"categories_sizes":[],"default_left":[0,0,0,0,0,0,0,0,0,0,0,0,0,0,0,0,0,0,0,0,0,0,0,0,0,0,0,0,0,0,0,0,0,0,0,0,0,0,0,0,0,0,0,0,0,0,0,0,0,0,0,0,0,0,0,0,0,0,0,0,0,0,0,0,0,0,0,0,0,0,0,0,0,0,0,0,0,0,0,0,0,0,0,0,0,0,0,0,0,0,0],"id":11,"left_children":[1,3,5,7,9,11,13,15,17,19,21,23,-1,25,27,29,31,33,35,-1,-1,37,39,-1,41,43,45,47,49,51,53,55,57,59,61,63,65,-1,-1,67,69,71,73,75,77,79,81,83,85,87,89,-1,-1,-1,-1,-1,-1,-1,-1,-1,-1,-1,-1,-1,-1,-1,-1,-1,-1,-1,-1,-1,-1,-1,-1,-1,-1,-1,-1,-1,-1,-1,-1,-1,-1,-1,-1,-1,-1,-1,-1],"loss_changes":[1.3991938E1,1.6214245E1,1.7863499E1,1.0977439E1,1.1144022E1,9.373206E1,1.8742367E1,6.348166E0,1.3718232E1,4.4421844E0,1.2264623E1,1.4973827E1,0E0,1.9063675E1,2.5412783E1,6.6975956E0,2.6151625E1,5.7341515E1,8.658563E0,0E0,0E0,1.0044359E1,4.7275357E0,0E0,4.33299E0,2.0089031E1,1.43755665E1,5.094342E1,2.7828485E1,2.9044418E1,1.1657774E1,2.9244081E1,6.9136653E0,2.5054184E1,1.7480217E1,2.1394339E0,6.175113E0,0E0,0E0,5.87312E-2,8.3937645E-1,8.7746716E-1,1.0365245E0,3.9688692E0,2.4076569E1,1.147611E1,3.2560406E1,1.9605143E1,2.6848373E0,4.111958E1,1.9705208E1,0E0,0E0,0E0,0E0,0E0,0E0,0E0,0E0,0E0,0E0,0E0,0E0,0E0,0E0,0E0,0E0,0E0,0E0,0E0,0E0,0E0,0E0,0E0,0E0,0E0,0E0,0E0,0E0,0E0,0E0,0E0,0E0,0E0,0E0,0E0,0E0,0E0,0E0,0E0,0E0],"parents":[2147483647,0,0,1,1,2,2,3,3,4,4,5,5,6,6,7,7,8,8,9,9,10,10,11,11,13,13,14,14,15,15,16,16,17,17,18,18,21,21,22,22,24,24,25,25,26,26,27,27,28,28,29,29,30,30,31,31,32,32,33,33,34,34,35,35,36,36,39,39,40,40,41,41,42,42,43,43,44,44,45,45,46,46,47,47,48,48,49,49,50,50],"right_children":[2,4,6,8,10,12,14,16,18,20,22,24,-1,26,28,30,32,34,36,-1,-1,38,40,-1,42,44,46,48,50,52,54,56,58,60,62,64,66,-1,-1,68,70,72,74,76,78,80,82,84,86,88,90,-1,-1,-1,-1,-1,-1,-1,-1,-1,-1,-1,-1,-1,-1,-1,-1,-1,-1,-1,-1,-1,-1,-1,-1,-1,-1,-1,-1,-1,-1,-1,-1,-1,-1,-1,-1,-1,-1,-1,-1],"split_conditions":[7.33E0,6.9E0,2.1E0,5.67E0,3.62E0,2.06E0,7.317E0,1.8648252E1,1.0739917E1,1.1013882E1,7.07E0,1.3450708E1,2.3127944E0,8E0,8.194085E0,1.1521406E1,1.4638869E2,5.075333E0,1.332E1,-9.8487385E-2,-6.733077E-1,4.7E0,5.084651E1,-5.217529E-1,4.537833E0,1.2357498E0,9.11E0,5E-1,2.5E0,-1.2258325E-1,1.182315E2,4.2000003E0,1.2566526E1,1.2145665E1,1.25E0,3.7E0,2.33E0,6.651467E-1,-2.543273E-1,7.17E0,1.0495713E1,1E-1,7.6E0,1.83E0,1.9855558E1,3.77E0,4.3E0,1.533E1,2.42E1,1.4638869E2,1.1985749E1,2.8047344E-1,-1.700469E-2,-8.085718E-2,-5.9755025E-3,1.8064025E-1,1.0730381E0,-1.6638108E-1,3.2702163E-2,4.8733833E-1,-1.027415E-1,-2.7489975E-1,8.129191E-1,-1.4480478E-1,-4.8676738E-1,-2.3454387E-1,1.5867327E-1,3.354299E-2,1.7340675E-1,-8.248258E-2,-3.5263905E-1,4.853632E-1,1.6830444E-1,1.3337976E-1,-1.4775632E-1,-3.4641856E-1,7.881847E-2,1.1208007E0,-2.6160122E-3,-4.5419872E-1,-8.224066E-3,-9.048261E-2,7.1563286E-1,-6.535585E-1,4.353985E-1,1.4284321E0,3.3343163E-1,-2.2548284E-1,7.755248E-1,-3.2528853E-1,9.301094E-2],"split_indices":[0,0,1,0,1,1,3,3,3,5,0,5,0,0,3,5,6,3,5,0,0,2,6,0,3,3,0,4,2,3,6,4,5,5,1,1,2,0,0,0,5,4,0,2,5,2,4,0,0,6,3,0,0,0,0,0,0,0,0,0,0,0,0,0,0,0,0,0,0,0,0,0,0,0,0,0,0,0,0,0,0,0,0,0,0,0,0,0,0,0,0],"split_type":[0,0,0,0,0,0,0,0,0,0,0,0,0,0,0,0,0,0,0,0,0,0,0,0,0,0,0,0,0,0,0,0,0,0,0,0,0,0,0,0,0,0,0,0,0,0,0,0,0,0,0,0,0,0,0,0,0,0,0,0,0,0,0,0,0,0,0,0,0,0,0,0,0,0,0,0,0,0,0,0,0,0,0,0,0,0,0,0,0,0,0],"sum_hessian":[1.944E3,1.768E3,1.76E2,1.746E3,2.2E1,1.2E1,1.64E2,1.669E3,7.7E1,7E0,1.5E1,1.1E1,1E0,8.4E1,8E1,1.568E3,1.01E2,5.3E1,2.4E1,2E0,5E0,3E0,1.2E1,2E0,9E0,1.3E1,7.1E1,8E0,7.2E1,1.82E2,1.386E3,2.6E1,7.5E1,4E1,1.3E1,8E0,1.6E1,2E0,1E0,2E0,1E1,6E0,3E0,7E0,6E0,2.2E1,4.9E1,4E0,4E0,1.5E1,5.7E1,3.6E1,1.46E2,2.22E2,1.164E3,2.3E1,3E0,2.1E1,5.4E1,7E0,3.3E1,1E0,1.2E1,5E0,3E0,4E0,1.2E1,1E0,1E0,2E0,8E0,3E0,3E0,1E0,2E0,2E0,5E0,3E0,3E0,1.4E1,8E0,4.5E1,4E0,2E0,2E0,3E0,1E0,5E0,1E1,1.2E1,4.5E1],"tree_param":{"num_deleted":"0","num_feature":"7","num_nodes":"91","size_leaf_vector":"1"}},{"base_weights":[1.18161235E-2,7.614139E-2,-7.615639E-2,-2.710461E-1,1.06988534E-1,-8.925612E-2,4.5360544E-1,1.1083656E-2,-9.1631E-1,3.96145E-1,6.0460635E-2,-6.6758156E-1,-7.74002E-2,8.248208E-1,-9.174901E-2,4.4008058E-1,-1.7567769E-1,1.7763731E-1,-1.2227337E0,4.924368E-1,-9.337796E-1,-1.8831979E-1,1.4832918E-1,-1.169658E0,-3.3303243E-1,-4.3909535E-2,-2.1611044E-1,1.2671341E0,1.7131858E-1,-2.0758103E-1,5.2678853E-1,6.9792485E-1,-3.3926442E-2,-1.4373397E-2,-5.080817E-1,-4.129352E-1,3.3081374E-1,-1.3438414E0,-7.7705383E-3,4.5119792E-2,7.7555096E-1,-6.0687387E-1,-4.4828054E-1,-2.40807E-1,7.98387E-1,-4.1237172E-1,1.9704223E-1,-4.315993E-2,-4.0381292E-1,-5.5380255E-1,1.3208663E-1,-6.428457E-2,2.784209E-1,-4.8558283E-1,-1.1312874E-1,1.5388901E0,1.1754878E-1,1.9822E-1,-2.3857212E-1,-1.6541679E-1,3.130193E-1,2.3947865E-1,-7.5918406E-2,-6.9727406E-2,1.1231365E-1,-3.1910155E-2,4.256151E-1,-2.2870314E-1,1.1064262E-4,-2.258039E-1,1.4190638E-1,-1.7394365E-1,-4.333691E-1,6.0862545E-3,-9.582996E-3,-6.510441E-2,4.0523365E-1,4.5888367E-1,8.6162314E-2,-1.9252685E-1,-5.4404713E-2,-3.8744554E-2,-1.9286354E-1,3.9037175E-2,5.1237917E-1,-2.5686998E-2,-2.1031602E-1,2.841962E-1,5.016219E-2,-2.136278E-1,-5.337503E-2,-1.0694927E-2,-8.40518E-2,2.4375276E-1,2.0048E-4,-3.937119E-1,-9.33989E-2,1.6965012E-1,-4.7062986E-2,4.737475E-2,5.5339646E-1,-8.852008E-2,-1.0363162E-2,2.53281E-3,-7.697037E-2],"categories":[],"categories_nodes":[],"categories_segments":[],"categories_sizes":[],"default_left":[0,0,0,0,0,0,0,0,0,0,0,0,0,0,0,0,0,0,0,0,0,0,0,0,0,0,0,0,0,0,0,0,0,0,0,0,0,0,0,0,0,0,0,0,0,0,0,0,0,0,0,0,0,0,0,0,0,0,0,0,0,0,0,0,0,0,0,0,0,0,0,0,0,0,0,0,0,0,0,0,0,0,0,0,0,0,0,0,0,0,0,0,0,0,0,0,0,0,0,0,0,0,0,0,0],"id":12,"left_children":[1,3,5,7,9,11,13,15,17,19,21,23,25,27,29,31,33,35,37,39,41,43,45,47,49,51,53,55,57,-1,59,61,63,65,67,69,-1,71,73,75,77,79,-1,81,83,85,87,-1,-1,89,-1,91,93,95,97,99,-1,-1,101,103,-1,-1,-1,-1,-1,-1,-1,-1,-1,-1,-1,-1,-1,-1,-1,-1,-1,-1,-1,-1,-1,-1,-1,-1,-1,-1,-1,-1,-1,-1,-1,-1,-1,-1,-1,-1,-1,-1,-1,-1,-1,-1,-1,-1,-1],"loss_changes":[1.1012272E1,1.2066753E1,5.744949E0,1.6758585E1,1.387387E1,5.454161E0,4.124556E0,5.285115E0,9.603123E0,1.8772526E1,1.9505173E1,2.2979732E0,3.6511636E0,3.2515488E0,3.7056522E0,2.4680784E0,2.459134E0,4.279616E0,3.2266693E0,1.6935009E1,9.254389E-1,1.2259208E1,1.8080814E1,8.919554E-1,2.1218214E0,4.194824E0,4.1909285E0,1.0621033E0,1.3612719E0,0E0,1.9605936E0,1.442461E0,7.353979E-1,4.369638E0,1.939477E0,1.8610275E0,0E0,7.01519E-1,2.682774E-3,1.8432827E1,2.9756424E1,2.3641586E-3,0E0,9.8835945E0,7.07153E0,4.939266E0,1.3429003E1,0E0,0E0,4.0879774E-1,0E0,3.6929796E0,5.636544E0,5.642391E0,3.4138353E0,1.8199663E0,0E0,0E0,3.5913393E-2,4.9708582E-2,0E0,0E0,0E0,0E0,0E0,0E0,0E0,0E0,0E0,0E0,0E0,0E0,0E0,0E0,0E0,0E0,0E0,0E0,0E0,0E0,0E0,0E0,0E0,0E0,0E0,0E0,0E0,0E0,0E0,0E0,0E0,0E0,0E0,0E0,0E0,0E0,0E0,0E0,0E0,0E0,0E0,0E0,0E0,0E0,0E0],"parents":[2147483647,0,0,1,1,2,2,3,3,4,4,5,5,6,6,7,7,8,8,9,9,10,10,11,11,12,12,13,13,14,14,15,15,16,16,17,17,18,18,19,19,20,20,21,21,22,22,23,23,24,24,25,25,26,26,27,27,28,28,30,30,31,31,32,32,33,33,34,34,35,35,37,37,38,38,39,39,40,40,41,41,43,43,44,44,45,45,46,46,49,49,51,51,52,52,53,53,54,54,55,55,58,58,59,59],"right_children":[2,4,6,8,10,12,14,16,18,20,22,24,26,28,30,32,34,36,38,40,42,44,46,48,50,52,54,56,58,-1,60,62,64,66,68,70,-1,72,74,76,78,80,-1,82,84,86,88,-1,-1,90,-1,92,94,96,98,100,-1,-1,102,104,-1,-1,-1,-1,-1,-1,-1,-1,-1,-1,-1,-1,-1,-1,-1,-1,-1,-1,-1,-1,-1,-1,-1,-1,-1,-1,-1,-1,-1,-1,-1,-1,-1,-1,-1,-1,-1,-1,-1,-1,-1,-1,-1,-1,-1],"split_conditions":[2.3968571E2,-1.0663334E0,1.0000001E1,9.654029E1,1.7357497E0,2.4123413E2,1.48E1,1.25E0,1.4241629E1,9.700001E0,1.31041975E1,9.1795E0,3.7E0,1.5778518E1,2.02E0,1.7673029E1,-2.15175E0,1.2145665E1,2.6368616E1,4E-1,1.48E1,1.043E1,4.2856228E1,6.295E-1,4.05E0,1.7358667E1,1.3397612E1,2.9E0,1.12E1,-2.0758103E-1,3.67E0,-1.2559166E0,2.2104116E1,5.8999996E0,4.7E0,3.95E0,3.3081374E-1,1E0,9.7E-1,1.4899168E0,1.2000002E0,2.13E0,-4.4828054E-1,4.37E0,1.2261157E1,1.43E0,1.3397612E1,-4.315993E-2,-4.0381292E-1,1.935314E1,1.3208663E-1,1.4229497E1,1.2979984E1,2.542714E2,1.370839E1,1E0,1.1754878E-1,1.9822E-1,1.67E0,2.63E0,3.130193E-1,2.3947865E-1,-7.5918406E-2,-6.9727406E-2,1.1231365E-1,-3.1910155E-2,4.256151E-1,-2.2870314E-1,1.1064262E-4,-2.258039E-1,1.4190638E-1,-1.7394365E-1,-4.333691E-1,6.0862545E-3,-9.582996E-3,-6.510441E-2,4.0523365E-1,4.5888367E-1,8.6162314E-2,-1.9252685E-1,-5.4404713E-2,-3.8744554E-2,-1.9286354E-1,3.9037175E-2,5.1237917E-1,-2.5686998E-2,-2.1031602E-1,2.841962E-1,5.016219E-2,-2.136278E-1,-5.337503E-2,-1.0694927E-2,-8.40518E-2,2.4375276E-1,2.0048E-4,-3.937119E-1,-9.33989E-2,1.6965012E-1,-4.7062986E-2,4.737475E-2,5.5339646E-1,-8.852008E-2,-1.0363162E-2,2.53281E-3,-7.697037E-2],"split_indices":[6,3,4,6,3,6,4,2,5,4,5,3,1,5,0,5,3,5,5,4,4,0,6,3,1,3,5,1,4,0,1,3,5,4,1,0,0,0,0,3,4,0,0,0,5,2,5,0,0,5,0,3,5,6,5,0,0,0,0,0,0,0,0,0,0,0,0,0,0,0,0,0,0,0,0,0,0,0,0,0,0,0,0,0,0,0,0,0,0,0,0,0,0,0,0,0,0,0,0,0,0,0,0,0,0],"split_type":[0,0,0,0,0,0,0,0,0,0,0,0,0,0,0,0,0,0,0,0,0,0,0,0,0,0,0,0,0,0,0,0,0,0,0,0,0,0,0,0,0,0,0,0,0,0,0,0,0,0,0,0,0,0,0,0,0,0,0,0,0,0,0,0,0,0,0,0,0,0,0,0,0,0,0,0,0,0,0,0,0,0,0,0,0,0,0,0,0,0,0,0,0,0,0,0,0,0,0,0,0,0,0,0,0],"sum_hessian":[1.944E3,1.123E3,8.21E2,9.1E1,1.032E3,8.02E2,1.9E1,6.4E1,2.7E1,1.42E2,8.9E2,1.5E1,7.87E2,1.1E1,8E0,1.9E1,4.5E1,6E0,2.1E1,1.33E2,9E0,2.32E2,6.58E2,5E0,1E1,6.35E2,1.52E2,6E0,5E0,4E0,4E0,1.2E1,7E0,3.1E1,1.4E1,4E0,2E0,1.9E1,2E0,5.2E1,8.1E1,7E0,2E0,2.21E2,1.1E1,5.2E1,6.06E2,1E0,4E0,8E0,2E0,5.98E2,3.7E1,4.1E1,1.11E2,4E0,2E0,2E0,3E0,2E0,2E0,1.1E1,1E0,5E0,2E0,3E1,1E0,9E0,5E0,3E0,1E0,3E0,1.6E1,1E0,1E0,4.4E1,8E0,3.1E1,5E1,6E0,1E0,1.74E2,4.7E1,7E0,4E0,2.5E1,2.7E1,2.2E1,5.84E2,5E0,3E0,5.29E2,6.9E1,1.2E1,2.5E1,6E0,3.5E1,6E0,1.05E2,1E0,3E0,2E0,1E0,1E0,1E0],"tree_param":{"num_deleted":"0","num_feature":"7","num_nodes":"105","size_leaf_vector":"1"}},{"base_weights":[8.614198E-3,-1.8580973E-2,1.6387829E-1,-1.3156608E-2,-5.4077965E-1,4.0122506E-1,1.0413158E-3,5.6357646E-1,-1.8827114E-2,-9.1093266E-1,8.0725026E-1,5.8298614E-2,1.8151257E0,-1.3688575E0,1.3027051E-1,1.0014375E0,1.1174704E-1,-3.4398712E-2,1.4156134E-1,-1.278619E0,1.5370145E-1,-3.3847415E-1,5.349045E-1,3.0985303E0,1.3336343E-1,7.2774887E-3,-1.7134978E0,1.9404001E0,2.151927E-2,3.371826E-1,1.9961349E0,-4.0120125E-1,4.3508807E-1,7.412084E-2,-6.7891605E-2,5.7546467E-2,1.7776315E0,-1.8233113E0,-4.3004164E-1,1.702992E-1,-9.3448475E-2,2.6542205E-1,-8.474028E-1,8.717452E-1,-2.4916472E-1,4.3706784E0,1.8895721E-1,1.1963695E0,-9.5186996E-1,-3.1329647E-1,2.117753E-1,-2.262856E0,-7.869968E-1,2.7006555E-1,3.2226548E0,2.0861767E-1,-2.4313593E-1,-1.9586232E-2,1.6642185E-1,7.3666686E-1,1.6159387E-1,-5.3582408E-2,-1.6034715E-1,1.6027036E-1,-9.0966225E-3,-3.3364033E-3,4.9409503E-1,-2.5992054E-1,-1.4284432E-2,3.9350834E-1,-1.5204435E-2,1.12938546E-1,8.2031804E-1,-6.285274E-1,-2.2877234E-1,1.9732541E-1,-2.3374516E-1,-6.668494E-2,5.540607E-1,-3.3552498E-1,1.1431575E-3,6.510398E-2,5.67096E-1,-2.1355005E-1,2.1780173E-1,1.528039E0,-2.1173953E-1,-1.6352005E-1,1.5261899E-1,8.803485E-2,8.566455E-1,-6.3513273E-1,-8.86201E-2,-1.5642014E-1,-7.3985964E-1,1.0830312E-1,-4.353759E-1,7.557536E-1,-2.7660218E-1,1.0608071E0,2.953769E-1,2.1424271E-2,5.416968E-1,-2.591601E-1,4.8300855E-2],"categories":[],"categories_nodes":[],"categories_segments":[],"categories_sizes":[],"default_left":[0,0,0,0,0,0,0,0,0,0,0,0,0,0,0,0,0,0,0,0,0,0,0,0,0,0,0,0,0,0,0,0,0,0,0,0,0,0,0,0,0,0,0,0,0,0,0,0,0,0,0,0,0,0,0,0,0,0,0,0,0,0,0,0,0,0,0,0,0,0,0,0,0,0,0,0,0,0,0,0,0,0,0,0,0,0,0,0,0,0,0,0,0,0,0,0,0,0,0,0,0,0,0,0,0],"id":13,"left_children":[1,3,5,7,9,11,13,15,17,19,-1,21,23,25,27,29,31,33,35,37,39,41,43,45,47,49,51,53,55,57,59,61,63,65,67,69,71,73,75,-1,-1,77,79,81,83,85,87,89,91,-1,-1,93,95,97,99,101,103,-1,-1,-1,-1,-1,-1,-1,-1,-1,-1,-1,-1,-1,-1,-1,-1,-1,-1,-1,-1,-1,-1,-1,-1,-1,-1,-1,-1,-1,-1,-1,-1,-1,-1,-1,-1,-1,-1,-1,-1,-1,-1,-1,-1,-1,-1,-1,-1],"loss_changes":[8.215679E0,4.6836643E0,1.1207743E1,5.3740153E0,2.2786423E1,5.7108128E1,3.0804672E1,3.0535083E0,4.063315E0,6.45975E0,0E0,1.8335056E1,4.9229538E1,7.126543E0,3.1258003E1,4.6127996E0,1.6672729E0,5.391559E0,1.9691113E1,4.7624645E0,1.1396937E0,1.6513943E1,1.18378935E1,4.7292435E1,1.3828496E1,3.6759624E0,4.326912E0,1.8405815E1,7.527724E0,5.615782E-1,6.8612766E-1,2.321279E-2,2.930615E-1,4.69443E1,1.8303442E1,1.8797743E1,8.354708E0,4.203453E-1,2.7910361E0,0E0,0E0,1.9692522E1,6.69429E0,2.0263474E1,6.8333282E0,3.6617752E1,1.4508961E0,8.150351E0,3.9642696E0,0E0,0E0,1.1929054E0,5.0993433E0,1.5728231E1,2.5169373E-2,1.9372654E1,1.594336E1,0E0,0E0,0E0,0E0,0E0,0E0,0E0,0E0,0E0,0E0,0E0,0E0,0E0,0E0,0E0,0E0,0E0,0E0,0E0,0E0,0E0,0E0,0E0,0E0,0E0,0E0,0E0,0E0,0E0,0E0,0E0,0E0,0E0,0E0,0E0,0E0,0E0,0E0,0E0,0E0,0E0,0E0,0E0,0E0,0E0,0E0,0E0,0E0],"parents":[2147483647,0,0,1,1,2,2,3,3,4,4,5,5,6,6,7,7,8,8,9,9,11,11,12,12,13,13,14,14,15,15,16,16,17,17,18,18,19,19,20,20,21,21,22,22,23,23,24,24,25,25,26,26,27,27,28,28,29,29,30,30,31,31,32,32,33,33,34,34,35,35,36,36,37,37,38,38,41,41,42,42,43,43,44,44,45,45,46,46,47,47,48,48,51,51,52,52,53,53,54,54,55,55,56,56],"right_children":[2,4,6,8,10,12,14,16,18,20,-1,22,24,26,28,30,32,34,36,38,40,42,44,46,48,50,52,54,56,58,60,62,64,66,68,70,72,74,76,-1,-1,78,80,82,84,86,88,90,92,-1,-1,94,96,98,100,102,104,-1,-1,-1,-1,-1,-1,-1,-1,-1,-1,-1,-1,-1,-1,-1,-1,-1,-1,-1,-1,-1,-1,-1,-1,-1,-1,-1,-1,-1,-1,-1,-1,-1,-1,-1,-1,-1,-1,-1,-1,-1,-1,-1,-1,-1,-1,-1,-1],"split_conditions":[5.42E0,5.2E0,1.6510553E2,8.473393E0,1.86E1,1.49398E2,1.7882974E2,-3.2466665E-1,6.299999E0,1.4133667E1,8.0725026E-1,7.087834E0,7E-1,1E-1,1.8582622E2,-1.7017502E0,1.2795001E0,1.0961665E0,1.922325E1,3.62E0,5.3E0,1.6711665E0,1.642247E1,1.533E1,5.8E0,5.67E0,1.4000001E0,8.34E0,1E0,-8.497583E0,3.2E0,2.83E0,4.17E0,7.4200004E-1,1.4899168E0,6.7E0,1.375558E1,8.625333E0,3.23E0,1.702992E-1,-9.3448475E-2,1.1669999E0,6.13E0,1.4003028E1,1.139E1,1.8394083E1,6.13E0,7.53E0,6.3E0,-3.1329647E-1,2.117753E-1,6.9E0,2.5999997E0,5.47E0,3.43E0,8.000001E-1,1.5856354E1,-1.9586232E-2,1.6642185E-1,7.3666686E-1,1.6159387E-1,-5.3582408E-2,-1.6034715E-1,1.6027036E-1,-9.0966225E-3,-3.3364033E-3,4.9409503E-1,-2.5992054E-1,-1.4284432E-2,3.9350834E-1,-1.5204435E-2,1.12938546E-1,8.2031804E-1,-6.285274E-1,-2.2877234E-1,1.9732541E-1,-2.3374516E-1,-6.668494E-2,5.540607E-1,-3.3552498E-1,1.1431575E-3,6.510398E-2,5.67096E-1,-2.1355005E-1,2.1780173E-1,1.528039E0,-2.1173953E-1,-1.6352005E-1,1.5261899E-1,8.803485E-2,8.566455E-1,-6.3513273E-1,-8.86201E-2,-1.5642014E-1,-7.3985964E-1,1.0830312E-1,-4.353759E-1,7.557536E-1,-2.7660218E-1,1.0608071E0,2.953769E-1,2.1424271E-2,5.416968E-1,-2.591601E-1,4.8300855E-2],"split_indices":[0,0,6,5,1,6,6,3,4,3,0,3,4,4,6,3,3,3,3,2,0,3,5,0,1,0,4,0,4,3,0,0,0,3,3,4,5,3,1,0,0,3,2,5,0,3,1,0,0,0,0,0,4,0,1,4,5,0,0,0,0,0,0,0,0,0,0,0,0,0,0,0,0,0,0,0,0,0,0,0,0,0,0,0,0,0,0,0,0,0,0,0,0,0,0,0,0,0,0,0,0,0,0,0,0],"split_type":[0,0,0,0,0,0,0,0,0,0,0,0,0,0,0,0,0,0,0,0,0,0,0,0,0,0,0,0,0,0,0,0,0,0,0,0,0,0,0,0,0,0,0,0,0,0,0,0,0,0,0,0,0,0,0,0,0,0,0,0,0,0,0,0,0,0,0,0,0,0,0,0,0,0,0,0,0,0,0,0,0,0,0,0,0,0,0,0,0,0,0,0,0,0,0,0,0,0,0,0,0,0,0,0,0],"sum_hessian":[1.944E3,1.655E3,2.89E2,1.639E3,1.6E1,1.17E2,1.72E2,1.5E1,1.624E3,1.5E1,1E0,9.5E1,2.2E1,1.4E1,1.58E2,7E0,8E0,1.481E3,1.43E2,1.1E1,4E0,5.2E1,4.3E1,1.2E1,1E1,3E0,1.1E1,8E0,1.5E2,5E0,2E0,3E0,5E0,3.49E2,1.132E3,1.37E2,6E0,6E0,5E0,2E0,2E0,2.4E1,2.8E1,3E1,1.3E1,8E0,4E0,5E0,5E0,1E0,2E0,6E0,5E0,4E0,4E0,8.8E1,6.2E1,2E0,3E0,1E0,1E0,2E0,1E0,4E0,1E0,3.32E2,1.7E1,2.7E1,1.105E3,1E1,1.27E2,3E0,3E0,4E0,2E0,1E0,4E0,1.9E1,5E0,2.1E1,7E0,1.9E1,1.1E1,9E0,4E0,7E0,1E0,1E0,3E0,4E0,1E0,1E0,4E0,1E0,5E0,2E0,3E0,1E0,3E0,3E0,1E0,8.2E1,6E0,2.4E1,3.8E1],"tree_param":{"num_deleted":"0","num_feature":"7","num_nodes":"105","size_leaf_vector":"1"}},{"base_weights":[8.9499075E-3,6.645199E-2,-5.9005406E-2,1.5134746E-1,-5.1438004E-2,-6.782415E-2,9.239437E-1,8.051919E-2,5.674541E-1,-1.0796779E-1,5.70252E-1,-2.2671579E-1,-2.6080724E-2,-1.2429382E-1,1.1743107E0,1.2555489E-1,-4.4038075E-1,3.5081413E0,4.2407966E-1,-1.1952923E-1,6.861627E-1,1.1145142E0,-5.202717E-1,-1.0733209E-3,-5.5463517E-1,1.9606891E0,-4.314606E-2,7.2991866E-1,5.7609946E-1,1.820922E-1,-1.9525237E-1,-6.9172156E-1,7.142828E-1,7.395553E-1,1.772085E0,-5.4462105E-2,8.821073E-1,-1.6766204E-1,3.2387415E-1,1.5948982E0,-6.7251796E-1,2.2987872E-2,-1.1579058E0,-1.2559062E-1,8.6173034E-1,-2.9215705E-1,-1.2156667E0,2.4294727E0,-2.6594093E-1,8.3927155E-2,-1.2816365E-1,-2.0866586E-1,3.4623706E-1,4.6415303E-2,8.806848E-1,-1.2225195E-1,1.9578922E-1,-4.3195825E-2,-2.627353E-1,-8.43906E-2,3.2790843E-1,3.1230348E-1,2.0496406E-2,1.6299255E-1,-3.3863287E-2,-3.448688E-2,4.3678907E-1,-5.4312818E-2,3.2656518E-1,-7.944086E-2,2.6072893E-1,1.9208471E-1,8.0715257E-1,-3.642809E-1,-2.9422404E-2,-1.1288107E-1,1.5489407E-1,-8.458572E-2,-3.8301185E-1,-4.8672523E-2,3.2306755E-1,6.4686817E-1,3.8492702E-2,-1.8110998E-1,4.062199E-2,-6.001176E-1,-2.5362468E-1,-1.7119018E-2,1.5476976E-1,-1.0614764E-1,-2.1862362E-2],"categories":[],"categories_nodes":[],"categories_segments":[],"categories_sizes":[],"default_left":[0,0,0,0,0,0,0,0,0,0,0,0,0,0,0,0,0,0,0,0,0,0,0,0,0,0,0,0,0,0,0,0,0,0,0,0,0,0,0,0,0,0,0,0,0,0,0,0,0,0,0,0,0,0,0,0,0,0,0,0,0,0,0,0,0,0,0,0,0,0,0,0,0,0,0,0,0,0,0,0,0,0,0,0,0,0,0,0,0,0,0],"id":14,"left_children":[1,3,5,7,9,11,13,15,17,19,21,23,25,-1,27,29,31,33,35,37,-1,39,41,43,45,47,49,51,-1,53,55,57,59,61,-1,63,65,67,69,71,73,75,77,79,81,83,85,-1,-1,87,89,-1,-1,-1,-1,-1,-1,-1,-1,-1,-1,-1,-1,-1,-1,-1,-1,-1,-1,-1,-1,-1,-1,-1,-1,-1,-1,-1,-1,-1,-1,-1,-1,-1,-1,-1,-1,-1,-1,-1,-1],"loss_changes":[7.604148E0,1.05565605E1,7.794857E0,1.8020716E1,1.5595217E1,5.86401E0,3.1669736E0,1.2371316E1,3.6036392E1,1.1516222E1,2.2540493E1,1.3614032E1,2.3885832E1,0E0,9.189949E-1,8.814143E0,1.2683075E1,2.2196709E1,1.8897982E1,8.697912E0,0E0,2.253414E1,4.529829E0,1.1925964E1,1.2657806E1,1.1202637E2,7.540767E0,4.430906E0,0E0,3.0600903E1,1.3403519E1,3.4025192E0,3.3240552E0,5.3591955E-1,0E0,1.5628476E0,2.5342903E1,6.349162E0,1.3068531E1,1.9195053E1,1.7481449E0,1.7699877E0,2.6441097E-1,4.449733E0,1.3015098E1,7.407988E0,4.41029E0,0E0,0E0,1.7082552E1,5.1894517E0,0E0,0E0,0E0,0E0,0E0,0E0,0E0,0E0,0E0,0E0,0E0,0E0,0E0,0E0,0E0,0E0,0E0,0E0,0E0,0E0,0E0,0E0,0E0,0E0,0E0,0E0,0E0,0E0,0E0,0E0,0E0,0E0,0E0,0E0,0E0,0E0,0E0,0E0,0E0,0E0],"parents":[2147483647,0,0,1,1,2,2,3,3,4,4,5,5,6,6,7,7,8,8,9,9,10,10,11,11,12,12,14,14,15,15,16,16,17,17,18,18,19,19,21,21,22,22,23,23,24,24,25,25,26,26,27,27,29,29,30,30,31,31,32,32,33,33,35,35,36,36,37,37,38,38,39,39,40,40,41,41,42,42,43,43,44,44,45,45,46,46,49,49,50,50],"right_children":[2,4,6,8,10,12,14,16,18,20,22,24,26,-1,28,30,32,34,36,38,-1,40,42,44,46,48,50,52,-1,54,56,58,60,62,-1,64,66,68,70,72,74,76,78,80,82,84,86,-1,-1,88,90,-1,-1,-1,-1,-1,-1,-1,-1,-1,-1,-1,-1,-1,-1,-1,-1,-1,-1,-1,-1,-1,-1,-1,-1,-1,-1,-1,-1,-1,-1,-1,-1,-1,-1,-1,-1,-1,-1,-1,-1],"split_conditions":[1.678156E1,1.0896167E1,2.0677416E1,1.6039202E1,7.33E0,1.0024167E0,1.7026896E1,7.79E0,1.6055355E1,1.653E1,9.5E0,2.12E0,1.0961665E0,-1.2429382E-1,3.0999997E0,5.49E0,1.232E1,3.17E0,1.73E0,6.299999E0,6.861627E-1,2.4621312E2,7.79E0,1.87E0,-6.424999E-2,1.12E0,2.1603712E2,1.1581853E2,5.7609946E-1,9.5E0,6.13E0,1.182315E2,2.52E0,2.22E0,1.772085E0,5.7E-1,6.295E-1,1.653E1,1.4906585E1,5.8E0,8.000001E-1,1.2261157E1,1E-1,3.371338E1,1.0793682E2,2.234977E2,1.9008545E1,2.4294727E0,-2.6594093E-1,1.9555283E2,2.3501485E2,-2.0866586E-1,3.4623706E-1,4.6415303E-2,8.806848E-1,-1.2225195E-1,1.9578922E-1,-4.3195825E-2,-2.627353E-1,-8.43906E-2,3.2790843E-1,3.1230348E-1,2.0496406E-2,1.6299255E-1,-3.3863287E-2,-3.448688E-2,4.3678907E-1,-5.4312818E-2,3.2656518E-1,-7.944086E-2,2.6072893E-1,1.9208471E-1,8.0715257E-1,-3.642809E-1,-2.9422404E-2,-1.1288107E-1,1.5489407E-1,-8.458572E-2,-3.8301185E-1,-4.8672523E-2,3.2306755E-1,6.4686817E-1,3.8492702E-2,-1.8110998E-1,4.062199E-2,-6.001176E-1,-2.5362468E-1,-1.7119018E-2,1.5476976E-1,-1.0614764E-1,-2.1862362E-2],"split_indices":[5,3,3,5,0,3,5,2,5,1,1,1,3,0,4,1,1,0,0,4,0,6,2,1,3,2,6,6,0,0,2,6,0,0,0,2,3,2,3,1,4,5,4,5,6,6,5,0,0,6,6,0,0,0,0,0,0,0,0,0,0,0,0,0,0,0,0,0,0,0,0,0,0,0,0,0,0,0,0,0,0,0,0,0,0,0,0,0,0,0,0],"split_type":[0,0,0,0,0,0,0,0,0,0,0,0,0,0,0,0,0,0,0,0,0,0,0,0,0,0,0,0,0,0,0,0,0,0,0,0,0,0,0,0,0,0,0,0,0,0,0,0,0,0,0,0,0,0,0,0,0,0,0,0,0,0,0,0,0,0,0,0,0,0,0,0,0,0,0,0,0,0,0,0,0,0,0,0,0,0,0,0,0,0,0],"sum_hessian":[1.944E3,1.053E3,8.91E2,6.12E2,4.41E2,8.84E2,7E0,5.24E2,8.8E1,4.05E2,3.6E1,1.83E2,7.01E2,1E0,6E0,4.83E2,4.1E1,3E0,8.5E1,4.04E2,1E0,2.4E1,1.2E1,1.09E2,7.4E1,5E0,6.96E2,5E0,1E0,4.11E2,7.2E1,3.4E1,7E0,2E0,1E0,4.2E1,4.3E1,3.65E2,3.9E1,1.9E1,5E0,7E0,5E0,9.6E1,1.3E1,5.4E1,2E1,1E0,4E0,2.79E2,4.17E2,1E0,4E0,4.08E2,3E0,5.8E1,1.4E1,9E0,2.5E1,2E0,5E0,1E0,1E0,3E0,3.9E1,1.6E1,2.7E1,3.62E2,3E0,1.9E1,2E1,1.1E1,8E0,2E0,3E0,4E0,3E0,1E0,4E0,9.4E1,2E0,4E0,9E0,3.1E1,2.3E1,5E0,1.5E1,2.11E2,6.8E1,8.1E1,3.36E2],"tree_param":{"num_deleted":"0","num_feature":"7","num_nodes":"91","size_leaf_vector":"1"}},{"base_weights":[1.0183814E-2,1.9075392E-2,-2.9008883E-1,-9.960621E-2,4.1000202E-2,-4.1672155E-1,6.55872E-1,-2.1402407E-1,-3.0417087E-2,6.441433E-1,3.5640124E-2,-4.8005438E-1,2.4928463E-1,-2.544576E-1,5.8633924E-1,-1.5251385E-1,-4.703767E-1,-1.07556246E-1,1.5386741E-1,1.2506504E-1,2.5057418E0,-1.2762043E-1,5.2818563E-2,-2.900073E-1,-3.175156E-1,2.3410779E-1,-7.8573845E-2,-1.2967634E-1,8.158445E-3,1.4221367E-1,-2.1255499E-1,4.9604777E-2,-5.1043046E-1,1.5677048E-1,-2.2131182E-1,6.210479E-2,8.929113E-1,4.9688882E-1,-1.2295793E-1,1.1138644E0,1.3719411E-2,3.7059614E-1,-2.4908663E-1,-1.2652235E-1,7.4826166E-2,-3.9897943E-1,1.412676E-1,-4.808207E-2,2.0839076E-3,6.9577936E-3,-3.286493E-3,6.9811987E-3,1.9496295E-1,-1.19145796E-1,-2.8979702E-2,-1.662211E-1,4.780902E-2,3.0554697E-1,-7.5759687E-3,-1.6620913E-1,-3.8137313E-2,3.3290303E-1,-1.3986905E-3,4.5382184E-1,-6.934895E-2,4.425459E-2,1.6420603E-1,1.095742E-2,-1.2028119E-1,1.4735267E-2,3.345766E-1,9.71546E-2,-8.9275375E-2,-7.803175E-2,4.4464655E-2,3.3707938E-1,1.4608215E-2,8.938275E-2,-1.4725585E-1,1.6031143E-1,-2.3648676E-2,-4.207242E-3,5.1450003E-3],"categories":[],"categories_nodes":[],"categories_segments":[],"categories_sizes":[],"default_left":[0,0,0,0,0,0,0,0,0,0,0,0,0,0,0,0,0,0,0,0,0,0,0,0,0,0,0,0,0,0,0,0,0,0,0,0,0,0,0,0,0,0,0,0,0,0,0,0,0,0,0,0,0,0,0,0,0,0,0,0,0,0,0,0,0,0,0,0,0,0,0,0,0,0,0,0,0,0,0,0,0,0,0],"id":15,"left_children":[1,3,5,7,9,11,13,15,17,19,21,23,25,27,-1,29,31,33,35,37,39,41,43,45,-1,-1,47,-1,49,51,53,-1,55,57,59,61,63,65,67,-1,-1,69,71,73,75,77,79,-1,81,-1,-1,-1,-1,-1,-1,-1,-1,-1,-1,-1,-1,-1,-1,-1,-1,-1,-1,-1,-1,-1,-1,-1,-1,-1,-1,-1,-1,-1,-1,-1,-1,-1,-1],"loss_changes":[5.198485E0,4.921999E0,6.981534E0,2.3288486E0,5.1367416E0,2.228672E0,8.772354E0,1.6785431E0,2.6464264E0,1.3215033E1,4.446362E0,4.748926E0,9.319024E-1,2.3698801E-1,0E0,1.6405439E0,6.191273E-1,3.9736867E0,3.674459E0,1.1677465E0,8.738934E0,9.230298E0,5.6653214E0,1.7482526E0,0E0,0E0,2.6692852E-2,0E0,1.1161398E-3,9.51004E-1,1.5884306E0,0E0,6.728921E-1,6.2998543E0,2.8126583E0,3.50234E0,4.5300865E0,7.4118376E-3,3.6930722E-1,0E0,0E0,7.126981E0,3.4862862E0,5.800521E0,3.4943542E1,2.0030746E0,7.342902E-1,0E0,9.685699E-4,0E0,0E0,0E0,0E0,0E0,0E0,0E0,0E0,0E0,0E0,0E0,0E0,0E0,0E0,0E0,0E0,0E0,0E0,0E0,0E0,0E0,0E0,0E0,0E0,0E0,0E0,0E0,0E0,0E0,0E0,0E0,0E0,0E0,0E0],"parents":[2147483647,0,0,1,1,2,2,3,3,4,4,5,5,6,6,7,7,8,8,9,9,10,10,11,11,12,12,13,13,15,15,16,16,17,17,18,18,19,19,20,20,21,21,22,22,23,23,26,26,28,28,29,29,30,30,32,32,33,33,34,34,35,35,36,36,37,37,38,38,41,41,42,42,43,43,44,44,45,45,46,46,48,48],"right_children":[2,4,6,8,10,12,14,16,18,20,22,24,26,28,-1,30,32,34,36,38,40,42,44,46,-1,-1,48,-1,50,52,54,-1,56,58,60,62,64,66,68,-1,-1,70,72,74,76,78,80,-1,82,-1,-1,-1,-1,-1,-1,-1,-1,-1,-1,-1,-1,-1,-1,-1,-1,-1,-1,-1,-1,-1,-1,-1,-1,-1,-1,-1,-1,-1,-1,-1,-1,-1,-1],"split_conditions":[2.858545E1,9E-1,8E0,1.5281989E1,4.7E-1,1.043E1,2.52E0,2.82E0,8.477417E0,1.0000001E0,5.084651E1,2.67E0,1.083E1,1.83E0,5.8633924E-1,8.529074E1,4.7E-1,5.544999E-1,2.47E0,2.0656497E2,1.22E0,1.1013882E1,1.1212135E1,1.93E0,-3.175156E-1,2.3410779E-1,8.7E-1,-1.2967634E-1,2E0,7.483107E1,2.446884E2,4.9604777E-2,2.3E0,1.6007182E2,2.1789754E2,1.5580141E1,2.3707654E2,4E-1,1.05E0,1.1138644E0,1.3719411E-2,3.7E0,-4.0809164E0,2.3361554E2,1.1521406E1,5.3E-1,1E-1,-4.808207E-2,2.6E0,6.9577936E-3,-3.286493E-3,6.9811987E-3,1.9496295E-1,-1.19145796E-1,-2.8979702E-2,-1.662211E-1,4.780902E-2,3.0554697E-1,-7.5759687E-3,-1.6620913E-1,-3.8137313E-2,3.3290303E-1,-1.3986905E-3,4.5382184E-1,-6.934895E-2,4.425459E-2,1.6420603E-1,1.095742E-2,-1.2028119E-1,1.4735267E-2,3.345766E-1,9.71546E-2,-8.9275375E-2,-7.803175E-2,4.4464655E-2,3.3707938E-1,1.4608215E-2,8.938275E-2,-1.4725585E-1,1.6031143E-1,-2.3648676E-2,-4.207242E-3,5.1450003E-3],"split_indices":[5,0,4,5,1,2,0,2,3,4,6,0,2,0,0,6,1,3,1,6,0,5,5,1,0,0,0,0,0,6,6,0,4,6,6,5,6,1,0,0,0,1,3,6,5,0,4,0,0,0,0,0,0,0,0,0,0,0,0,0,0,0,0,0,0,0,0,0,0,0,0,0,0,0,0,0,0,0,0,0,0,0,0],"split_type":[0,0,0,0,0,0,0,0,0,0,0,0,0,0,0,0,0,0,0,0,0,0,0,0,0,0,0,0,0,0,0,0,0,0,0,0,0,0,0,0,0,0,0,0,0,0,0,0,0,0,0,0,0,0,0,0,0,0,0,0,0,0,0,0,0,0,0,0,0,0,0,0,0,0,0,0,0,0,0,0,0,0,0],"sum_hessian":[1.944E3,1.889E3,5.5E1,2.94E2,1.595E3,4.9E1,6E0,1.1E2,1.84E2,1.3E1,1.582E3,4.5E1,4E0,4E0,2E0,9E1,2E1,1.3E2,5.4E1,1.1E1,2E0,1.5E2,1.432E3,3.5E1,1E1,1E0,3E0,2E0,2E0,1.5E1,7.5E1,1E0,1.9E1,3.9E1,9.1E1,4.9E1,5E0,4E0,7E0,1E0,1E0,2.9E1,1.21E2,1.56E2,1.276E3,2.8E1,7E0,1E0,2E0,1E0,1E0,1.3E1,2E0,2.8E1,4.7E1,1.8E1,1E0,6E0,3.3E1,1.9E1,7.2E1,2E0,4.7E1,3E0,2E0,1E0,3E0,5E0,2E0,2.1E1,8E0,9E0,1.12E2,1.05E2,5.1E1,3E1,1.246E3,3E0,2.5E1,2E0,5E0,1E0,1E0],"tree_param":{"num_deleted":"0","num_feature":"7","num_nodes":"83","size_leaf_vector":"1"}},{"base_weights":[8.72516E-3,3.6250234E-2,-8.495456E-2,4.7598053E-2,-2.693412E-1,-1.5127902E-1,8.635557E-2,2.8706161E-2,2.6682293E-1,6.1863463E-2,-6.560132E-1,-2.2624403E-1,-6.3575513E-4,2.7058062E-1,-6.4411946E-2,-6.399435E-2,9.8741315E-2,1.128158E0,7.3613904E-2,-7.8116816E-1,2.617165E-1,-1.2514675E0,3.62315E-1,-1.0019706E-1,-3.5017657E-1,-4.5837868E-2,4.9665812E-1,1.2764153E0,1.6866226E-1,-8.824013E-3,-4.3401772E-1,-7.297153E-2,5.0249124E-1,2.2446632E-1,-5.2631623E-3,3.704935E-1,2.96057E0,6.586141E-1,-2.200364E-1,-2.5618786E-1,-6.2581785E-2,7.827505E-1,-2.794495E-1,-6.4427495E-2,-1.4164426E0,9.909718E-1,-2.219515E-1,1.6711785E-1,-1.2645167E-1,-4.0364435E-1,1.0674713E-1,5.22357E-1,-8.161799E-2,6.3583124E-1,7.744601E-2,6.3646483E-1,5.809605E-3,4.0322992E-1,-1.679502E-2,-9.137262E-2,1.6496925E-1,-6.117943E-1,1.2546682E-1,-6.6541806E-2,6.457744E-3,5.6161728E-2,6.895464E-1,-1.8195353E-1,1.7462112E-2,-1.6592618E-2,3.2681462E-1,1.7035803E0,3.843732E-1,-3.1821232E-2,4.0187266E-1,-1.2124205E-1,1.5999132E-1,4.5391717E-3,4.315647E-1,7.938941E-3,-1.6363223E-1,-2.6794786E-2,-2.1975876E-3,-5.370068E-1,-1.157983E-1,2.084427E-2,3.611923E-1,1.1825324E-1,-1.2720384E-1,1.2612343E-1,-4.4859308E-4,-5.6156926E-2,7.355354E-3,-1.0025004E-1,-2.4645802E-1,2.7680835E-1,-4.461354E-2,1.4839436E-2,4.330227E-1,2.074306E-2,-7.6352805E-2,2.3105913E-1,8.6856514E-2,2.4799795E-3,1.3434292E-4,-1.3551923E-2,2.6895106E-1,-2.311008E-2,1.6530901E-1,-1.3491804E-2,-1.0868304E-1,1.6762371E-1,-1.31107485E-2,-4.1871466E-2,-2.0017086E-1,7.1187474E-2,-1.47274025E-2],"categories":[],"categories_nodes":[],"categories_segments":[],"categories_sizes":[],"default_left":[0,0,0,0,0,0,0,0,0,0,0,0,0,0,0,0,0,0,0,0,0,0,0,0,0,0,0,0,0,0,0,0,0,0,0,0,0,0,0,0,0,0,0,0,0,0,0,0,0,0,0,0,0,0,0,0,0,0,0,0,0,0,0,0,0,0,0,0,0,0,0,0,0,0,0,0,0,0,0,0,0,0,0,0,0,0,0,0,0,0,0,0,0,0,0,0,0,0,0,0,0,0,0,0,0,0,0,0,0,0,0,0,0,0,0,0,0],"id":16,"left_children":[1,3,5,7,9,11,13,15,17,19,21,23,25,27,29,31,33,35,37,39,41,43,45,47,49,51,53,55,57,59,61,63,-1,65,67,69,71,73,75,-1,-1,77,79,81,83,85,87,89,91,93,95,97,99,101,-1,-1,103,105,107,109,111,113,115,-1,-1,-1,-1,-1,-1,-1,-1,-1,-1,-1,-1,-1,-1,-1,-1,-1,-1,-1,-1,-1,-1,-1,-1,-1,-1,-1,-1,-1,-1,-1,-1,-1,-1,-1,-1,-1,-1,-1,-1,-1,-1,-1,-1,-1,-1,-1,-1,-1,-1,-1,-1,-1,-1],"loss_changes":[5.0183415E0,5.228387E0,5.03509E0,6.0017633E0,6.9562316E0,3.6023145E0,3.4615474E0,8.686517E0,1.9054989E1,5.258918E0,1.5612622E1,3.2922554E0,2.4279904E0,5.525447E0,1.4138181E0,9.114161E0,9.965065E0,2.8058554E1,1.646454E1,7.192421E-2,7.2678857E0,3.0420551E0,3.892979E0,7.720851E-1,2.6571732E0,2.0553114E0,1.3459897E-1,5.3568354E0,2.2688909E0,8.9020354E-1,9.719287E-1,8.077777E0,0E0,2.6231049E1,1.5986757E1,4.9579215E0,2.0111088E1,1.6805159E1,9.091873E0,0E0,0E0,6.522485E0,1.0722452E0,3.6092922E-3,4.698427E0,8.977456E-1,9.1411114E-1,4.2771494E-1,9.032099E-1,2.5126848E0,2.638508E0,2.5419517E0,2.467742E0,9.672165E-3,0E0,0E0,3.5819823E-5,5.127761E0,1.0685971E0,5.116449E-1,1.6678189E0,9.013939E-2,7.020873E-2,0E0,0E0,0E0,0E0,0E0,0E0,0E0,0E0,0E0,0E0,0E0,0E0,0E0,0E0,0E0,0E0,0E0,0E0,0E0,0E0,0E0,0E0,0E0,0E0,0E0,0E0,0E0,0E0,0E0,0E0,0E0,0E0,0E0,0E0,0E0,0E0,0E0,0E0,0E0,0E0,0E0,0E0,0E0,0E0,0E0,0E0,0E0,0E0,0E0,0E0,0E0,0E0,0E0,0E0],"parents":[2147483647,0,0,1,1,2,2,3,3,4,4,5,5,6,6,7,7,8,8,9,9,10,10,11,11,12,12,13,13,14,14,15,15,16,16,17,17,18,18,19,19,20,20,21,21,22,22,23,23,24,24,25,25,26,26,27,27,28,28,29,29,30,30,31,31,33,33,34,34,35,35,36,36,37,37,38,38,41,41,42,42,43,43,44,44,45,45,46,46,47,47,48,48,49,49,50,50,51,51,52,52,53,53,56,56,57,57,58,58,59,59,60,60,61,61,62,62],"right_children":[2,4,6,8,10,12,14,16,18,20,22,24,26,28,30,32,34,36,38,40,42,44,46,48,50,52,54,56,58,60,62,64,-1,66,68,70,72,74,76,-1,-1,78,80,82,84,86,88,90,92,94,96,98,100,102,-1,-1,104,106,108,110,112,114,116,-1,-1,-1,-1,-1,-1,-1,-1,-1,-1,-1,-1,-1,-1,-1,-1,-1,-1,-1,-1,-1,-1,-1,-1,-1,-1,-1,-1,-1,-1,-1,-1,-1,-1,-1,-1,-1,-1,-1,-1,-1,-1,-1,-1,-1,-1,-1,-1,-1,-1,-1,-1,-1,-1],"split_conditions":[2.7978635E2,1.18E1,3.3335132E2,6.2E0,2.52E0,4E-1,4.5866668E-1,1.73E0,1.02E0,8.7E-1,1.276908E1,1.29E0,1.6189917E1,3.3484195E2,3E0,8.11E0,2.82E0,1.6E0,1.3747388E2,6.9E0,1.3025333E1,2.13E0,1.8674547E2,2.8538995E2,5.67E0,5.3E-1,2.62E0,1.3830749E1,-3.67675E0,2.02E0,1.6483667E1,1.802086E2,5.0249124E-1,8.49E0,3.2E0,1.8E0,2.06E0,9.654029E1,1.6483667E1,-2.5618786E-1,-6.2581785E-2,9.4445625E1,1.31E0,1.67E0,6.3E0,1.02E0,2.57E0,3.2753334E0,3.177802E2,3.5E0,1.0172787E1,7.2E-1,1.5E0,1.73E0,7.744601E-2,6.3646483E-1,4E-1,1.93E0,6.491665E-2,1.93E0,1.72E0,1.72E0,6.47E0,-6.6541806E-2,6.457744E-3,5.6161728E-2,6.895464E-1,-1.8195353E-1,1.7462112E-2,-1.6592618E-2,3.2681462E-1,1.7035803E0,3.843732E-1,-3.1821232E-2,4.0187266E-1,-1.2124205E-1,1.5999132E-1,4.5391717E-3,4.315647E-1,7.938941E-3,-1.6363223E-1,-2.6794786E-2,-2.1975876E-3,-5.370068E-1,-1.157983E-1,2.084427E-2,3.611923E-1,1.1825324E-1,-1.2720384E-1,1.2612343E-1,-4.4859308E-4,-5.6156926E-2,7.355354E-3,-1.0025004E-1,-2.4645802E-1,2.7680835E-1,-4.461354E-2,1.4839436E-2,4.330227E-1,2.074306E-2,-7.6352805E-2,2.3105913E-1,8.6856514E-2,2.4799795E-3,1.3434292E-4,-1.3551923E-2,2.6895106E-1,-2.311008E-2,1.6530901E-1,-1.3491804E-2,-1.0868304E-1,1.6762371E-1,-1.31107485E-2,-4.1871466E-2,-2.0017086E-1,7.1187474E-2,-1.47274025E-2],"split_indices":[6,4,6,4,1,4,3,2,2,2,3,0,3,6,0,1,1,1,6,0,3,0,6,6,0,2,2,5,3,2,3,6,0,0,1,0,0,6,3,0,0,6,2,0,0,0,2,3,6,0,5,1,0,0,0,0,0,0,3,0,1,1,0,0,0,0,0,0,0,0,0,0,0,0,0,0,0,0,0,0,0,0,0,0,0,0,0,0,0,0,0,0,0,0,0,0,0,0,0,0,0,0,0,0,0,0,0,0,0,0,0,0,0,0,0,0,0],"split_type":[0,0,0,0,0,0,0,0,0,0,0,0,0,0,0,0,0,0,0,0,0,0,0,0,0,0,0,0,0,0,0,0,0,0,0,0,0,0,0,0,0,0,0,0,0,0,0,0,0,0,0,0,0,0,0,0,0,0,0,0,0,0,0,0,0,0,0,0,0,0,0,0,0,0,0,0,0,0,0,0,0,0,0,0,0,0,0,0,0,0,0,0,0,0,0,0,0,0,0,0,0,0,0,0,0,0,0,0,0,0,0,0,0,0,0,0,0],"sum_hessian":[1.944E3,1.503E3,4.41E2,1.45E3,5.3E1,3.18E2,1.23E2,1.336E3,1.14E2,2.9E1,2.4E1,2.12E2,1.06E2,5.5E1,6.8E1,5.75E2,7.61E2,2E1,9.4E1,5E0,2.4E1,1.5E1,9E0,1.06E2,1.06E2,9.8E1,8E0,4E0,5.1E1,6E1,8E0,5.73E2,2E0,3.44E2,4.17E2,1.5E1,5E0,3.1E1,6.3E1,4E0,1E0,1.2E1,1.2E1,2E0,1.3E1,4E0,5E0,9E0,9.7E1,9.5E1,1.1E1,5E0,9.3E1,4E0,4E0,2E0,2E0,2.2E1,2.9E1,4.1E1,1.9E1,6E0,2E0,2.22E2,3.51E2,3.39E2,5E0,3.9E1,3.78E2,1E1,5E0,1E0,4E0,1.5E1,1.6E1,5.1E1,1.2E1,6E0,6E0,6E0,6E0,1E0,1E0,9E0,4E0,1E0,3E0,1E0,4E0,3E0,6E0,6.9E1,2.8E1,8.3E1,1.2E1,2E0,9E0,4E0,1E0,5E1,4.3E1,2E0,2E0,1E0,1E0,1.2E1,1E1,2.7E1,2E0,3.6E1,5E0,6E0,1.3E1,1E0,5E0,1E0,1E0],"tree_param":{"num_deleted":"0","num_feature":"7","num_nodes":"117","size_leaf_vector":"1"}},{"base_weights":[8.738438E-3,1.9998964E-2,-1.2912838E-1,1.1773525E-2,1.8599973E0,1.08468026E-1,-3.08617E-1,-1.2371314E-2,1.4110358E-1,2.061892E0,1.6200466E-1,2.1767467E-1,-3.6711162E-1,-4.3747124E-1,7.440276E-2,4.012331E-2,-1.0083495E-1,1.0893092E0,1.05853915E-1,3.264018E-1,-1.6599214E-1,1.1933453E0,6.629656E-2,-3.6088893E-1,-3.760944E-1,-1.171333E-1,3.9795268E-1,1.4053154E-1,-8.560103E-2,-3.718207E-2,-2.5681022E-1,1.4714522E0,1.2037906E-1,4.7737486E-3,3.8272047E-1,2.9167414E-3,4.0314102E-1,-7.466737E-2,-2.9093027E-5,-1.580858E-1,6.107464E-1,5.876664E-1,-7.7703474E-3,-5.049929E-1,3.138367E-1,2.0471194E-1,-3.990714E-1,3.1463046E-2,2.6547334E-1,-3.73689E-2,1.3400884E-1,-1.386441E-2,2.6125807E-1,-1.8602906E-2,-1.2915109E-1,-8.127781E-2,2.0317258E-1,3.753326E-2,-9.753825E-2,2.5207773E-1,-1.8242612E-2,1.3663356E-1,3.693427E-2,-7.818138E-2,2.2420585E-2,3.0850854E-2,-1.4478041E-1,3.819943E-2,-1.6469985E-1,-3.7214667E-2,2.5923276E-1,2.1191782E-1,-2.7022006E-3,-1.7696704E-1,2.4700187E-2],"categories":[],"categories_nodes":[],"categories_segments":[],"categories_sizes":[],"default_left":[0,0,0,0,0,0,0,0,0,0,0,0,0,0,0,0,0,0,0,0,0,0,0,0,0,0,0,0,0,0,0,0,0,0,0,0,0,0,0,0,0,0,0,0,0,0,0,0,0,0,0,0,0,0,0,0,0,0,0,0,0,0,0,0,0,0,0,0,0,0,0,0,0,0,0],"id":17,"left_children":[1,3,5,7,9,11,13,15,17,-1,19,21,-1,23,25,27,29,31,33,35,37,39,41,43,-1,45,-1,47,49,51,53,-1,55,57,59,-1,61,-1,-1,63,-1,-1,65,67,69,71,73,-1,-1,-1,-1,-1,-1,-1,-1,-1,-1,-1,-1,-1,-1,-1,-1,-1,-1,-1,-1,-1,-1,-1,-1,-1,-1,-1,-1],"loss_changes":[3.0221033E0,2.7205593E1,6.302415E0,5.5975404E0,6.698251E1,9.5772295E0,4.1782618E0,7.0209265E0,9.310242E0,0E0,4.3163234E-1,8.782597E0,0E0,3.4853668E0,5.431494E0,1.1991978E1,5.58007E0,3.6379395E1,7.638274E0,1.17589116E-1,4.123354E-2,9.430219E0,7.444676E0,5.895092E0,0E0,1.8965033E0,0E0,1.3920661E1,8.807646E0,3.3292527E0,5.4885015E0,0E0,2.1446123E0,8.020248E0,1.486511E1,0E0,2.5144815E-3,0E0,0E0,1.1495049E-1,0E0,0E0,2.7806382E0,1.4334011E0,2.7577114E0,1.0785513E0,1.0590409E0,0E0,0E0,0E0,0E0,0E0,0E0,0E0,0E0,0E0,0E0,0E0,0E0,0E0,0E0,0E0,0E0,0E0,0E0,0E0,0E0,0E0,0E0,0E0,0E0,0E0,0E0,0E0,0E0],"parents":[2147483647,0,0,1,1,2,2,3,3,4,4,5,5,6,6,7,7,8,8,10,10,11,11,13,13,14,14,15,15,16,16,17,17,18,18,19,19,20,20,21,21,22,22,23,23,25,25,27,27,28,28,29,29,30,30,32,32,33,33,34,34,36,36,39,39,42,42,43,43,44,44,45,45,46,46],"right_children":[2,4,6,8,10,12,14,16,18,-1,20,22,-1,24,26,28,30,32,34,36,38,40,42,44,-1,46,-1,48,50,52,54,-1,56,58,60,-1,62,-1,-1,64,-1,-1,66,68,70,72,74,-1,-1,-1,-1,-1,-1,-1,-1,-1,-1,-1,-1,-1,-1,-1,-1,-1,-1,-1,-1,-1,-1,-1,-1,-1,-1,-1,-1],"split_conditions":[2.5809765E1,2.55961E1,8E-1,3.4E0,1.9449808E2,5.99E0,8.099999E0,1.687398E1,3.6E0,2.061892E0,8.5E0,2.2400494E2,-3.6711162E-1,1.4133667E1,3.371338E1,9.1795E0,7.0000005E-1,-1.2258325E-1,4.69E0,4E-1,7.2E-1,1.57E0,2.6081993E1,7.087834E0,-3.760944E-1,1.93E0,3.9795268E-1,8.477417E0,7.53E0,2.0677416E1,2.27E0,1.4714522E0,1.1985749E1,2.82E0,7.3999996E0,2.9167414E-3,1.5E0,-7.466737E-2,-2.9093027E-5,1.33E0,6.107464E-1,5.876664E-1,4.05E0,5.3E-1,4.59E0,9.3E-1,4.05E0,3.1463046E-2,2.6547334E-1,-3.73689E-2,1.3400884E-1,-1.386441E-2,2.6125807E-1,-1.8602906E-2,-1.2915109E-1,-8.127781E-2,2.0317258E-1,3.753326E-2,-9.753825E-2,2.5207773E-1,-1.8242612E-2,1.3663356E-1,3.693427E-2,-7.818138E-2,2.2420585E-2,3.0850854E-2,-1.4478041E-1,3.819943E-2,-1.6469985E-1,-3.7214667E-2,2.5923276E-1,2.1191782E-1,-2.7022006E-3,-1.7696704E-1,2.4700187E-2],"split_indices":[5,5,4,4,6,0,4,5,4,0,4,6,0,3,5,3,4,3,0,0,0,0,5,3,0,2,0,3,0,3,1,0,3,1,4,0,0,0,0,0,0,0,1,0,0,0,2,0,0,0,0,0,0,0,0,0,0,0,0,0,0,0,0,0,0,0,0,0,0,0,0,0,0,0,0],"split_type":[0,0,0,0,0,0,0,0,0,0,0,0,0,0,0,0,0,0,0,0,0,0,0,0,0,0,0,0,0,0,0,0,0,0,0,0,0,0,0,0,0,0,0,0,0,0,0,0,0,0,0,0,0,0,0,0,0,0,0,0,0,0,0,0,0,0,0,0,0,0,0,0,0,0,0],"sum_hessian":[1.944E3,1.798E3,1.46E2,1.791E3,7E0,6.3E1,8.3E1,1.51E3,2.81E2,1E0,6E0,5.9E1,4E0,6.2E1,2.1E1,9.48E2,5.62E2,9E0,2.72E2,4E0,2E0,7E0,5.2E1,5.8E1,4E0,1.9E1,2E0,5.27E2,4.21E2,4E2,1.62E2,1E0,8E0,2E2,7.2E1,1E0,3E0,1E0,1E0,3E0,4E0,1E0,5.1E1,4.8E1,1E1,9E0,1E1,5.04E2,2.3E1,3.93E2,2.8E1,3.97E2,3E0,7.7E1,8.5E1,5E0,3E0,1.47E2,5.3E1,3.5E1,3.7E1,2E0,1E0,2E0,1E0,4.2E1,9E0,3E0,4.5E1,6E0,4E0,2E0,7E0,7E0,3E0],"tree_param":{"num_deleted":"0","num_feature":"7","num_nodes":"75","size_leaf_vector":"1"}},{"base_weights":[8.821283E-3,-4.10378E-2,3.89432E-2,-9.9491484E-2,4.242407E-1,4.34927E-1,7.20167E-3,-7.268363E-2,-4.7747517E-1,2.5175042E0,6.4474456E-2,-3.4188834E-1,7.558502E-1,2.6807802E-2,-1.6505393E-1,2.1907307E-1,-9.4091535E-2,-3.145467E-1,-1.0580331E0,6.8217735E0,3.2477298E-1,3.2305866E-3,3.268505E-1,1.1262708E0,-5.043919E-1,1.4746389E0,6.118014E-1,-1.0290527E-1,4.9907207E-2,-1.0188587E-1,-7.530169E-1,-5.2451897E-2,7.6586956E-1,-1.1182545E-1,2.9627147E-1,-7.404252E-1,4.6306537E-3,-1.2594132E0,8.295125E-2,2.494813E0,3.508447E-1,-5.089408E-2,4.9951646E-1,-8.513408E-2,5.919694E-1,-9.198438E-2,5.9880626E-1,-2.6985803E-1,-5.0046915E-1,1.4096749E0,1.4929181E-1,-4.581206E-1,8.4513724E-2,9.7467977E-1,3.674643E-2,-2.0070334E-1,1.7703013E-1,1.18710786E-1,-3.284261E-1,-6.350615E-2,5.7231594E-2,7.130656E-2,7.869912E-1,-3.5809122E-2,2.178546E-1,2.309801E-2,2.5473914E-1,-4.7538716E-1,-4.7959074E-2,1.1427959E-1,-1.6182907E-1,3.0580975E-2,-4.4053626E-1,-1.797954E-1,6.954007E-2,3.3415392E-2,-1.2183471E-1,8.45776E-2,3.3542472E-1,9.1989145E-2,-1.2450048E-1,1.5889116E-1,2.1300144E0,-3.2304287E-2,