{"learner":{"attributes":{"scikit_learn":"{\"_estimator_type\": \"regressor\"}"},"feature_names":["temperature_2m_mean","precipitation_sum","wind_speed_10m_max","wind_direction_10m_dominant"],"feature_types":["float","float","float","float"],"gradient_booster":{"model":{"gbtree_model_param":{"num_parallel_tree":"1","num_trees":"100"},"iteration_indptr":[0,1,2,3,4,5,6,7,8,9,10,11,12,13,14,15,16,17,18,19,20,21,22,23,24,25,26,27,28,29,30,31,32,33,34,35,36,37,38,39,40,41,42,43,44,45,46,47,48,49,50,51,52,53,54,55,56,57,58,59,60,61,62,63,64,65,66,67,68,69,70,71,72,73,74,75,76,77,78,79,80,81,82,83,84,85,86,87,88,89,90,91,92,93,94,95,96,97,98,99,100],"tree_info":[0,0,0,0,0,0,0,0,0,0,0,0,0,0,0,0,0,0,0,0,0,0,0,0,0,0,0,0,0,0,0,0,0,0,0,0,0,0,0,0,0,0,0,0,0,0,0,0,0,0,0,0,0,0,0,0,0,0,0,0,0,0,0,0,0,0,0,0,0,0,0,0,0,0,0,0,0,0,0,0,0,0,0,0,0,0,0,0,0,0,0,0,0,0,0,0,0,0,0,0],"trees":[{"base_weights":[1.2977529E-7,3.980595E0,-7.6103234E-1,5.5662403E0,9.9267626E-1,3.577357E-1,-2.00181E0,3.6205091E0,6.8765717E0,2.2848623E0,-1.7677363E0,2.486803E0,-9.503375E-1,-7.887704E-1,-2.4218807E0,2.8563545E0,6.8942533E0,8.664673E0,2.5133195E0,1.947212E0,2.8880546E0,-6.3237447E-1,-2.9326856E0,3.2282455E0,2.6831684E-1,5.340776E-1,-1.2296615E0,6.549194E-1,-1.8805275E0,-2.188148E0,-3.2834284E0,1.0817578E0,3.5090659E0,7.337395E0,1.0354071E-1,1.0921262E1,7.2762666E0,6.28309E0,1.5499291E0,4.5784825E-1,2.8845832E0,8.7357455E-1,-1.807026E0,-9.899241E-1,-1.1981901E-1,6.9246596E-1,3.8684566E0,1.4150543E0,9.814299E-2,1.6809683E0,-1.8197384E0,-2.3294185E-1,-1.4486825E0,1.6605407E0,5.323858E-1,-2.1562073E0,1.5446856E0,-1.339239E0,-2.4972293E0,-3.456731E0,-1.0487558E0,1.7490612E0,-2.9746914E-2,4.9470406E0,8.722839E-1,5.115408E-1,2.2918446E0,-1.4845927E-1,3.399596E0,2.6345296E0,9.173264E-1,4.550543E-1,2.3658652E0,1.0599983E0,9.410231E-3,-2.51672E-1,1.670568E0,1.0423543E0,-7.2353494E-1,5.5056787E-1,-2.3618896E-1,-6.176267E-1,1.0654071E-1,-1.3945928E-1,8.554073E-2,1.0267675E0,-7.7920735E-2,1.2869617E0,6.8959117E-1,3.0750033E-1,-2.16967E-1,2.0254776E-1,1.7477105E0,3.9246508E-1,-7.1867204E-1,8.837394E-2,-3.2798576E-1,-5.507695E-1,-1.3602617E-1,-4.9992767E-1,2.347427E-1,-3.756994E-1,-7.3135E-1,6.909269E-1,-2.2194572E-1,-1.7216599E-1,-6.521614E-1,-8.108097E-1,-2.2667085E-1,-6.443612E-1,-1.0922352E0,5.220543E-1,-5.890538E-1],"categories":[],"categories_nodes":[],"categories_segments":[],"categories_sizes":[],"default_left":[0,0,0,0,0,0,0,0,0,0,0,0,0,0,0,0,0,0,0,0,0,0,0,0,0,0,0,0,0,0,0,0,0,0,0,0,0,0,0,0,0,0,0,0,0,0,0,0,0,0,0,0,0,0,0,0,0,0,0,0,0,0,0,0,0,0,0,0,0,0,0,0,0,0,0,0,0,0,0,0,0,0,0,0,0,0,0,0,0,0,0,0,0,0,0,0,0,0,0,0,0,0,0,0,0,0,0,0,0,0,0,0,0],"id":0,"left_children":[1,3,5,7,9,11,13,15,17,19,21,23,25,27,29,31,33,35,37,39,-1,41,43,45,47,49,51,53,55,57,59,61,63,65,-1,67,69,71,73,75,77,79,81,-1,83,85,87,-1,89,91,93,95,97,-1,99,101,103,105,107,109,111,-1,-1,-1,-1,-1,-1,-1,-1,-1,-1,-1,-1,-1,-1,-1,-1,-1,-1,-1,-1,-1,-1,-1,-1,-1,-1,-1,-1,-1,-1,-1,-1,-1,-1,-1,-1,-1,-1,-1,-1,-1,-1,-1,-1,-1,-1,-1,-1,-1,-1,-1,-1],"loss_changes":[5.8133457E3,1.4537104E3,2.237014E3,4.8756348E2,3.8927142E2,2.364023E3,3.8739502E2,1.8794421E2,9.066533E2,1.6470215E2,4.4437805E1,5.304298E2,2.187536E2,3.1331097E2,1.0699341E2,7.612671E1,4.1000427E1,1.8371143E2,1.21005035E2,9.919757E1,0E0,3.518891E1,1.7157028E1,3.9019214E2,6.1613007E1,2.2982277E2,9.637048E1,4.8480324E1,1.1003229E2,1.1446533E2,4.246045E1,1.1272825E2,3.4242834E2,1.079364E1,0E0,1.4627393E2,3.2245044E2,4.1524048E1,9.024657E1,1.9686435E2,1.4585742E2,1.5819483E1,6.7182236E0,0E0,5.5173254E-1,1.3086888E2,1.1781763E2,0E0,6.1644505E1,2.3368892E2,5.356714E1,3.708391E1,1.3906091E2,0E0,4.8045464E1,2.3675293E1,1.7297068E1,7.6684525E1,1.1533508E2,1.8679077E1,2.8928856E1,0E0,0E0,0E0,0E0,0E0,0E0,0E0,0E0,0E0,0E0,0E0,0E0,0E0,0E0,0E0,0E0,0E0,0E0,0E0,0E0,0E0,0E0,0E0,0E0,0E0,0E0,0E0,0E0,0E0,0E0,0E0,0E0,0E0,0E0,0E0,0E0,0E0,0E0,0E0,0E0,0E0,0E0,0E0,0E0,0E0,0E0,0E0,0E0,0E0,0E0,0E0,0E0],"parents":[2147483647,0,0,1,1,2,2,3,3,4,4,5,5,6,6,7,7,8,8,9,9,10,10,11,11,12,12,13,13,14,14,15,15,16,16,17,17,18,18,19,19,21,21,22,22,23,23,24,24,25,25,26,26,27,27,28,28,29,29,30,30,31,31,32,32,33,33,35,35,36,36,37,37,38,38,39,39,40,40,41,41,42,42,44,44,45,45,46,46,48,48,49,49,50,50,51,51,52,52,54,54,55,55,56,56,57,57,58,58,59,59,60,60],"right_children":[2,4,6,8,10,12,14,16,18,20,22,24,26,28,30,32,34,36,38,40,-1,42,44,46,48,50,52,54,56,58,60,62,64,66,-1,68,70,72,74,76,78,80,82,-1,84,86,88,-1,90,92,94,96,98,-1,100,102,104,106,108,110,112,-1,-1,-1,-1,-1,-1,-1,-1,-1,-1,-1,-1,-1,-1,-1,-1,-1,-1,-1,-1,-1,-1,-1,-1,-1,-1,-1,-1,-1,-1,-1,-1,-1,-1,-1,-1,-1,-1,-1,-1,-1,-1,-1,-1,-1,-1,-1,-1,-1,-1,-1,-1],"split_conditions":[1.6878332E0,1.3708391E1,1.4578888E1,1.3076353E2,2.6788287E2,1.0214915E1,1.9381862E2,9E-1,2.5615924E2,1.6420001E0,2.0545246E1,2.4470491E2,1.2342E1,1.0606583E1,2.5501621E1,-1.7163334E0,1.2831227E2,1.3916252E2,-3.0371668E0,1.1993142E2,2.8880546E0,7.565834E-1,3.0999997E0,5.3792522E1,6.8399997E0,1.2535548E1,9.255571E0,2.032191E0,2.1771166E1,6.8795E0,1.4099999E1,2.5312836E1,-1.40175E0,-3.0371668E0,1.0354071E-1,7.5685663E0,1.1753876E1,-4.195501E0,9.504272E0,9.000001E-1,7.8E0,1.6712881E1,1.9386593E1,-9.899241E-1,7.295E-1,3.48575E0,1.2783802E1,1.4150543E0,2.993649E2,7E-1,2.3046442E1,1.4683676E2,1.1000001E0,1.6605407E0,1.2250713E1,1.3400332E1,1.2610757E2,1.9852295E1,3.265369E2,3.5961673E0,4.1211667E0,1.7490612E0,-2.9746914E-2,4.9470406E0,8.722839E-1,5.115408E-1,2.2918446E0,-1.4845927E-1,3.399596E0,2.6345296E0,9.173264E-1,4.550543E-1,2.3658652E0,1.0599983E0,9.410231E-3,-2.51672E-1,1.670568E0,1.0423543E0,-7.2353494E-1,5.5056787E-1,-2.3618896E-1,-6.176267E-1,1.0654071E-1,-1.3945928E-1,8.554073E-2,1.0267675E0,-7.7920735E-2,1.2869617E0,6.8959117E-1,3.0750033E-1,-2.16967E-1,2.0254776E-1,1.7477105E0,3.9246508E-1,-7.1867204E-1,8.837394E-2,-3.2798576E-1,-5.507695E-1,-1.3602617E-1,-4.9992767E-1,2.347427E-1,-3.756994E-1,-7.3135E-1,6.909269E-1,-2.2194572E-1,-1.7216599E-1,-6.521614E-1,-8.108097E-1,-2.2667085E-1,-6.443612E-1,-1.0922352E0,5.220543E-1,-5.890538E-1],"split_indices":[0,2,2,3,3,0,3,1,3,0,2,3,0,0,2,0,3,3,0,3,0,0,1,3,2,2,2,3,0,0,1,3,0,0,0,2,2,0,2,1,1,2,2,0,0,0,2,0,3,1,3,3,1,0,3,0,3,2,3,0,0,0,0,0,0,0,0,0,0,0,0,0,0,0,0,0,0,0,0,0,0,0,0,0,0,0,0,0,0,0,0,0,0,0,0,0,0,0,0,0,0,0,0,0,0,0,0,0,0,0,0,0,0],"split_type":[0,0,0,0,0,0,0,0,0,0,0,0,0,0,0,0,0,0,0,0,0,0,0,0,0,0,0,0,0,0,0,0,0,0,0,0,0,0,0,0,0,0,0,0,0,0,0,0,0,0,0,0,0,0,0,0,0,0,0,0,0,0,0,0,0,0,0,0,0,0,0,0,0,0,0,0,0,0,0,0,0,0,0,0,0,0,0,0,0,0,0,0,0,0,0,0,0,0,0,0,0,0,0,0,0,0,0,0,0,0,0,0,0],"sum_hessian":[1.917E3,3.07E2,1.61E3,2E2,1.07E2,8.47E2,7.63E2,8.2E1,1.18E2,7.3E1,3.4E1,3.22E2,5.25E2,1.97E2,5.66E2,6.8E1,1.4E1,8.3E1,3.5E1,7.1E1,2E0,1.8E1,1.6E1,2.41E2,8.1E1,8.3E1,4.42E2,8.5E1,1.12E2,4.48E2,1.18E2,1.9E1,4.9E1,1.3E1,1E0,2.9E1,5.4E1,6E0,2.9E1,2.8E1,4.3E1,8E0,1E1,1.4E1,2E0,4.9E1,1.92E2,2E0,7.9E1,5.6E1,2.7E1,8E1,3.62E2,1E0,8.4E1,1.04E2,8E0,1.21E2,3.27E2,1.09E2,9E0,3E0,1.6E1,1E0,4.8E1,1E0,1.2E1,1E0,2.8E1,3.9E1,1.5E1,2E0,4E0,1.2E1,1.7E1,2.3E1,5E0,3.9E1,4E0,5E0,3E0,9E0,1E0,1E0,1E0,1.2E1,3.7E1,1.5E2,4.2E1,3.7E1,4.2E1,4.6E1,1E1,4E0,2.3E1,5E1,3E1,2.6E2,1.02E2,8E0,7.6E1,2.6E1,7.8E1,6E0,2E0,6.4E1,5.7E1,2.92E2,3.5E1,1.5E1,9.4E1,2E0,7E0],"tree_param":{"num_deleted":"0","num_feature":"4","num_nodes":"113","size_leaf_vector":"1"}},{"base_weights":[1.3944081E-2,2.8660402E0,-5.313443E-1,4.001537E0,7.262179E-1,4.544909E-1,-1.250053E0,2.1239429E0,4.6768165E0,2.010296E0,-1.0481982E0,1.8076651E0,-8.340716E-1,-4.3466783E-1,-1.6176965E0,2.8586314E0,-1.0746875E0,5.5380898E0,1.8673881E0,1.4445747E0,6.329698E0,-2.065971E0,-4.8908326E-1,2.323155E0,1.8160222E-1,7.7490914E-1,-9.394481E-1,5.259427E-1,-1.3663789E0,-1.7094136E0,-1.9461748E-1,1.5001951E0,5.7594404E0,6.405028E-1,-1.609158E0,2.4199855E0,6.109429E0,3.3060455E0,2.4506164E-1,2.0033865E0,-2.2285702E0,1.481384E0,9.595588E0,-3.0114976E-1,-2.840785E0,5.0436556E-1,-1.4519644E0,7.8105235E-1,3.3494549E0,1.0186663E0,-1.1319854E0,1.3876066E-1,8.7301856E-1,-1.0648915E0,-3.5371996E-2,3.2840255E-1,3.8430748E0,-1.5379766E0,4.640146E-2,-1.0786802E0,-1.9647868E0,-8.999458E-1,2.6413243E0,2.2750269E-1,2.5255976E0,2.4000278E-1,1.8238189E0,-8.197175E-1,-1.2148116E-1,6.2440183E-2,9.585198E-1,2.0516868E0,1.2436744E0,1.1224293E0,-7.89454E-2,4.4652668E-1,-3.4910375E-1,6.739482E-1,-7.662387E-1,-7.912443E-1,9.5070936E-2,-1.8031247E-1,7.1276194E-1,3.3860137E0,6.7833257E-1,1.8279791E-1,-4.2442045E-1,-8.91196E-1,-2.3131528E-1,5.5792E-1,-2.269339E-1,-2.573217E-1,-4.932272E-1,3.3927348E-3,1.242906E0,1.3470933E0,7.004118E-1,5.457796E-1,1.4078723E-1,1.0022941E0,-4.6246475E-1,1.831582E-1,-3.629815E-1,-3.960491E-1,-1.4658727E-1,6.74418E-1,-2.2435173E-1,1.7372447E-1,-6.321702E-1,-3.5689804E-1,1.4195966E0,-2.586859E-1,-5.26349E-1,-3.1372252E-1,3.4001666E-1,-3.979542E-2,-5.291143E-1,-5.4772085E-1,-8.361606E-1,-4.3650064E-1,6.908564E-1],"categories":[],"categories_nodes":[],"categories_segments":[],"categories_sizes":[],"default_left":[0,0,0,0,0,0,0,0,0,0,0,0,0,0,0,0,0,0,0,0,0,0,0,0,0,0,0,0,0,0,0,0,0,0,0,0,0,0,0,0,0,0,0,0,0,0,0,0,0,0,0,0,0,0,0,0,0,0,0,0,0,0,0,0,0,0,0,0,0,0,0,0,0,0,0,0,0,0,0,0,0,0,0,0,0,0,0,0,0,0,0,0,0,0,0,0,0,0,0,0,0,0,0,0,0,0,0,0,0,0,0,0,0,0,0,0,0,0,0,0,0],"id":1,"left_children":[1,3,5,7,9,11,13,15,17,19,21,23,25,27,29,31,33,35,37,39,41,43,45,47,49,51,53,55,57,59,61,63,65,-1,67,69,71,73,75,77,79,81,83,85,87,89,91,93,95,97,99,101,-1,103,105,107,109,111,113,115,117,119,-1,-1,-1,-1,-1,-1,-1,-1,-1,-1,-1,-1,-1,-1,-1,-1,-1,-1,-1,-1,-1,-1,-1,-1,-1,-1,-1,-1,-1,-1,-1,-1,-1,-1,-1,-1,-1,-1,-1,-1,-1,-1,-1,-1,-1,-1,-1,-1,-1,-1,-1,-1,-1,-1,-1,-1,-1,-1,-1],"loss_changes":[2.9844248E3,7.4546045E2,1.1420074E3,2.449148E2,2.4818399E2,1.1871895E3,2.7868347E2,1.3232202E2,3.4535205E2,1.4480165E2,2.516595E1,2.778667E2,5.990056E1,2.61167E2,8.346179E1,1.6868509E2,2.2305943E1,1.8474268E2,8.32128E1,1.2146268E2,9.662366E1,2.1023033E1,3.0386093E1,3.9621423E2,9.021724E1,2.947823E1,3.716089E1,9.3096344E1,3.595096E1,9.500708E1,2.6181433E2,1.578552E2,1.7351593E1,0E0,1.2419764E1,3.1907883E1,1.0632056E2,3.0510086E1,3.3260353E1,6.1136154E1,9.1628E0,8.878825E0,2.4093567E1,6.94539E0,6.6619873E-1,2.8748606E1,4.1645813E-1,2.63914E2,1.6432654E2,2.1137703E1,6.3773144E1,1.2191583E1,0E0,4.172119E1,6.838286E1,8.4867386E1,4.1418785E1,1.7798798E1,2.136671E1,1.13824936E2,4.3856323E1,7.0904564E1,0E0,0E0,0E0,0E0,0E0,0E0,0E0,0E0,0E0,0E0,0E0,0E0,0E0,0E0,0E0,0E0,0E0,0E0,0E0,0E0,0E0,0E0,0E0,0E0,0E0,0E0,0E0,0E0,0E0,0E0,0E0,0E0,0E0,0E0,0E0,0E0,0E0,0E0,0E0,0E0,0E0,0E0,0E0,0E0,0E0,0E0,0E0,0E0,0E0,0E0,0E0,0E0,0E0,0E0,0E0,0E0,0E0,0E0,0E0],"parents":[2147483647,0,0,1,1,2,2,3,3,4,4,5,5,6,6,7,7,8,8,9,9,10,10,11,11,12,12,13,13,14,14,15,15,16,16,17,17,18,18,19,19,20,20,21,21,22,22,23,23,24,24,25,25,26,26,27,27,28,28,29,29,30,30,31,31,32,32,34,34,35,35,36,36,37,37,38,38,39,39,40,40,41,41,42,42,43,43,44,44,45,45,46,46,47,47,48,48,49,49,50,50,51,51,53,53,54,54,55,55,56,56,57,57,58,58,59,59,60,60,61,61],"right_children":[2,4,6,8,10,12,14,16,18,20,22,24,26,28,30,32,34,36,38,40,42,44,46,48,50,52,54,56,58,60,62,64,66,-1,68,70,72,74,76,78,80,82,84,86,88,90,92,94,96,98,100,102,-1,104,106,108,110,112,114,116,118,120,-1,-1,-1,-1,-1,-1,-1,-1,-1,-1,-1,-1,-1,-1,-1,-1,-1,-1,-1,-1,-1,-1,-1,-1,-1,-1,-1,-1,-1,-1,-1,-1,-1,-1,-1,-1,-1,-1,-1,-1,-1,-1,-1,-1,-1,-1,-1,-1,-1,-1,-1,-1,-1,-1,-1,-1,-1,-1,-1],"split_conditions":[1.6878332E0,1.3708391E1,1.30447235E1,7.508517E1,2.4109288E2,1.2683666E1,1.9381862E2,5.6553204E1,2.5615924E2,1.3940834E0,3E-1,2.4470491E2,8.089993E0,1.1641999E1,1.3400002E1,1E-1,-3.0371668E0,-2.7163332E0,-4.0383336E-1,1.0399166E0,1.5484185E1,1.6712881E1,7.565834E-1,1.1993142E2,7.9274163E0,7.9932966E0,3.0999997E0,1.8545746E2,2.1771166E1,6.700334E0,3.48304E2,5.278474E1,-3.0371668E0,6.405028E-1,-9.5383334E-1,1.2963771E2,1.1753876E1,1.2E0,1.0483357E1,7.8E0,3E-1,1.2E0,1.8678415E1,9.419999E-1,1.3357497E0,2.0545246E1,2.758371E2,4E-1,1.4748811E2,1.0703569E1,6.8399997E0,1E-1,8.7301856E-1,2.0248251E1,4.1000004E0,1.6031415E2,1.8940831E0,1.3821166E1,1.4255272E1,1.9914217E1,2.5501621E1,1.7092E1,2.6413243E0,2.2750269E-1,2.5255976E0,2.4000278E-1,1.8238189E0,-8.197175E-1,-1.2148116E-1,6.2440183E-2,9.585198E-1,2.0516868E0,1.2436744E0,1.1224293E0,-7.89454E-2,4.4652668E-1,-3.4910375E-1,6.739482E-1,-7.662387E-1,-7.912443E-1,9.5070936E-2,-1.8031247E-1,7.1276194E-1,3.3860137E0,6.7833257E-1,1.8279791E-1,-4.2442045E-1,-8.91196E-1,-2.3131528E-1,5.5792E-1,-2.269339E-1,-2.573217E-1,-4.932272E-1,3.3927348E-3,1.242906E0,1.3470933E0,7.004118E-1,5.457796E-1,1.4078723E-1,1.0022941E0,-4.6246475E-1,1.831582E-1,-3.629815E-1,-3.960491E-1,-1.4658727E-1,6.74418E-1,-2.2435173E-1,1.7372447E-1,-6.321702E-1,-3.5689804E-1,1.4195966E0,-2.586859E-1,-5.26349E-1,-3.1372252E-1,3.4001666E-1,-3.979542E-2,-5.291143E-1,-5.4772085E-1,-8.361606E-1,-4.3650064E-1,6.908564E-1],"split_indices":[0,2,2,3,3,0,3,3,3,0,1,3,2,0,1,1,0,0,0,0,2,2,0,3,0,2,1,3,0,0,3,3,0,0,0,3,2,1,2,1,1,1,2,0,0,2,3,1,3,2,2,1,0,0,1,3,0,0,2,2,2,0,0,0,0,0,0,0,0,0,0,0,0,0,0,0,0,0,0,0,0,0,0,0,0,0,0,0,0,0,0,0,0,0,0,0,0,0,0,0,0,0,0,0,0,0,0,0,0,0,0,0,0,0,0,0,0,0,0,0,0],"split_type":[0,0,0,0,0,0,0,0,0,0,0,0,0,0,0,0,0,0,0,0,0,0,0,0,0,0,0,0,0,0,0,0,0,0,0,0,0,0,0,0,0,0,0,0,0,0,0,0,0,0,0,0,0,0,0,0,0,0,0,0,0,0,0,0,0,0,0,0,0,0,0,0,0,0,0,0,0,0,0,0,0,0,0,0,0,0,0,0,0,0,0,0,0,0,0,0,0,0,0,0,0,0,0,0,0,0,0,0,0,0,0,0,0,0,0,0,0,0,0,0,0],"sum_hessian":[1.917E3,3.07E2,1.61E3,2E2,1.07E2,6.79E2,9.31E2,5.4E1,1.46E2,6.2E1,4.5E1,3.31E2,3.48E2,2.9E2,6.41E2,4.4E1,1E1,1.11E2,3.5E1,5.6E1,6E0,1.5E1,3E1,2.51E2,8E1,2.1E1,3.27E2,1.43E2,1.47E2,6.02E2,3.9E1,3.1E1,1.3E1,1E0,9E0,1.8E1,9.3E1,1.8E1,1.7E1,4.9E1,7E0,3E0,3E0,5E0,1E1,1.5E1,1.5E1,1.01E2,1.5E2,4.9E1,3.1E1,1.7E1,4E0,2.87E2,4E1,1.36E2,7E0,1.31E2,1.6E1,1.75E2,4.27E2,3.7E1,2E0,2.9E1,2E0,1E0,1.2E1,4E0,5E0,5E0,1.3E1,6.6E1,2.7E1,1.6E1,2E0,9E0,8E0,4.7E1,2E0,6E0,1E0,1E0,2E0,2E0,1E0,3E0,2E0,9E0,1E0,7E0,8E0,5E0,1E1,8.3E1,1.8E1,6.9E1,8.1E1,1.9E1,3E1,2E0,2.9E1,1.3E1,4E0,1.98E2,8.9E1,9E0,3.1E1,1.24E2,1.2E1,1E0,6E0,3.3E1,9.8E1,8E0,8E0,7.4E1,1.01E2,3.68E2,5.9E1,3.2E1,5E0],"tree_param":{"num_deleted":"0","num_feature":"4","num_nodes":"121","size_leaf_vector":"1"}},{"base_weights":[1.9097298E-2,1.6100982E0,-4.7966897E-1,2.7783842E0,6.1953228E-2,-1.6230851E-4,-1.1174815E0,3.1000955E0,9.7651654E-1,1.0596852E0,-1.0309528E0,1.037574E0,-4.8979816E-1,-2.8161168E-1,-1.2625269E0,2.095588E0,4.251476E0,3.195094E0,1.5777883E-1,-1.537417E-1,1.952094E0,-1.1719661E0,1.7416778E0,-5.5057615E-2,1.4703608E0,8.1308365E-2,-7.005466E-1,7.0375764E-1,-9.6282226E-1,-1.3162624E0,4.4909155E-1,1.3890738E0,4.3673816E0,6.6935124E0,2.7584164E0,1.7397387E-1,4.103298E0,5.585612E-1,-1.6052413E0,2.793936E0,-7.7025956E-1,3.4650877E0,9.179332E-1,-6.239421E-1,-1.6289673E0,1.2843095E0,-4.1347063E-1,-1.2890184E0,3.1604826E-1,2.244594E0,2.5514985E-2,5.7621634E-1,-1.1302736E0,-9.444475E-1,-1.9872984E-1,-1.4712085E-1,2.0749712E0,-1.2423986E0,8.6993587E-1,-1.2214277E0,-2.1426384E0,-2.443146E0,2.2487798E0,5.222764E-1,-8.588946E-2,9.3885565E-1,1.7271217E0,-1.23890124E-1,2.1299365E0,1.2221395E0,1.8859777E-1,1.5530266E0,5.206956E-1,5.4757293E-2,7.7434E-1,-8.847083E-1,-5.8827408E-2,2.1749876E-1,1.8001512E0,-1.2188726E-1,-6.2530684E-1,7.433291E-1,1.8042299E0,-2.6052213E-1,9.9503416E-1,2.0407519E-1,-3.2805485E-1,-7.193508E-1,-4.2613813E-1,-5.7641125E-1,7.539601E-1,2.9497564E-1,-1.9721016E-1,1.454734E0,5.696965E-1,7.9780227E-1,-6.771918E-2,-1.034308E-1,4.8302996E-1,-6.234696E-1,-1.4415146E-1,-3.178453E-1,6.470955E-2,-1.06542535E-1,3.6024833E-1,2.3516683E-1,-6.670512E-1,1.3607916E0,-4.1567898E-1,-4.1755775E-1,2.3609866E-1,6.545941E-1,2.0677293E-2,-1.6248955E-1,-4.1945416E-1,-6.5900725E-1,-1.5826657E-1,-1.0580056E-1,-8.1983423E-1,3.906288E-1,1.7573428E0],"categories":[],"categories_nodes":[],"categories_segments":[],"categories_sizes":[],"default_left":[0,0,0,0,0,0,0,0,0,0,0,0,0,0,0,0,0,0,0,0,0,0,0,0,0,0,0,0,0,0,0,0,0,0,0,0,0,0,0,0,0,0,0,0,0,0,0,0,0,0,0,0,0,0,0,0,0,0,0,0,0,0,0,0,0,0,0,0,0,0,0,0,0,0,0,0,0,0,0,0,0,0,0,0,0,0,0,0,0,0,0,0,0,0,0,0,0,0,0,0,0,0,0,0,0,0,0,0,0,0,0,0,0,0,0,0,0,0,0,0,0],"id":2,"left_children":[1,3,5,7,9,11,13,15,17,19,21,23,25,27,29,31,33,35,37,39,41,43,45,47,49,51,53,55,57,59,61,63,65,67,69,-1,71,73,75,77,79,81,83,85,87,-1,-1,89,91,93,95,97,99,101,103,105,107,109,111,113,115,117,119,-1,-1,-1,-1,-1,-1,-1,-1,-1,-1,-1,-1,-1,-1,-1,-1,-1,-1,-1,-1,-1,-1,-1,-1,-1,-1,-1,-1,-1,-1,-1,-1,-1,-1,-1,-1,-1,-1,-1,-1,-1,-1,-1,-1,-1,-1,-1,-1,-1,-1,-1,-1,-1,-1,-1,-1,-1,-1],"loss_changes":[1.5227775E3,8.2820154E2,4.4682523E2,1.4826941E2,2.1699709E2,4.2478244E2,7.566144E1,2.4669287E2,7.396964E1,1.1291888E2,3.9184036E1,1.2681186E2,6.842134E1,6.377453E1,4.9705505E1,1.8653992E2,3.534391E2,2.374675E1,2.2800837E1,8.3930374E1,9.069998E1,2.1774353E1,4.5513084E1,3.566801E1,2.1472305E2,9.2993E1,5.0605637E1,4.5807983E1,2.9774975E1,3.797815E1,9.398124E1,5.531964E1,3.0150024E1,1.1264526E2,1.7953284E2,0E0,1.1347488E1,1.9303486E1,1.0783299E1,4.8723244E1,1.7328163E1,4.54993E1,1.6143114E2,2.7077713E1,4.4493866E0,0E0,0E0,4.8106934E1,3.9614346E1,1.03308716E2,4.5598415E1,1.0529622E2,2.6719315E1,3.7463745E1,3.0416788E1,5.0071327E1,1.3403192E2,1.5957779E1,8.257311E0,5.535553E1,3.380661E0,3.274559E0,2.9955276E1,0E0,0E0,0E0,0E0,0E0,0E0,0E0,0E0,0E0,0E0,0E0,0E0,0E0,0E0,0E0,0E0,0E0,0E0,0E0,0E0,0E0,0E0,0E0,0E0,0E0,0E0,0E0,0E0,0E0,0E0,0E0,0E0,0E0,0E0,0E0,0E0,0E0,0E0,0E0,0E0,0E0,0E0,0E0,0E0,0E0,0E0,0E0,0E0,0E0,0E0,0E0,0E0,0E0,0E0,0E0,0E0,0E0,0E0],"parents":[2147483647,0,0,1,1,2,2,3,3,4,4,5,5,6,6,7,7,8,8,9,9,10,10,11,11,12,12,13,13,14,14,15,15,16,16,17,17,18,18,19,19,20,20,21,21,22,22,23,23,24,24,25,25,26,26,27,27,28,28,29,29,30,30,31,31,32,32,33,33,34,34,36,36,37,37,38,38,39,39,40,40,41,41,42,42,43,43,44,44,47,47,48,48,49,49,50,50,51,51,52,52,53,53,54,54,55,55,56,56,57,57,58,58,59,59,60,60,61,61,62,62],"right_children":[2,4,6,8,10,12,14,16,18,20,22,24,26,28,30,32,34,36,38,40,42,44,46,48,50,52,54,56,58,60,62,64,66,68,70,-1,72,74,76,78,80,82,84,86,88,-1,-1,90,92,94,96,98,100,102,104,106,108,110,112,114,116,118,120,-1,-1,-1,-1,-1,-1,-1,-1,-1,-1,-1,-1,-1,-1,-1,-1,-1,-1,-1,-1,-1,-1,-1,-1,-1,-1,-1,-1,-1,-1,-1,-1,-1,-1,-1,-1,-1,-1,-1,-1,-1,-1,-1,-1,-1,-1,-1,-1,-1,-1,-1,-1,-1,-1,-1,-1,-1,-1],"split_conditions":[3.48575E0,1.3708391E1,1.5072783E1,2.7365552E2,2.4615816E2,1.0214915E1,1.1698267E2,1.3310205E2,-1.7163334E0,1.2558447E2,3.3086672E0,1.2501066E2,1.4144082E1,1.0860749E1,3.4304736E2,4E-1,1.4748811E2,3.039655E2,3.558761E2,-2.0350835E0,1.6031415E2,2.0545246E1,3.3544998E0,9.387651E0,2.4470491E2,2.2453485E2,2.016075E1,7.5795E0,7.8662506E1,2.8385262E1,1E-1,1.2144331E1,2.2999997E0,7.5685663E0,1.1043261E1,1.7397387E-1,3.376454E2,3.508377E2,3.5837415E2,1E-1,1.8E1,1.835647E1,2.3147182E2,7.565834E-1,2.1749481E1,1.2843095E0,-4.1347063E-1,8.12325E0,7.9274163E0,8.427383E0,7.7879906E0,1.1895997E2,2E-1,6.3000007E0,3.1592023E2,6.6315837E0,5.6553204E1,2.1771166E1,9.446513E1,6.700334E0,1.2537833E1,7.825333E0,1.4700001E1,5.222764E-1,-8.588946E-2,9.3885565E-1,1.7271217E0,-1.23890124E-1,2.1299365E0,1.2221395E0,1.8859777E-1,1.5530266E0,5.206956E-1,5.4757293E-2,7.7434E-1,-8.847083E-1,-5.8827408E-2,2.1749876E-1,1.8001512E0,-1.2188726E-1,-6.2530684E-1,7.433291E-1,1.8042299E0,-2.6052213E-1,9.9503416E-1,2.0407519E-1,-3.2805485E-1,-7.193508E-1,-4.2613813E-1,-5.7641125E-1,7.539601E-1,2.9497564E-1,-1.9721016E-1,1.454734E0,5.696965E-1,7.9780227E-1,-6.771918E-2,-1.034308E-1,4.8302996E-1,-6.234696E-1,-1.4415146E-1,-3.178453E-1,6.470955E-2,-1.06542535E-1,3.6024833E-1,2.3516683E-1,-6.670512E-1,1.3607916E0,-4.1567898E-1,-4.1755775E-1,2.3609866E-1,6.545941E-1,2.0677293E-2,-1.6248955E-1,-4.1945416E-1,-6.5900725E-1,-1.5826657E-1,-1.0580056E-1,-8.1983423E-1,3.906288E-1,1.7573428E0],"split_indices":[0,2,2,3,3,0,3,3,0,3,0,3,0,0,3,1,3,3,3,0,3,2,0,2,3,3,0,0,3,2,1,2,1,2,2,0,3,3,3,1,2,2,3,0,2,0,0,0,0,2,2,3,1,1,3,0,3,0,3,0,0,0,1,0,0,0,0,0,0,0,0,0,0,0,0,0,0,0,0,0,0,0,0,0,0,0,0,0,0,0,0,0,0,0,0,0,0,0,0,0,0,0,0,0,0,0,0,0,0,0,0,0,0,0,0,0,0,0,0,0,0],"split_type":[0,0,0,0,0,0,0,0,0,0,0,0,0,0,0,0,0,0,0,0,0,0,0,0,0,0,0,0,0,0,0,0,0,0,0,0,0,0,0,0,0,0,0,0,0,0,0,0,0,0,0,0,0,0,0,0,0,0,0,0,0,0,0,0,0,0,0,0,0,0,0,0,0,0,0,0,0,0,0,0,0,0,0,0,0,0,0,0,0,0,0,0,0,0,0,0,0,0,0,0,0,0,0,0,0,0,0,0,0,0,0,0,0,0,0,0,0,0,0,0,0],"sum_hessian":[1.917E3,4.57E2,1.46E3,2.6E2,1.97E2,8.34E2,6.26E2,2.2E2,4E1,1.03E2,9.4E1,2.67E2,5.67E2,9.3E1,5.33E2,1.19E2,1.01E2,1E1,3E1,4.4E1,5.9E1,9E1,4E0,7.6E1,1.91E2,1.53E2,4.14E2,3.8E1,5.5E1,5.17E2,1.6E1,9.2E1,2.7E1,3.7E1,6.4E1,3E0,7E0,2.5E1,5E0,7E0,3.7E1,2.3E1,3.6E1,4.2E1,4.8E1,2E0,2E0,1.7E1,5.9E1,1.24E2,6.7E1,1.09E2,4.4E1,2.78E2,1.36E2,2.4E1,1.4E1,4.8E1,7E0,4.66E2,5.1E1,6E0,1E1,7.6E1,1.6E1,1.6E1,1.1E1,2E0,3.5E1,3.9E1,2.5E1,4E0,3E0,2.2E1,3E0,2E0,3E0,5E0,2E0,3E1,7E0,1.8E1,5E0,2.1E1,1.5E1,1.1E1,3.1E1,8E0,4E1,1.5E1,2E0,3.5E1,2.4E1,1.3E1,1.11E2,5E0,6.2E1,5.8E1,5.1E1,1.7E1,2.7E1,2.53E2,2.5E1,1.23E2,1.3E1,1.7E1,7E0,8E0,6E0,4.5E1,3E0,2E0,5E0,9.7E1,3.69E2,4.9E1,2E0,1E0,5E0,9E0,1E0],"tree_param":{"num_deleted":"0","num_feature":"4","num_nodes":"121","size_leaf_vector":"1"}},{"base_weights":[2.1855503E-2,1.2876006E0,-3.010107E-1,1.7542287E0,-7.287335E-1,2.0147495E-1,-6.659089E-1,2.077698E0,3.3407333E-1,-1.1659361E0,8.0576575E-1,1.0201914E0,-2.8741652E-1,-3.4740418E-1,-9.2973423E-1,9.174305E-1,3.0043647E0,2.6408436E0,-2.0421654E-2,-1.511521E0,-6.493033E-1,2.2071729E0,-6.851708E-1,7.7045697E-1,2.4208891E0,-5.0293154E-1,3.7277848E-1,3.449563E-1,-7.725086E-1,-9.871718E-1,2.2113833E0,4.7595975E-1,3.4603508E0,3.1968212E0,-1.9228605E0,2.0715368E-1,1.217888E0,9.1224116E-1,-2.6491123E-1,-8.222822E-2,-1.8148613E0,-3.1324023E-1,-7.005973E-1,-1.7870873E-1,3.7078896E0,6.719717E-1,-4.4272122E-1,1.8602045E0,5.287445E-1,1.7800944E0,7.102225E0,-4.0194567E-2,-9.275819E-1,3.5336437E0,-1.7691504E-2,-3.2178435E0,5.3650355E-1,-9.3230104E-1,-3.033718E-1,-7.369016E-1,-1.2406962E0,8.4844455E-2,1.930854E0,4.3395582E-1,-1.3432774E-1,1.4230387E0,2.8490916E-1,5.634456E-1,1.265127E0,-4.9404148E-2,-6.724682E-1,1.9156266E-2,7.009063E-2,9.626074E-2,-2.899552E-1,-4.766202E-1,2.5143626E-1,-7.7053696E-1,-3.7605163E-1,1.0057478E-1,-3.8615918E-1,1.4467841E0,-2.7985972E-1,2.8250843E-1,-2.0579625E-2,6.980586E-1,-2.8160062E-1,-5.556102E-1,2.5755855E-1,1.036169E0,4.7414724E-4,3.8074803E0,3.025698E-1,-6.8040097E-1,1.1394576E-2,-2.2364314E-1,-4.204514E-1,2.0097215E0,-4.8140505E-1,-5.967671E-2,3.213164E-1,-1.0326351E0,-2.4718957E-1,7.4178986E-2,4.365023E-1,-9.5413454E-2,-3.5240656E-1,-1.6484955E-1,1.8974479E-1,-3.7941498E-1,-5.6925137E-2,-3.9455318E-1,1.18670724E-1,7.8255534E-1,-2.3115622E-1],"categories":[],"categories_nodes":[],"categories_segments":[],"categories_sizes":[],"default_left":[0,0,0,0,0,0,0,0,0,0,0,0,0,0,0,0,0,0,0,0,0,0,0,0,0,0,0,0,0,0,0,0,0,0,0,0,0,0,0,0,0,0,0,0,0,0,0,0,0,0,0,0,0,0,0,0,0,0,0,0,0,0,0,0,0,0,0,0,0,0,0,0,0,0,0,0,0,0,0,0,0,0,0,0,0,0,0,0,0,0,0,0,0,0,0,0,0,0,0,0,0,0,0,0,0,0,0,0,0,0,0,0,0,0,0],"id":3,"left_children":[1,3,5,7,9,11,13,15,17,19,21,23,25,27,29,31,33,35,37,39,41,43,45,47,49,51,53,55,57,59,61,63,65,67,69,71,-1,-1,73,75,77,79,-1,-1,81,83,-1,85,87,89,91,93,95,97,99,101,103,105,107,109,111,113,-1,-1,-1,-1,-1,-1,-1,-1,-1,-1,-1,-1,-1,-1,-1,-1,-1,-1,-1,-1,-1,-1,-1,-1,-1,-1,-1,-1,-1,-1,-1,-1,-1,-1,-1,-1,-1,-1,-1,-1,-1,-1,-1,-1,-1,-1,-1,-1,-1,-1,-1,-1,-1],"loss_changes":[7.842096E2,3.6822095E2,2.8048563E2,1.449284E2,5.0585117E1,2.5806293E2,7.412723E1,2.7464038E2,4.911824E1,9.373917E0,3.703224E1,8.2437225E1,5.7669384E1,1.18879684E2,8.950552E1,1.2857751E2,1.4175049E2,2.6782063E1,4.0472744E1,1.4591881E1,1.3433716E1,4.0065582E1,1.0647857E1,5.327797E1,9.534932E1,5.9895645E1,1.234848E2,1.06822815E2,1.8458282E1,2.928775E1,8.031167E1,9.030012E1,5.025978E1,1.777445E2,2.9928493E0,2.60666E-4,0E0,0E0,2.0859478E1,1.1037128E1,8.625404E0,1.4326752E1,0E0,0E0,3.5537827E1,8.6359465E-1,0E0,5.0510376E1,1.3506427E2,9.823161E1,1.23438675E2,2.5687994E1,1.2677475E1,1.896649E2,1.797135E1,1.4588852E0,3.869348E1,2.7319565E1,1.5319569E1,6.9648315E1,2.9159851E1,1.712055E1,0E0,0E0,0E0,0E0,0E0,0E0,0E0,0E0,0E0,0E0,0E0,0E0,0E0,0E0,0E0,0E0,0E0,0E0,0E0,0E0,0E0,0E0,0E0,0E0,0E0,0E0,0E0,0E0,0E0,0E0,0E0,0E0,0E0,0E0,0E0,0E0,0E0,0E0,0E0,0E0,0E0,0E0,0E0,0E0,0E0,0E0,0E0,0E0,0E0,0E0,0E0,0E0,0E0],"parents":[2147483647,0,0,1,1,2,2,3,3,4,4,5,5,6,6,7,7,8,8,9,9,10,10,11,11,12,12,13,13,14,14,15,15,16,16,17,17,18,18,19,19,20,20,21,21,22,22,23,23,24,24,25,25,26,26,27,27,28,28,29,29,30,30,31,31,32,32,33,33,34,34,35,35,38,38,39,39,40,40,41,41,44,44,45,45,47,47,48,48,49,49,50,50,51,51,52,52,53,53,54,54,55,55,56,56,57,57,58,58,59,59,60,60,61,61],"right_children":[2,4,6,8,10,12,14,16,18,20,22,24,26,28,30,32,34,36,38,40,42,44,46,48,50,52,54,56,58,60,62,64,66,68,70,72,-1,-1,74,76,78,80,-1,-1,82,84,-1,86,88,90,92,94,96,98,100,102,104,106,108,110,112,114,-1,-1,-1,-1,-1,-1,-1,-1,-1,-1,-1,-1,-1,-1,-1,-1,-1,-1,-1,-1,-1,-1,-1,-1,-1,-1,-1,-1,-1,-1,-1,-1,-1,-1,-1,-1,-1,-1,-1,-1,-1,-1,-1,-1,-1,-1,-1,-1,-1,-1,-1,-1,-1],"split_conditions":[2.8170002E0,1.905281E1,1.3004922E1,2.6937338E2,4.6E0,1.0860749E1,2.3596678E2,1.1781032E2,-3.0371668E0,2.426998E1,2.4109288E2,1.2440851E1,7E-1,9.300334E0,1.75E1,1.6E0,5.9000006E0,-4.195501E0,7.386582E0,1.9523155E1,3.0911821E1,2.0192118E1,1.3357497E0,8.427383E0,4E0,1.0041354E1,1.2342E1,2.969083E0,1.865658E1,1.909358E1,3.346951E2,1.0587917E1,3.8000002E0,-3.2466668E-1,-1.40175E0,-5.5538335E0,1.217888E0,9.1224116E-1,7.565834E-1,-1.0267497E0,2E-1,2.7832556E2,-7.005973E-1,-1.7870873E-1,1.9857501E0,2.8177737E2,-4.4272122E-1,8E-1,9.360001E0,1.5186105E2,5.5607505E0,1.14419985E1,1.9381862E2,3.5999997E0,2.0783669E1,1.8678415E1,4.2999997E0,6.1294132E1,3.3999999E0,1.2000002E0,3.3173608E2,7.292E0,1.930854E0,4.3395582E-1,-1.3432774E-1,1.4230387E0,2.8490916E-1,5.634456E-1,1.265127E0,-4.9404148E-2,-6.724682E-1,1.9156266E-2,7.009063E-2,9.626074E-2,-2.899552E-1,-4.766202E-1,2.5143626E-1,-7.7053696E-1,-3.7605163E-1,1.0057478E-1,-3.8615918E-1,1.4467841E0,-2.7985972E-1,2.8250843E-1,-2.0579625E-2,6.980586E-1,-2.8160062E-1,-5.556102E-1,2.5755855E-1,1.036169E0,4.7414724E-4,3.8074803E0,3.025698E-1,-6.8040097E-1,1.1394576E-2,-2.2364314E-1,-4.204514E-1,2.0097215E0,-4.8140505E-1,-5.967671E-2,3.213164E-1,-1.0326351E0,-2.4718957E-1,7.4178986E-2,4.365023E-1,-9.5413454E-2,-3.5240656E-1,-1.6484955E-1,1.8974479E-1,-3.7941498E-1,-5.6925137E-2,-3.9455318E-1,1.18670724E-1,7.8255534E-1,-2.3115622E-1],"split_indices":[0,2,2,3,1,0,3,3,0,2,3,2,1,0,1,1,1,0,2,2,2,2,0,2,1,2,0,0,0,2,3,2,1,0,0,0,0,0,0,0,1,3,0,0,0,3,0,1,2,3,0,0,3,1,0,2,1,3,1,1,3,0,0,0,0,0,0,0,0,0,0,0,0,0,0,0,0,0,0,0,0,0,0,0,0,0,0,0,0,0,0,0,0,0,0,0,0,0,0,0,0,0,0,0,0,0,0,0,0,0,0,0,0,0,0],"split_type":[0,0,0,0,0,0,0,0,0,0,0,0,0,0,0,0,0,0,0,0,0,0,0,0,0,0,0,0,0,0,0,0,0,0,0,0,0,0,0,0,0,0,0,0,0,0,0,0,0,0,0,0,0,0,0,0,0,0,0,0,0,0,0,0,0,0,0,0,0,0,0,0,0,0,0,0,0,0,0,0,0,0,0,0,0,0,0,0,0,0,0,0,0,0,0,0,0,0,0,0,0,0,0,0,0,0,0,0,0,0,0,0,0,0,0],"sum_hessian":[1.917E3,3.89E2,1.528E3,3.16E2,7.3E1,6.43E2,8.85E2,2.57E2,5.9E1,5.7E1,1.6E1,2.4E2,4.03E2,4.02E2,4.83E2,1.15E2,1.42E2,7E0,5.2E1,3.3E1,2.4E1,8E0,8E0,2.05E2,3.5E1,3.04E2,9.9E1,1.53E2,2.49E2,4.75E2,8E0,9.9E1,1.6E1,1.37E2,5E0,3E0,4E0,3E0,4.9E1,6E0,2.7E1,2.1E1,3E0,3E0,5E0,3E0,5E0,3.6E1,1.69E2,3.2E1,3E0,1.46E2,1.58E2,1E1,8.9E1,7E0,1.46E2,1.85E2,6.4E1,2.41E2,2.34E2,6E0,2E0,4.8E1,5.1E1,1E1,6E0,6.1E1,7.6E1,1E0,4E0,1E0,2E0,2.7E1,2.2E1,2E0,4E0,1E1,1.7E1,1.3E1,8E0,4E0,1E0,2E0,1E0,3.1E1,5E0,2E1,1.49E2,1.6E1,1.6E1,1E0,2E0,4E0,1.42E2,1.16E2,4.2E1,6E0,4E0,7.7E1,1.2E1,6E0,1E0,1.12E2,3.4E1,5.3E1,1.32E2,5.1E1,1.3E1,1.22E2,1.19E2,2.24E2,1E1,1E0,5E0],"tree_param":{"num_deleted":"0","num_feature":"4","num_nodes":"115","size_leaf_vector":"1"}},{"base_weights":[2.0465348E-2,1.1814102E0,-1.6392411E-1,2.0370522E0,6.854396E-1,2.0729724E-1,-4.3394348E-1,1.2297474E0,3.5410056E0,1.1134953E0,-2.6436985E-1,7.978434E-1,-2.168963E-1,-8.206755E-2,-5.9950155E-1,6.4383024E-1,4.3293166E0,6.2045174E0,2.283667E0,-2.7952888E-3,2.0857935E0,1.7574201E0,-5.598626E-1,-1.8090457E0,8.967013E-1,-1.200185E-1,-1.2761728E0,5.773493E-1,-4.2598933E-1,-7.845501E-1,-2.8889212E-1,1.451882E-1,2.0937686E0,2.5938587E0,1.0365248E-2,1.09469385E1,2.6082027E0,-4.5539248E-1,2.8990433E0,1.4366953E0,-2.7397534E-1,2.6656797E0,3.939956E-1,4.505539E-2,2.3702774E0,-1.0870703E0,-5.2436944E-2,-2.1923952E0,3.036677E-1,6.739243E-1,2.119254E0,-2.6517817E-1,8.2591987E-1,-1.7862265E0,1.2657905E-1,3.1208476E-1,4.946411E0,-1.6113719E0,-3.4307852E-1,-1.5916238E0,-6.80115E-1,-4.991104E-1,6.827667E-1,-3.9336285E-1,4.5863596E-1,1.0370135E0,3.60876E-1,-1.9527344E-1,4.975123E-1,6.834426E-1,3.9231472E0,-3.848621E-1,1.0411584E0,1.0682158E0,1.9541988E-1,4.7173312E-1,-2.3850013E-1,4.0655273E-1,1.2904729E0,-1.0954213E-2,1.0923226E0,8.282392E-1,1.21229626E-1,-4.7341484E-1,1.7011362E-1,1.7704493E-1,-2.0729704E-1,7.247286E-2,-7.4690354E-1,3.043552E-1,4.0237643E-2,-1.6198537E-1,9.4981253E-1,-2.3879164E-1,-4.1106462E-2,1.5811111E0,9.74618E-2,-5.949393E-1,9.563482E-2,-4.0573126E-1,2.860946E-1,1.5965733E-1,-4.6114984E-1,1.9193474E0,-3.4659806E-1,-1.6946568E-1,-6.584446E-1,1.1689077E-1,-1.6378541E-1,-2.1158038E-1,-6.122514E-1,2.4636234E-1,-2.3101497E-1,-7.580596E-2,-4.2132878E-1,7.435E-2,1.0188117E0],"categories":[],"categories_nodes":[],"categories_segments":[],"categories_sizes":[],"default_left":[0,0,0,0,0,0,0,0,0,0,0,0,0,0,0,0,0,0,0,0,0,0,0,0,0,0,0,0,0,0,0,0,0,0,0,0,0,0,0,0,0,0,0,0,0,0,0,0,0,0,0,0,0,0,0,0,0,0,0,0,0,0,0,0,0,0,0,0,0,0,0,0,0,0,0,0,0,0,0,0,0,0,0,0,0,0,0,0,0,0,0,0,0,0,0,0,0,0,0,0,0,0,0,0,0,0,0,0,0,0,0,0,0,0,0,0,0],"id":4,"left_children":[1,3,5,7,9,11,13,15,17,19,21,23,25,27,29,31,33,35,37,39,41,43,45,47,49,51,53,55,57,59,61,63,65,-1,67,69,71,-1,73,-1,75,77,79,-1,81,83,85,87,-1,89,91,93,95,97,99,101,103,105,107,109,111,113,115,-1,-1,-1,-1,-1,-1,-1,-1,-1,-1,-1,-1,-1,-1,-1,-1,-1,-1,-1,-1,-1,-1,-1,-1,-1,-1,-1,-1,-1,-1,-1,-1,-1,-1,-1,-1,-1,-1,-1,-1,-1,-1,-1,-1,-1,-1,-1,-1,-1,-1,-1,-1,-1,-1],"loss_changes":[4.1077222E2,1.1021393E2,1.6608235E2,1.12203766E2,6.859836E1,1.7502614E2,5.581819E1,1.13442474E2,9.6345795E1,1.2590845E2,3.26474E1,7.687396E1,4.161332E1,7.00966E1,3.7248886E1,3.946102E1,1.8635425E2,1.4200058E2,6.0547234E1,7.278099E1,5.977484E1,6.5390644E0,1.2516379E1,1.4116066E1,7.537636E1,5.1573746E1,2.4552383E1,1.2130577E2,1.9398216E1,3.330655E1,5.0384586E1,8.663747E1,1.2840313E1,0E0,7.6181946E0,4.4074097E1,2.7939854E1,0E0,2.8912018E1,0E0,5.2237713E1,9.278766E1,2.3897236E1,0E0,2.723524E0,1.9573957E1,1.0665932E1,7.8372345E0,0E0,4.3988342E1,1.2140527E2,2.1998985E1,1.09631775E2,1.0994331E1,1.3522245E1,4.192828E1,6.0528427E1,6.697529E0,2.8604465E1,1.687619E1,4.9645096E1,4.4709736E1,5.108242E1,0E0,0E0,0E0,0E0,0E0,0E0,0E0,0E0,0E0,0E0,0E0,0E0,0E0,0E0,0E0,0E0,0E0,0E0,0E0,0E0,0E0,0E0,0E0,0E0,0E0,0E0,0E0,0E0,0E0,0E0,0E0,0E0,0E0,0E0,0E0,0E0,0E0,0E0,0E0,0E0,0E0,0E0,0E0,0E0,0E0,0E0,0E0,0E0,0E0,0E0,0E0,0E0,0E0,0E0],"parents":[2147483647,0,0,1,1,2,2,3,3,4,4,5,5,6,6,7,7,8,8,9,9,10,10,11,11,12,12,13,13,14,14,15,15,16,16,17,17,18,18,19,19,20,20,21,21,22,22,23,23,24,24,25,25,26,26,27,27,28,28,29,29,30,30,31,31,32,32,34,34,35,35,36,36,38,38,40,40,41,41,42,42,44,44,45,45,46,46,47,47,49,49,50,50,51,51,52,52,53,53,54,54,55,55,56,56,57,57,58,58,59,59,60,60,61,61,62,62],"right_children":[2,4,6,8,10,12,14,16,18,20,22,24,26,28,30,32,34,36,38,40,42,44,46,48,50,52,54,56,58,60,62,64,66,-1,68,70,72,-1,74,-1,76,78,80,-1,82,84,86,88,-1,90,92,94,96,98,100,102,104,106,108,110,112,114,116,-1,-1,-1,-1,-1,-1,-1,-1,-1,-1,-1,-1,-1,-1,-1,-1,-1,-1,-1,-1,-1,-1,-1,-1,-1,-1,-1,-1,-1,-1,-1,-1,-1,-1,-1,-1,-1,-1,-1,-1,-1,-1,-1,-1,-1,-1,-1,-1,-1,-1,-1,-1,-1,-1],"split_conditions":[1.1128333E0,1.0337079E1,1.30447235E1,9.387651E0,2.4109288E2,1.0860749E1,1.9900952E2,5E-1,9.446513E1,1.1993142E2,-2.8517497E0,1.7227545E1,1.2535548E1,8.01075E0,3.4999998E0,-1.7498136E-3,2.1319292E2,-1.2913334E0,1.3166605E2,2.032191E0,1.57908325E1,-4.195501E0,3E-1,8.729501E0,1.2440851E1,2.3999999E0,2.0248251E1,7.292E0,1.3363711E1,2.2745406E2,1.7285751E1,1.349999E2,6.989936E0,2.5938587E0,-1.7498136E-3,-3.4600832E0,3.32417E1,-4.5539248E-1,1E-1,1.4366953E0,-2.8517497E0,1.3089354E1,3.219938E1,4.505539E-2,-3.0371668E0,-1.1008334E-1,3.6908343E-1,7.2359104E0,3.036677E-1,1.0799999E1,1.3310205E2,6.1294132E1,2.6000001E0,1.4700001E1,1.2599998E1,6.6315837E0,1.964558E1,9.446513E1,1.4178927E1,3E-1,2.3454836E2,1.3821166E1,3.1287888E2,-3.9336285E-1,4.5863596E-1,1.0370135E0,3.60876E-1,-1.9527344E-1,4.975123E-1,6.834426E-1,3.9231472E0,-3.848621E-1,1.0411584E0,1.0682158E0,1.9541988E-1,4.7173312E-1,-2.3850013E-1,4.0655273E-1,1.2904729E0,-1.0954213E-2,1.0923226E0,8.282392E-1,1.21229626E-1,-4.7341484E-1,1.7011362E-1,1.7704493E-1,-2.0729704E-1,7.247286E-2,-7.4690354E-1,3.043552E-1,4.0237643E-2,-1.6198537E-1,9.4981253E-1,-2.3879164E-1,-4.1106462E-2,1.5811111E0,9.74618E-2,-5.949393E-1,9.563482E-2,-4.0573126E-1,2.860946E-1,1.5965733E-1,-4.6114984E-1,1.9193474E0,-3.4659806E-1,-1.6946568E-1,-6.584446E-1,1.1689077E-1,-1.6378541E-1,-2.1158038E-1,-6.122514E-1,2.4636234E-1,-2.3101497E-1,-7.580596E-2,-4.2132878E-1,7.435E-2,1.0188117E0],"split_indices":[0,2,2,2,3,0,3,1,3,3,0,3,2,0,1,0,3,0,3,3,2,0,1,0,2,1,0,0,2,3,0,3,2,0,0,0,3,0,1,0,0,2,2,0,0,0,0,2,0,2,3,3,1,1,2,0,2,3,2,1,3,0,3,0,0,0,0,0,0,0,0,0,0,0,0,0,0,0,0,0,0,0,0,0,0,0,0,0,0,0,0,0,0,0,0,0,0,0,0,0,0,0,0,0,0,0,0,0,0,0,0,0,0,0,0,0,0],"split_type":[0,0,0,0,0,0,0,0,0,0,0,0,0,0,0,0,0,0,0,0,0,0,0,0,0,0,0,0,0,0,0,0,0,0,0,0,0,0,0,0,0,0,0,0,0,0,0,0,0,0,0,0,0,0,0,0,0,0,0,0,0,0,0,0,0,0,0,0,0,0,0,0,0,0,0,0,0,0,0,0,0,0,0,0,0,0,0,0,0,0,0,0,0,0,0,0,0,0,0,0,0,0,0,0,0,0,0,0,0,0,0,0,0,0,0,0,0],"sum_hessian":[1.917E3,2.62E2,1.655E3,9.5E1,1.67E2,6.97E2,9.58E2,6.3E1,3.2E1,1.15E2,5.2E1,2.91E2,4.06E2,3.07E2,6.51E2,5.4E1,9E0,9E0,2.3E1,5.4E1,6.1E1,6E0,4.6E1,1E1,2.81E2,3.73E2,3.3E1,1.05E2,2.02E2,4.07E2,2.44E2,4.1E1,1.3E1,4E0,5E0,3E0,6E0,3E0,2E1,2E0,5.2E1,4.5E1,1.6E1,2E0,4E0,2.2E1,2.4E1,9E0,1E0,2.39E2,4.2E1,3.24E2,4.9E1,2.4E1,9E0,1E2,5E0,1.2E1,1.9E2,4.5E1,3.62E2,2.01E2,4.3E1,2E1,2.1E1,4E0,9E0,4E0,1E0,1E0,2E0,1E0,5E0,1.5E1,5E0,1.1E1,4.1E1,2.6E1,1.9E1,1.5E1,1E0,3E0,1E0,1.7E1,5E0,1.2E1,1.2E1,1E0,8E0,1.46E2,9.3E1,1.2E1,3E1,6.2E1,2.62E2,4E0,4.5E1,2.2E1,2E0,3E0,6E0,9E1,1E1,4E0,1E0,5E0,7E0,4.1E1,1.49E2,1.6E1,2.9E1,2E1,3.42E2,1.59E2,4.2E1,3.8E1,5E0],"tree_param":{"num_deleted":"0","num_feature":"4","num_nodes":"117","size_leaf_vector":"1"}},{"base_weights":[2.3327313E-2,6.531043E-1,-1.741136E-1,1.0980875E0,6.323689E-2,2.5618938E-1,-3.0585605E-1,9.222221E-1,2.3278058E0,4.8717552E-1,-3.570947E-1,-8.387518E-1,4.819625E-1,1.1236123E-2,-4.425201E-1,9.810824E-1,-1.922708E0,2.802973E0,-7.986921E-1,2.2707891E-1,2.5473049E0,-4.811087E-1,1.6659759E0,1.2207639E0,-9.9353075E-1,9.1710335E-1,-7.442245E-2,-1.617207E-1,2.280826E0,-6.2486273E-1,-1.1154095E-1,8.625931E-1,2.7137344E0,-7.4314E-1,4.4248868E-2,1.2573684E0,4.7589984E0,2.2816172E-1,-4.1359043E-1,4.8195884E-1,-1.8346684E0,1.7683727E0,1.1485142E0,-3.2094207E-1,-9.9798244E-1,1.1525612E0,-3.8243914E-1,-1.1654748E0,7.641806E-1,3.5473943E-1,2.0144336E0,1.3539392E0,-2.650564E-1,-3.4445634E-1,5.0710523E-1,3.5099769E0,-1.2056793E0,-2.0331032E0,-5.9515107E-1,2.1725918E-1,-5.7543474E-1,3.5393924E-1,-5.04391E-2,1.6965429E0,1.3538077E-1,-1.12419546E-1,6.5450144E-1,1.7557538E0,-1.4171425E-1,-1.4391997E-2,4.100335E-1,-6.4621305E-1,-1.1143363E-1,1.6565003E0,-2.650155E-2,-1.3555868E-1,4.7283864E-1,-7.569833E-2,-3.1797945E-1,4.648664E-2,-2.9919344E-1,-6.405332E-1,-1.7024387E-1,1.8671119E-1,-3.9846703E-1,-5.1231E-1,7.545833E-1,1.4884333E-1,6.7901945E-1,-1.0795381E-1,4.408605E-1,8.3350676E-1,-1.260436E-1,1.2234334E0,4.768803E-2,3.380195E-1,2.1282346E0,-4.551686E-1,9.9542506E-2,-8.196079E-1,-9.051362E-2,6.0509168E-2,-1.9300793E-1,4.6320763E-1,-6.271323E-2,1.7718159E-1,-2.2238092E-1],"categories":[],"categories_nodes":[],"categories_segments":[],"categories_sizes":[],"default_left":[0,0,0,0,0,0,0,0,0,0,0,0,0,0,0,0,0,0,0,0,0,0,0,0,0,0,0,0,0,0,0,0,0,0,0,0,0,0,0,0,0,0,0,0,0,0,0,0,0,0,0,0,0,0,0,0,0,0,0,0,0,0,0,0,0,0,0,0,0,0,0,0,0,0,0,0,0,0,0,0,0,0,0,0,0,0,0,0,0,0,0,0,0,0,0,0,0,0,0,0,0,0,0,0,0,0,0],"id":5,"left_children":[1,3,5,7,9,11,13,15,17,19,21,23,25,27,29,31,33,35,37,39,41,43,45,-1,47,49,51,53,55,57,59,61,63,-1,-1,65,67,-1,-1,69,71,-1,73,75,77,-1,79,81,-1,83,85,87,89,91,93,95,97,99,101,103,105,-1,-1,-1,-1,-1,-1,-1,-1,-1,-1,-1,-1,-1,-1,-1,-1,-1,-1,-1,-1,-1,-1,-1,-1,-1,-1,-1,-1,-1,-1,-1,-1,-1,-1,-1,-1,-1,-1,-1,-1,-1,-1,-1,-1,-1,-1],"loss_changes":[2.3860501E2,1.2014694E2,8.290124E1,5.429843E1,3.545654E1,8.519669E1,4.8496956E1,4.0400604E1,4.9778214E1,5.2468994E1,2.5890419E1,4.8862213E1,6.906841E1,1.3304773E2,4.7125244E1,4.4057114E1,6.1042347E0,7.866696E1,5.569828E0,4.7653557E1,4.4733437E1,7.5443687E0,2.8212091E1,0E0,3.82803E1,9.802124E1,3.4667942E1,3.8673447E1,1.0708248E2,1.9877945E1,4.2680428E1,6.98387E1,9.0615685E1,0E0,0E0,2.646298E1,7.141165E1,0E0,0E0,3.757711E1,3.8730583E0,0E0,4.9168293E1,1.9091192E1,7.4878883E-1,0E0,1.476255E0,3.125927E1,0E0,4.902087E1,1.0496257E2,1.0578966E1,1.894399E1,5.9785194E1,8.3891266E1,1.4576067E2,3.856453E0,1.1276806E1,1.9145187E1,9.3081955E1,2.286874E1,0E0,0E0,0E0,0E0,0E0,0E0,0E0,0E0,0E0,0E0,0E0,0E0,0E0,0E0,0E0,0E0,0E0,0E0,0E0,0E0,0E0,0E0,0E0,0E0,0E0,0E0,0E0,0E0,0E0,0E0,0E0,0E0,0E0,0E0,0E0,0E0,0E0,0E0,0E0,0E0,0E0,0E0,0E0,0E0,0E0,0E0],"parents":[2147483647,0,0,1,1,2,2,3,3,4,4,5,5,6,6,7,7,8,8,9,9,10,10,11,11,12,12,13,13,14,14,15,15,16,16,17,17,18,18,19,19,20,20,21,21,22,22,24,24,25,25,26,26,27,27,28,28,29,29,30,30,31,31,32,32,35,35,36,36,39,39,40,40,42,42,43,43,44,44,46,46,47,47,49,49,50,50,51,51,52,52,53,53,54,54,55,55,56,56,57,57,58,58,59,59,60,60],"right_children":[2,4,6,8,10,12,14,16,18,20,22,24,26,28,30,32,34,36,38,40,42,44,46,-1,48,50,52,54,56,58,60,62,64,-1,-1,66,68,-1,-1,70,72,-1,74,76,78,-1,80,82,-1,84,86,88,90,92,94,96,98,100,102,104,106,-1,-1,-1,-1,-1,-1,-1,-1,-1,-1,-1,-1,-1,-1,-1,-1,-1,-1,-1,-1,-1,-1,-1,-1,-1,-1,-1,-1,-1,-1,-1,-1,-1,-1,-1,-1,-1,-1,-1,-1,-1,-1,-1,-1,-1,-1],"split_conditions":[3.48575E0,1.3708391E1,1.0703569E1,1.6E0,2.4109288E2,6.1294132E1,1.4090018E2,3.558761E2,6.6999993E0,2.3147182E2,3.3086672E0,5.991594E0,1.604825E1,1.3373593E2,3.4999998E0,3.121167E0,1.0495713E1,8.836667E-1,-1.7498136E-3,2.0323616E2,2.3454836E2,2.6149168E0,3.3544998E0,1.2207639E0,2.7000003E0,1.000256E1,8.089993E0,8E-1,1.2342E1,3.6795003E0,2.0730501E1,1.1128333E0,1.1204593E2,-7.4314E-1,4.4248868E-2,1.0661107E1,3.17325E0,2.2816172E-1,-4.1359043E-1,1.3373593E2,2.2453485E2,1.7683727E0,1E-1,2.5211666E0,2.428351E2,1.1525612E0,5E-1,1.1516998E1,7.641806E-1,8E-1,4.3524165E0,1.2963771E2,1.0483357E1,4.1211667E0,1.127553E1,6.750334E0,1.2599998E1,2.5766953E2,4.856583E0,8.729501E0,2.2336967E2,3.5393924E-1,-5.04391E-2,1.6965429E0,1.3538077E-1,-1.12419546E-1,6.5450144E-1,1.7557538E0,-1.4171425E-1,-1.4391997E-2,4.100335E-1,-6.4621305E-1,-1.1143363E-1,1.6565003E0,-2.650155E-2,-1.3555868E-1,4.7283864E-1,-7.569833E-2,-3.1797945E-1,4.648664E-2,-2.9919344E-1,-6.405332E-1,-1.7024387E-1,1.8671119E-1,-3.9846703E-1,-5.1231E-1,7.545833E-1,1.4884333E-1,6.7901945E-1,-1.0795381E-1,4.408605E-1,8.3350676E-1,-1.260436E-1,1.2234334E0,4.768803E-2,3.380195E-1,2.1282346E0,-4.551686E-1,9.9542506E-2,-8.196079E-1,-9.051362E-2,6.0509168E-2,-1.9300793E-1,4.6320763E-1,-6.271323E-2,1.7718159E-1,-2.2238092E-1],"split_indices":[0,2,2,1,3,3,3,3,1,3,0,2,0,3,1,0,2,0,0,3,3,0,0,0,1,2,2,1,0,0,2,0,3,0,0,2,0,0,0,3,3,0,1,0,3,0,1,0,0,1,0,3,2,0,2,0,2,3,0,0,3,0,0,0,0,0,0,0,0,0,0,0,0,0,0,0,0,0,0,0,0,0,0,0,0,0,0,0,0,0,0,0,0,0,0,0,0,0,0,0,0,0,0,0,0,0,0],"split_type":[0,0,0,0,0,0,0,0,0,0,0,0,0,0,0,0,0,0,0,0,0,0,0,0,0,0,0,0,0,0,0,0,0,0,0,0,0,0,0,0,0,0,0,0,0,0,0,0,0,0,0,0,0,0,0,0,0,0,0,0,0,0,0,0,0,0,0,0,0,0,0,0,0,0,0,0,0,0,0,0,0,0,0,0,0,0,0,0,0,0,0,0,0,0,0,0,0,0,0,0,0,0,0,0,0,0,0],"sum_hessian":[1.917E3,4.57E2,1.46E3,2.6E2,1.97E2,3.42E2,1.118E3,2.29E2,3.1E1,9.8E1,9.9E1,5.8E1,2.84E2,3.37E2,7.81E2,2.25E2,4E0,2.7E1,4E0,8.8E1,1E1,9.4E1,5E0,1E0,5.7E1,1.59E2,1.25E2,3.14E2,2.3E1,5.03E2,2.78E2,2.12E2,1.3E1,3E0,1E0,1.6E1,1.1E1,1E0,3E0,7.9E1,9E0,2E0,8E0,7.3E1,2.1E1,2E0,3E0,5.5E1,2E0,1.06E2,5.3E1,1.4E1,1.11E2,2.47E2,6.7E1,1.7E1,6E0,9E0,4.94E2,1.63E2,1.15E2,1.62E2,5E1,5E0,8E0,6E0,1E1,9E0,2E0,5E1,2.9E1,7E0,2E0,1E0,7E0,6.9E1,4E0,2E0,1.9E1,2E0,1E0,2E1,3.5E1,9.2E1,1.4E1,6E0,4.7E1,8E0,6E0,1.06E2,5E0,5E0,2.42E2,5E0,6.2E1,1.1E1,6E0,5E0,1E0,6E0,3E0,2.8E1,4.66E2,3.9E1,1.24E2,1.4E1,1.01E2],"tree_param":{"num_deleted":"0","num_feature":"4","num_nodes":"107","size_leaf_vector":"1"}},{"base_weights":[2.3135392E-2,3.443644E-1,-1.7939228E-1,5.6984955E-1,-3.2790357E-1,1.5715145E-1,-2.8659898E-1,6.307922E-1,-1.3994948E0,-6.2854695E-1,1.1946432E-1,4.056883E0,8.7201945E-2,-1.3493919E0,-2.2860949E-1,4.6105784E-1,1.4110107E0,7.8096056E-1,-1.9225181E0,-3.2303444E-1,-1.2149915E0,1.1783451E0,-6.774113E-1,6.744297E-1,1.8261126E0,-2.3078414E-2,1.084488E0,-1.6744207E0,1.0965366E0,6.9782954E-1,-2.7533647E-1,5.73559E-1,-1.4519036E0,1.9376429E0,-8.25217E-1,-1.0185543E-1,3.8028786E-1,-1.160188E0,-7.557322E-1,-4.548325E-1,2.1300895E0,8.574789E-2,-1.6826036E0,5.1792043E-1,1.4319417E0,9.6229315E-1,-9.3878645E-1,-1.0241947E-1,4.0591288E-1,-1.3255329E0,5.8421154E-2,3.124349E0,5.051986E-1,-2.8020065E0,-1.1675723E0,-4.0591502E-1,1.9492412E0,2.1960993E0,-1.3386316E0,-3.2667428E-1,4.4754106E-1,3.186244E-2,3.000195E-1,-7.5855935E-1,-2.2453856E-2,5.1405185E-1,1.3025105E0,2.2745935E-2,-4.4622278E-1,-1.6266046E-1,-6.028295E-1,-2.4893638E-1,-2.9252863E-2,-5.870249E-1,1.2433858E0,6.6323584E-1,-1.8963774E-1,-7.0711815E-1,-3.8849035E-1,7.0604414E-2,1.2644923E0,1.9921379E-1,-3.237324E-1,-1.5825376E-1,-5.015376E-1,4.5147842E-1,-3.5033096E-2,1.1543548E0,-7.397261E-2,-6.429208E-1,3.028777E-1,-9.1097707E-1,-3.323808E-2,-6.410644E-2,-3.918315E-1,-2.0915866E-2,-1.617459E-1,1.4690739E-1,6.817583E-1,2.617867E-1,1.1042637E0,-4.46753E-1,-2.685435E-2,-1.08766854E-1,1.3346885E-1,5.502672E-2,1.4629253E0],"categories":[],"categories_nodes":[],"categories_segments":[],"categories_sizes":[],"default_left":[0,0,0,0,0,0,0,0,0,0,0,0,0,0,0,0,0,0,0,0,0,0,0,0,0,0,0,0,0,0,0,0,0,0,0,0,0,0,0,0,0,0,0,0,0,0,0,0,0,0,0,0,0,0,0,0,0,0,0,0,0,0,0,0,0,0,0,0,0,0,0,0,0,0,0,0,0,0,0,0,0,0,0,0,0,0,0,0,0,0,0,0,0,0,0,0,0,0,0,0,0,0,0,0,0,0,0],"id":6,"left_children":[1,3,5,7,9,11,13,15,17,19,21,23,25,27,29,31,33,35,37,39,41,43,45,47,-1,49,51,53,55,57,59,61,63,65,67,-1,-1,69,-1,71,73,75,77,79,-1,-1,81,-1,-1,83,85,87,89,91,93,95,97,99,101,103,105,-1,-1,-1,-1,-1,-1,-1,-1,-1,-1,-1,-1,-1,-1,-1,-1,-1,-1,-1,-1,-1,-1,-1,-1,-1,-1,-1,-1,-1,-1,-1,-1,-1,-1,-1,-1,-1,-1,-1,-1,-1,-1,-1,-1,-1,-1],"loss_changes":[1.24842575E2,1.1266401E2,4.2510895E1,6.761223E1,2.522625E1,7.738974E1,5.4727814E1,7.086159E1,2.0888706E1,1.9674118E1,6.492674E1,3.022931E1,3.0929708E1,3.840593E1,3.6901794E1,9.6601364E1,1.1465526E2,2.6115751E0,3.4445267E0,2.521761E1,2.3257465E1,7.587289E1,4.7691383E1,2.529989E0,0E0,2.7039406E1,3.1508339E1,2.0160568E1,8.478109E0,1.2803766E2,3.0131844E1,8.381084E1,3.68752E1,3.4589874E1,1.1449303E1,0E0,0E0,3.1090517E0,0E0,9.565661E0,4.1042213E1,1.8178093E1,4.268097E0,2.9303886E1,0E0,0E0,1.0162884E1,0E0,0E0,3.2629337E0,6.0997814E1,1.5581966E1,3.2886322E1,7.239334E0,3.6852264E0,9.679249E-2,7.745733E-1,4.3949707E1,3.2515678E0,2.1063782E1,6.227199E1,0E0,0E0,0E0,0E0,0E0,0E0,0E0,0E0,0E0,0E0,0E0,0E0,0E0,0E0,0E0,0E0,0E0,0E0,0E0,0E0,0E0,0E0,0E0,0E0,0E0,0E0,0E0,0E0,0E0,0E0,0E0,0E0,0E0,0E0,0E0,0E0,0E0,0E0,0E0,0E0,0E0,0E0,0E0,0E0,0E0,0E0],"parents":[2147483647,0,0,1,1,2,2,3,3,4,4,5,5,6,6,7,7,8,8,9,9,10,10,11,11,12,12,13,13,14,14,15,15,16,16,17,17,18,18,19,19,20,20,21,21,22,22,23,23,25,25,26,26,27,27,28,28,29,29,30,30,31,31,32,32,33,33,34,34,37,37,39,39,40,40,41,41,42,42,43,43,46,46,49,49,50,50,51,51,52,52,53,53,54,54,55,55,56,56,57,57,58,58,59,59,60,60],"right_children":[2,4,6,8,10,12,14,16,18,20,22,24,26,28,30,32,34,36,38,40,42,44,46,48,-1,50,52,54,56,58,60,62,64,66,68,-1,-1,70,-1,72,74,76,78,80,-1,-1,82,-1,-1,84,86,88,90,92,94,96,98,100,102,104,106,-1,-1,-1,-1,-1,-1,-1,-1,-1,-1,-1,-1,-1,-1,-1,-1,-1,-1,-1,-1,-1,-1,-1,-1,-1,-1,-1,-1,-1,-1,-1,-1,-1,-1,-1,-1,-1,-1,-1,-1,-1,-1,-1,-1,-1,-1],"split_conditions":[6.750334E0,1.8947083E1,1.0703569E1,6.9E0,3.0999997E0,7.07325E0,7.292E0,1.2000002E0,-1.7498136E-3,4.3524165E0,2.5234702E2,9.387651E0,1.0390226E1,2.92249E2,8.12325E0,9.0000004E-1,2.7286234E2,7.8E0,9.800001E0,4.1211667E0,3E-1,5.919083E0,3.3999999E0,6.8795E0,1.8261126E0,8.283667E0,1.0446206E1,1.4039999E1,6.9336667E0,2.5113092E2,1.1800002E1,1.349999E2,2.4524367E2,1.8089775E1,4.1211667E0,-1.0185543E-1,3.8028786E-1,3.089917E0,-7.557322E-1,2.2530937E1,1E-1,6.521972E1,2.2745406E2,2.4800505E2,1.4319417E0,9.6229315E-1,1.3357497E0,-1.0241947E-1,4.0591288E-1,8.707238E0,1.07544985E1,1.848783E1,1.0483357E1,2.3454836E2,1.5141414E1,6.8795E0,7.1274166E0,7.685749E0,3.140531E2,2.3185753E1,3.48304E2,3.186244E-2,3.000195E-1,-7.5855935E-1,-2.2453856E-2,5.1405185E-1,1.3025105E0,2.2745935E-2,-4.4622278E-1,-1.6266046E-1,-6.028295E-1,-2.4893638E-1,-2.9252863E-2,-5.870249E-1,1.2433858E0,6.6323584E-1,-1.8963774E-1,-7.0711815E-1,-3.8849035E-1,7.0604414E-2,1.2644923E0,1.9921379E-1,-3.237324E-1,-1.5825376E-1,-5.015376E-1,4.5147842E-1,-3.5033096E-2,1.1543548E0,-7.397261E-2,-6.429208E-1,3.028777E-1,-9.1097707E-1,-3.323808E-2,-6.410644E-2,-3.918315E-1,-2.0915866E-2,-1.617459E-1,1.4690739E-1,6.817583E-1,2.617867E-1,1.1042637E0,-4.46753E-1,-2.685435E-2,-1.08766854E-1,1.3346885E-1,5.502672E-2,1.4629253E0],"split_indices":[0,2,2,1,1,0,0,1,0,0,3,2,2,3,0,1,3,1,1,0,1,0,1,0,0,0,2,2,0,3,1,3,3,2,0,0,0,0,0,2,1,3,3,3,0,0,0,0,0,2,0,0,2,3,2,0,0,0,3,0,3,0,0,0,0,0,0,0,0,0,0,0,0,0,0,0,0,0,0,0,0,0,0,0,0,0,0,0,0,0,0,0,0,0,0,0,0,0,0,0,0,0,0,0,0,0,0],"split_type":[0,0,0,0,0,0,0,0,0,0,0,0,0,0,0,0,0,0,0,0,0,0,0,0,0,0,0,0,0,0,0,0,0,0,0,0,0,0,0,0,0,0,0,0,0,0,0,0,0,0,0,0,0,0,0,0,0,0,0,0,0,0,0,0,0,0,0,0,0,0,0,0,0,0,0,0,0,0,0,0,0,0,0,0,0,0,0,0,0,0,0,0,0,0,0,0,0,0,0,0,0,0,0,0,0,0,0],"sum_hessian":[1.917E3,7.41E2,1.176E3,5.55E2,1.86E2,2.84E2,8.92E2,5.39E2,1.6E1,1.11E2,7.5E1,4E0,2.8E2,4.5E1,8.47E2,4.44E2,9.5E1,3E0,1.3E1,7.4E1,3.7E1,3.2E1,4.3E1,2E0,2E0,2.53E2,2.7E1,4E1,5E0,4E1,8.07E2,4.2E2,2.4E1,7.7E1,1.8E1,1E0,2E0,7E0,6E0,7.1E1,3E0,1E1,2.7E1,2.8E1,4E0,2E0,4.1E1,1E0,1E0,1.4E1,2.39E2,5E0,2.2E1,1.1E1,2.9E1,2E0,3E0,2.3E1,1.7E1,7.54E2,5.3E1,2.01E2,2.19E2,1.3E1,1.1E1,7.2E1,5E0,8E0,1E1,5E0,2E0,3.4E1,3.7E1,1E0,2E0,2E0,8E0,8E0,1.9E1,2.7E1,1E0,3E0,3.8E1,5E0,9E0,2.5E1,2.14E2,4E0,1E0,3E0,1.9E1,1E1,1E0,4E0,2.5E1,1E0,1E0,1E0,2E0,1.3E1,1E1,1.5E1,2E0,7.21E2,3.3E1,5.1E1,2E0],"tree_param":{"num_deleted":"0","num_feature":"4","num_nodes":"107","size_leaf_vector":"1"}},{"base_weights":[2.0037238E-2,1.868973E-1,-2.1947896E-1,3.8009056E-1,-1.8549515E-1,6.8667626E-1,-2.3519646E-1,8.619278E-2,6.2001634E-1,5.271696E-1,-2.7378237E-1,1.086116E0,-2.588841E-1,1.7008854E-1,-1.7205157E0,1.5648416E0,2.4190554E-1,3.1935874E-1,2.473486E0,-3.2805148E-1,6.7462695E-1,2.9663777E-1,3.88199E0,-2.9878354E-1,5.8868027E-1,7.6802716E-2,4.356979E0,-2.4977114E0,6.662512E-1,9.5174193E-1,3.3111057E0,-4.9149144E-1,3.9059103E-1,4.650374E-1,-4.8970714E-1,5.8273677E-2,9.5054525E-1,-3.309671E-2,-5.9693944E-1,4.297468E0,-2.732475E-1,-9.384903E-1,8.126238E-1,1.4274443E0,3.1945118E-1,-2.2058535E0,-2.8274363E-1,2.6970932E-1,1.1703403E0,8.697598E-1,6.631315E-3,1.7629644E0,7.721525E-1,-3.099032E-1,-9.101732E-1,1.655974E-1,5.984233E-1,-3.2528508E-1,1.1518924E0,9.81304E-2,-1.0270535E0,5.722137E-1,9.128611E-2,4.669977E-1,3.661491E-2,-6.414108E-2,3.8719764E-1,-2.3533525E-1,-7.109081E-2,1.7343587E0,5.627482E-1,-1.7954196E-1,2.5561434E-1,-4.0816146E-1,4.9148012E-2,-2.7625608E-1,3.4332454E-1,-1.9560587E-1,-1.0627043E0,9.525495E-2,-9.703715E-2,5.2316576E-1,-3.6742147E-2],"categories":[],"categories_nodes":[],"categories_segments":[],"categories_sizes":[],"default_left":[0,0,0,0,0,0,0,0,0,0,0,0,0,0,0,0,0,0,0,0,0,0,0,0,0,0,0,0,0,0,0,0,0,0,0,0,0,0,0,0,0,0,0,0,0,0,0,0,0,0,0,0,0,0,0,0,0,0,0,0,0,0,0,0,0,0,0,0,0,0,0,0,0,0,0,0,0,0,0,0,0,0,0],"id":7,"left_children":[1,3,5,7,9,-1,11,13,15,17,19,21,23,25,27,29,31,33,35,37,39,41,43,45,47,49,51,53,-1,55,57,59,61,63,-1,-1,-1,65,67,69,71,73,75,-1,-1,77,79,81,-1,-1,-1,-1,-1,-1,-1,-1,-1,-1,-1,-1,-1,-1,-1,-1,-1,-1,-1,-1,-1,-1,-1,-1,-1,-1,-1,-1,-1,-1,-1,-1,-1,-1,-1],"loss_changes":[7.669521E1,8.143884E1,3.1605854E1,5.247924E1,2.4494057E1,0E0,2.4819427E1,5.12219E1,1.4609338E2,1.6602093E1,1.7978228E1,2.9750395E1,2.624905E1,1.2543133E2,5.1495045E1,1.22112854E2,3.225135E1,1.2132041E1,5.720808E0,2.5914547E1,6.642024E1,8.410346E0,2.3381577E0,2.1920555E1,3.5928013E1,4.872012E1,3.8419037E0,7.0757675E0,0E0,3.5589714E1,7.385681E1,1.2112635E2,3.1491302E1,1.4037695E1,0E0,0E0,0E0,3.7832184E1,1.1356346E1,3.5276947E0,6.3655257E0,2.0838146E0,6.230215E0,0E0,0E0,1.0150461E1,1.7991837E1,1.9292435E1,0E0,0E0,0E0,0E0,0E0,0E0,0E0,0E0,0E0,0E0,0E0,0E0,0E0,0E0,0E0,0E0,0E0,0E0,0E0,0E0,0E0,0E0,0E0,0E0,0E0,0E0,0E0,0E0,0E0,0E0,0E0,0E0,0E0,0E0,0E0],"parents":[2147483647,0,0,1,1,2,2,3,3,4,4,6,6,7,7,8,8,9,9,10,10,11,11,12,12,13,13,14,14,15,15,16,16,17,17,18,18,19,19,20,20,21,21,22,22,23,23,24,24,25,25,26,26,27,27,29,29,30,30,31,31,32,32,33,33,37,37,38,38,39,39,40,40,41,41,42,42,45,45,46,46,47,47],"right_children":[2,4,6,8,10,-1,12,14,16,18,20,22,24,26,28,30,32,34,36,38,40,42,44,46,48,50,52,54,-1,56,58,60,62,64,-1,-1,-1,66,68,70,72,74,76,-1,-1,78,80,82,-1,-1,-1,-1,-1,-1,-1,-1,-1,-1,-1,-1,-1,-1,-1,-1,-1,-1,-1,-1,-1,-1,-1,-1,-1,-1,-1,-1,-1,-1,-1,-1,-1,-1,-1],"split_conditions":[2.3596678E2,1.3583667E1,6.8399997E0,1.2558447E2,8.942214E0,6.8667626E-1,-2.2767498E0,1.2221649E2,1.3916252E2,8.891343E0,2.2805875E2,-2.7163332E0,1.3400002E1,1.1993142E2,1.07544985E1,1.3555086E2,1.4953455E2,1.1000001E0,1.7092E1,1.0353924E2,1.191812E1,2.993649E2,1E-1,-1.2913334E0,3.48304E2,2.032191E0,3.6795003E0,9.504272E0,6.662512E-1,3E-1,7.5685663E0,1.4748811E2,-1.7163334E0,1.7285751E1,-4.8970714E-1,5.8273677E-2,9.5054525E-1,8.877742E1,1.4255272E1,1.5856582E1,2.3326913E2,1E-1,7.5685663E0,1.4274443E0,3.1945118E-1,-1.40175E0,7.565834E-1,1.43E1,1.1703403E0,8.697598E-1,6.631315E-3,1.7629644E0,7.721525E-1,-3.099032E-1,-9.101732E-1,1.655974E-1,5.984233E-1,-3.2528508E-1,1.1518924E0,9.81304E-2,-1.0270535E0,5.722137E-1,9.128611E-2,4.669977E-1,3.661491E-2,-6.414108E-2,3.8719764E-1,-2.3533525E-1,-7.109081E-2,1.7343587E0,5.627482E-1,-1.7954196E-1,2.5561434E-1,-4.0816146E-1,4.9148012E-2,-2.7625608E-1,3.4332454E-1,-1.9560587E-1,-1.0627043E0,9.525495E-2,-9.703715E-2,5.2316576E-1,-3.6742147E-2],"split_indices":[3,0,2,3,2,0,0,3,3,2,3,0,1,3,0,3,3,1,0,3,2,3,1,0,3,3,0,2,0,1,2,3,0,0,0,0,0,3,2,0,3,1,2,0,0,0,0,1,0,0,0,0,0,0,0,0,0,0,0,0,0,0,0,0,0,0,0,0,0,0,0,0,0,0,0,0,0,0,0,0,0,0,0],"split_type":[0,0,0,0,0,0,0,0,0,0,0,0,0,0,0,0,0,0,0,0,0,0,0,0,0,0,0,0,0,0,0,0,0,0,0,0,0,0,0,0,0,0,0,0,0,0,0,0,0,0,0,0,0,0,0,0,0,0,0,0,0,0,0,0,0,0,0,0,0,0,0,0,0,0,0,0,0,0,0,0,0,0,0],"sum_hessian":[1.917E3,1.13E3,7.87E2,7.44E2,3.86E2,4E0,7.83E2,3.35E2,4.09E2,4.2E1,3.44E2,1.3E1,7.7E2,3.21E2,1.4E1,1.16E2,2.93E2,3.9E1,3E0,3.26E2,1.8E1,1.1E1,2E0,7.36E2,3.4E1,3.15E2,6E0,1.2E1,2E0,8.7E1,2.9E1,4.9E1,2.44E2,3.7E1,2E0,1E0,2E0,1.56E2,1.7E2,3E0,1.5E1,3E0,8E0,1E0,1E0,5E0,7.31E2,3.2E1,2E0,5E0,3.1E2,2E0,4E0,4E0,8E0,6.4E1,2.3E1,3E0,2.6E1,3.9E1,1E1,1.2E1,2.32E2,8E0,2.9E1,1.38E2,1.8E1,1.11E2,5.9E1,1E0,2E0,1.2E1,3E0,2E0,1E0,1E0,7E0,3E0,2E0,4.6E1,6.85E2,6E0,2.6E1],"tree_param":{"num_deleted":"0","num_feature":"4","num_nodes":"83","size_leaf_vector":"1"}},{"base_weights":[1.930962E-2,1.7962146E-1,-1.2650564E-1,2.1474699E-2,4.9071065E-1,-8.0246896E-1,-8.273816E-2,6.49315E-2,-1.587769E0,1.2302392E0,1.797574E-1,8.386514E-1,-1.2214913E0,3.183131E-1,-1.6182835E-1,-2.4903473E-2,6.9411284E-1,-1.7181309E-1,-2.215766E0,7.5614005E-1,2.7745628E0,3.315974E-1,-9.5427626E-1,-1.9825119E0,3.5400074E0,-2.0723984E0,-6.135035E-1,1.3622811E0,8.9247875E-2,-2.3082514E0,-1.4521644E-1,-7.975005E-2,1.3475063E0,1.0368394E0,-6.1307347E-1,-2.9484112E0,1.9535887E0,-1.1233218E0,-1.1744754E0,1.1640449E0,-1.8484837E0,-8.009203E-1,3.6629658E0,2.505293E-1,2.816465E0,-1.8888218E0,1.3845541E0,-3.933288E0,4.6389222E-1,2.097671E0,7.606684E-1,-2.5872693E0,-1.1556376E0,8.289319E-1,-1.0086511E0,2.602855E0,-2.6937005E-1,1.032978E0,-1.826078E-1,-1.1972896E0,-1.1735154E0,-4.776128E-1,-6.333584E-2,8.216102E-3,-1.3663773E-1,7.8932124E-1,-1.5409075E-1,4.182487E-1,-1.0043311E-1,2.9064542E-1,-2.724778E-1,-1.8542698E-1,-1.1413581E0,5.2822497E-2,7.462205E-1,-8.6397655E-2,-5.9668815E-1,1.135424E-1,9.663697E-1,-1.0172645E0,3.9384997E-1,4.437627E-1,-5.2222645E-1,2.1307898E0,6.1747515E-1,4.3959656E-1,4.3309797E-2,-1.7319782E-1,1.0832065E0,-6.754997E-1,6.9635487E-1,1.1955075E0,-2.9182002E-1,-1.00975804E-1,-1.505998E0,4.9822643E-1,-1.4659406E-1,6.3584316E-1,-2.555089E-1,-8.583804E-1,-3.9718658E-1,2.0152646E-1,-6.5438795E-1,5.6684804E-1,8.042579E-3,-5.799012E-1,-1.2769862E-1,-1.8834269E-1,1.1196182E0,-6.3243437E-1,4.823568E-1,1.0923309E0,1.013718E-1,-8.288686E-2,8.909277E-1,-3.935049E-1,-9.31268E-2,-5.6679815E-1,-1.2831129E-1,-2.9446905E-2,2.4642682E-1],"categories":[],"categories_nodes":[],"categories_segments":[],"categories_sizes":[],"default_left":[0,0,0,0,0,0,0,0,0,0,0,0,0,0,0,0,0,0,0,0,0,0,0,0,0,0,0,0,0,0,0,0,0,0,0,0,0,0,0,0,0,0,0,0,0,0,0,0,0,0,0,0,0,0,0,0,0,0,0,0,0,0,0,0,0,0,0,0,0,0,0,0,0,0,0,0,0,0,0,0,0,0,0,0,0,0,0,0,0,0,0,0,0,0,0,0,0,0,0,0,0,0,0,0,0,0,0,0,0,0,0,0,0,0,0,0,0,0,0,0,0],"id":8,"left_children":[1,3,5,7,9,11,13,15,17,19,21,23,25,27,29,31,33,35,37,39,41,43,45,47,49,51,53,55,57,59,61,63,65,67,69,71,73,-1,75,77,79,81,83,85,87,89,91,93,95,-1,97,99,101,103,105,107,109,111,113,-1,115,117,119,-1,-1,-1,-1,-1,-1,-1,-1,-1,-1,-1,-1,-1,-1,-1,-1,-1,-1,-1,-1,-1,-1,-1,-1,-1,-1,-1,-1,-1,-1,-1,-1,-1,-1,-1,-1,-1,-1,-1,-1,-1,-1,-1,-1,-1,-1,-1,-1,-1,-1,-1,-1,-1,-1,-1,-1,-1,-1],"loss_changes":[4.485772E1,4.49562E1,2.966674E1,4.255217E1,7.060617E1,4.2972046E1,3.0026182E1,3.34786E1,1.3846764E1,6.452881E1,3.7854218E1,1.0609067E2,2.4078293E1,3.7183754E1,2.7833221E1,3.9173622E1,3.378821E1,4.11683E1,1.31116295E1,7.758485E1,6.96396E1,3.8172985E1,5.9444508E1,3.523133E1,6.1845634E1,6.4503174E0,1.7935352E1,5.737828E1,3.328466E1,6.773157E0,2.1334946E1,2.0138653E1,4.912933E1,2.9383213E1,8.351169E0,3.6335354E0,3.3574686E0,0E0,5.203413E0,9.89769E1,5.3211742E1,1.3289661E1,7.921568E1,2.4034138E1,1.825711E1,3.4250435E1,5.2916817E1,1.3944561E1,5.371755E0,0E0,1.2759625E1,3.6556244E-1,1.8333767E1,5.9042535E0,1.2110493E1,6.071235E1,4.8262154E1,5.134186E1,3.0647749E1,0E0,1.8908072E-1,1.011269E1,1.9520313E1,0E0,0E0,0E0,0E0,0E0,0E0,0E0,0E0,0E0,0E0,0E0,0E0,0E0,0E0,0E0,0E0,0E0,0E0,0E0,0E0,0E0,0E0,0E0,0E0,0E0,0E0,0E0,0E0,0E0,0E0,0E0,0E0,0E0,0E0,0E0,0E0,0E0,0E0,0E0,0E0,0E0,0E0,0E0,0E0,0E0,0E0,0E0,0E0,0E0,0E0,0E0,0E0,0E0,0E0,0E0,0E0,0E0,0E0],"parents":[2147483647,0,0,1,1,2,2,3,3,4,4,5,5,6,6,7,7,8,8,9,9,10,10,11,11,12,12,13,13,14,14,15,15,16,16,17,17,18,18,19,19,20,20,21,21,22,22,23,23,24,24,25,25,26,26,27,27,28,28,29,29,30,30,31,31,32,32,33,33,34,34,35,35,36,36,38,38,39,39,40,40,41,41,42,42,43,43,44,44,45,45,46,46,47,47,48,48,50,50,51,51,52,52,53,53,54,54,55,55,56,56,57,57,58,58,60,60,61,61,62,62],"right_children":[2,4,6,8,10,12,14,16,18,20,22,24,26,28,30,32,34,36,38,40,42,44,46,48,50,52,54,56,58,60,62,64,66,68,70,72,74,-1,76,78,80,82,84,86,88,90,92,94,96,-1,98,100,102,104,106,108,110,112,114,-1,116,118,120,-1,-1,-1,-1,-1,-1,-1,-1,-1,-1,-1,-1,-1,-1,-1,-1,-1,-1,-1,-1,-1,-1,-1,-1,-1,-1,-1,-1,-1,-1,-1,-1,-1,-1,-1,-1,-1,-1,-1,-1,-1,-1,-1,-1,-1,-1,-1,-1,-1,-1,-1,-1,-1,-1,-1,-1,-1,-1],"split_conditions":[1.9381862E2,1.2963771E2,2.1140897E2,1.2831227E2,1.3781963E2,2.2003334E0,1.1019764E1,1.8000001E0,5.4607506E0,4E-1,5.4999995E0,-3.2466668E-1,8.729501E0,2.3326913E2,1.1177405E1,1.2610757E2,1.7414474E1,4.3158337E-1,9.229499E0,1.3708391E1,-1.1705E0,4.2999997E0,1.7632411E2,2.0782677E2,6E-1,1.477755E1,1.0337079E1,1.0539918E1,1.6878332E0,2.2336967E2,2E-1,1.0353924E2,8.560751E0,8.6E0,1.6878332E0,-2.7163332E0,1.8940831E0,-1.1233218E0,1.9212835E1,1.2413476E1,1.5617529E1,1.0000001E0,2.6908335E-1,-9.5383334E-1,1.6737175E2,2.0404411E1,1.3551501E1,-3.4600832E0,-1.40175E0,2.097671E0,1.3357497E0,1.2000002E0,1.9000001E0,1.1731583E1,1.3684735E1,-1.2913334E0,3E-1,2.5615924E2,1.09859E1,-1.1972896E0,1.043575E1,1.1212135E1,3.4596368E2,8.216102E-3,-1.3663773E-1,7.8932124E-1,-1.5409075E-1,4.182487E-1,-1.0043311E-1,2.9064542E-1,-2.724778E-1,-1.8542698E-1,-1.1413581E0,5.2822497E-2,7.462205E-1,-8.6397655E-2,-5.9668815E-1,1.135424E-1,9.663697E-1,-1.0172645E0,3.9384997E-1,4.437627E-1,-5.2222645E-1,2.1307898E0,6.1747515E-1,4.3959656E-1,4.3309797E-2,-1.7319782E-1,1.0832065E0,-6.754997E-1,6.9635487E-1,1.1955075E0,-2.9182002E-1,-1.00975804E-1,-1.505998E0,4.9822643E-1,-1.4659406E-1,6.3584316E-1,-2.555089E-1,-8.583804E-1,-3.9718658E-1,2.0152646E-1,-6.5438795E-1,5.6684804E-1,8.042579E-3,-5.799012E-1,-1.2769862E-1,-1.8834269E-1,1.1196182E0,-6.3243437E-1,4.823568E-1,1.0923309E0,1.013718E-1,-8.288686E-2,8.909277E-1,-3.935049E-1,-9.31268E-2,-5.6679815E-1,-1.2831129E-1,-2.9446905E-2,2.4642682E-1],"split_indices":[3,3,3,3,3,0,2,1,0,1,1,0,0,3,2,3,2,0,0,2,0,1,3,3,1,2,2,0,0,3,1,3,0,1,0,0,0,0,0,2,2,1,0,0,3,2,2,0,0,0,0,1,1,0,2,0,1,3,2,0,0,2,3,0,0,0,0,0,0,0,0,0,0,0,0,0,0,0,0,0,0,0,0,0,0,0,0,0,0,0,0,0,0,0,0,0,0,0,0,0,0,0,0,0,0,0,0,0,0,0,0,0,0,0,0,0,0,0,0,0,0],"split_type":[0,0,0,0,0,0,0,0,0,0,0,0,0,0,0,0,0,0,0,0,0,0,0,0,0,0,0,0,0,0,0,0,0,0,0,0,0,0,0,0,0,0,0,0,0,0,0,0,0,0,0,0,0,0,0,0,0,0,0,0,0,0,0,0,0,0,0,0,0,0,0,0,0,0,0,0,0,0,0,0,0,0,0,0,0,0,0,0,0,0,0,0,0,0,0,0,0,0,0,0,0,0,0,0,0,0,0,0,0,0,0,0,0,0,0,0,0,0,0,0,0],"sum_hessian":[1.917E3,9.13E2,1.004E3,6.06E2,3.07E2,6E1,9.44E2,5.91E2,1.5E1,9E1,2.17E2,1.2E1,4.8E1,1.55E2,7.89E2,5.18E2,7.3E1,5E0,1E1,7E1,2E1,1.92E2,2.5E1,6E0,6E0,1.9E1,2.9E1,2.7E1,1.28E2,5E0,7.84E2,4.99E2,1.9E1,5.8E1,1.5E1,2E0,3E0,3E0,7E0,6.1E1,9E0,4E0,1.6E1,1.87E2,5E0,1.8E1,7E0,3E0,3E0,2E0,4E0,1.1E1,8E0,6E0,2.3E1,1.5E1,1.2E1,2.8E1,1E2,1E0,4E0,1.54E2,6.3E2,3.89E2,1.1E2,1.1E1,8E0,4.6E1,1.2E1,2E0,1.3E1,1E0,1E0,1E0,2E0,4E0,3E0,4.5E1,1.6E1,6E0,3E0,1E0,3E0,4E0,1.2E1,1.4E1,1.73E2,1E0,4E0,1.7E1,1E0,3E0,4E0,1E0,2E0,1E0,2E0,2E0,2E0,8E0,3E0,3E0,5E0,2E0,4E0,8E0,1.5E1,4E0,1.1E1,6E0,6E0,5E0,2.3E1,9.8E1,2E0,3E0,1E0,4E0,1.5E2,6.07E2,2.3E1],"tree_param":{"num_deleted":"0","num_feature":"4","num_nodes":"121","size_leaf_vector":"1"}},{"base_weights":[1.5578699E-2,1.04718514E-1,-1.2553032E-1,-6.9951105E-1,1.3733552E-1,1.2269421E0,-1.4565538E-1,9.9936664E-1,-1.5537863E0,1.7168044E-1,-6.245597E-1,5.05471E-1,5.644904E-1,-2.0962678E-1,3.13714E-1,2.4213262E0,-3.7563813E-1,-8.6088866E-1,-2.1495724E0,1.1112436E-1,6.522078E-1,-1.2848407E0,-3.8966257E-2,-4.609869E-1,1.2920377E0,-2.3147988E-1,1.0689635E0,2.0034561E-2,1.2205398E0,1.1822829E0,7.213674E-1,-7.5539154E-1,2.8790152E-1,3.5747442E-1,-1.4471878E0,-2.6100366E0,-6.145437E-1,3.880226E-1,1.6616443E-2,1.4786534E0,1.6074984E-1,-1.7908342E0,-4.4796577E-1,8.3679503E-1,-5.0872314E-1,4.574465E-1,5.413535E-2,7.7954966E-1,-2.5556692E-1,9.740225E-1,-1.5354592E-1,1.452909E0,-1.14610456E-1,2.985667E0,-4.9920523E-1,6.784092E-1,-6.869182E-2,-3.5721695E-1,2.3054313E-2,-2.9478408E-2,1.3481288E-1,-4.9316642E-1,5.307383E-1,-5.6323075E-1,9.778569E-2,-8.620766E-1,-2.5845525E-1,-7.185547E-2,-3.1719685E-1,4.070482E-2,4.9207744E-1,-6.9298697E-1,9.858883E-3,1.0293821E0,1.9938958E-1,-1.0821691E-2,1.1285317E0,-1.5156999E-1,-5.5525875E-1,5.711637E-1,-5.183646E-1,2.1229163E-1,-2.3621325E-1,5.4155648E-2,7.145265E-1,-6.48111E-1,-7.19073E-2,-1.6373134E-1,3.8880458E-1,5.129576E-1,1.8780199E-1,-3.008328E-1,2.659383E-2,1.3196394E0,3.2247743E-1,-4.218128E-1,1.0481968E-1],"categories":[],"categories_nodes":[],"categories_segments":[],"categories_sizes":[],"default_left":[0,0,0,0,0,0,0,0,0,0,0,0,0,0,0,0,0,0,0,0,0,0,0,0,0,0,0,0,0,0,0,0,0,0,0,0,0,0,0,0,0,0,0,0,0,0,0,0,0,0,0,0,0,0,0,0,0,0,0,0,0,0,0,0,0,0,0,0,0,0,0,0,0,0,0,0,0,0,0,0,0,0,0,0,0,0,0,0,0,0,0,0,0,0,0,0,0],"id":9,"left_children":[1,3,5,7,9,11,13,15,17,19,21,-1,23,25,27,29,31,33,35,37,39,41,43,-1,45,47,49,51,53,-1,55,57,59,61,63,65,67,69,71,73,75,77,79,-1,81,-1,-1,83,85,-1,87,89,91,93,95,-1,-1,-1,-1,-1,-1,-1,-1,-1,-1,-1,-1,-1,-1,-1,-1,-1,-1,-1,-1,-1,-1,-1,-1,-1,-1,-1,-1,-1,-1,-1,-1,-1,-1,-1,-1,-1,-1,-1,-1,-1,-1],"loss_changes":[2.4138578E1,3.094439E1,2.0402115E1,6.831302E1,2.9702353E1,2.3860378E0,2.1606071E1,3.2192757E1,1.0946838E1,3.1441572E1,1.8896088E1,0E0,1.1157331E1,1.824155E1,2.3943993E1,1.7823421E1,2.4853115E0,1.1946533E1,9.705238E0,2.5194374E1,4.8908073E1,8.937195E0,3.7291336E1,0E0,1.0186405E0,1.5638847E1,2.9784418E1,1.3478647E1,6.827297E1,0E0,7.8353934E0,2.2653046E0,2.9357854E-1,1.9859627E1,9.003748E0,3.0542603E0,5.770191E-1,7.719473E1,2.7253155E1,6.924583E1,5.4710285E1,1.4529419E-1,3.3391323E1,0E0,8.691847E0,0E0,0E0,1.3966604E1,1.823132E1,0E0,5.255763E0,2.0444965E-1,1.1642524E1,2.4973053E1,9.725821E0,0E0,0E0,0E0,0E0,0E0,0E0,0E0,0E0,0E0,0E0,0E0,0E0,0E0,0E0,0E0,0E0,0E0,0E0,0E0,0E0,0E0,0E0,0E0,0E0,0E0,0E0,0E0,0E0,0E0,0E0,0E0,0E0,0E0,0E0,0E0,0E0,0E0,0E0,0E0,0E0,0E0,0E0],"parents":[2147483647,0,0,1,1,2,2,3,3,4,4,5,5,6,6,7,7,8,8,9,9,10,10,12,12,13,13,14,14,15,15,16,16,17,17,18,18,19,19,20,20,21,21,22,22,24,24,25,25,26,26,27,27,28,28,30,30,31,31,32,32,33,33,34,34,35,35,36,36,37,37,38,38,39,39,40,40,41,41,42,42,44,44,47,47,48,48,50,50,51,51,52,52,53,53,54,54],"right_children":[2,4,6,8,10,12,14,16,18,20,22,-1,24,26,28,30,32,34,36,38,40,42,44,-1,46,48,50,52,54,-1,56,58,60,62,64,66,68,70,72,74,76,78,80,-1,82,-1,-1,84,86,-1,88,90,92,94,96,-1,-1,-1,-1,-1,-1,-1,-1,-1,-1,-1,-1,-1,-1,-1,-1,-1,-1,-1,-1,-1,-1,-1,-1,-1,-1,-1,-1,-1,-1,-1,-1,-1,-1,-1,-1,-1,-1,-1,-1,-1,-1],"split_conditions":[2.4109288E2,9.6721945E0,7.386582E0,3.2826345E0,9.199999E0,6.700334E0,1.9817E1,9.229499E0,5.865894E0,3.4999998E0,9.229499E0,5.05471E-1,9.810749E0,1.75E1,3.177486E2,2.032191E0,2.032191E0,1.191812E1,1.4178927E1,3.2170002E0,1.4693999E1,1.2700002E1,1.0056583E1,-4.609869E-1,3.177486E2,-2.0350835E0,1.99E1,9.726664E0,2.1181581E1,1.1822829E0,8.15833E-2,1.8000001E0,1.2537833E1,1.0587918E1,1.8584509E1,1.62545E1,1.7566378E1,2.0753334E0,3.3086672E0,5.5607505E0,2.4014102E2,9.3E0,1.37E1,8.3679503E-1,3.1745916E1,4.574465E-1,5.413535E-2,-2.7163332E0,-1.2913334E0,9.740225E-1,1.604825E1,2.3185753E1,1.2287555E1,3.443408E2,2.302117E1,6.784092E-1,-6.869182E-2,-3.5721695E-1,2.3054313E-2,-2.9478408E-2,1.3481288E-1,-4.9316642E-1,5.307383E-1,-5.6323075E-1,9.778569E-2,-8.620766E-1,-2.5845525E-1,-7.185547E-2,-3.1719685E-1,4.070482E-2,4.9207744E-1,-6.9298697E-1,9.858883E-3,1.0293821E0,1.9938958E-1,-1.0821691E-2,1.1285317E0,-1.5156999E-1,-5.5525875E-1,5.711637E-1,-5.183646E-1,2.1229163E-1,-2.3621325E-1,5.4155648E-2,7.145265E-1,-6.48111E-1,-7.19073E-2,-1.6373134E-1,3.8880458E-1,5.129576E-1,1.8780199E-1,-3.008328E-1,2.659383E-2,1.3196394E0,3.2247743E-1,-4.218128E-1,1.0481968E-1],"split_indices":[3,3,2,3,1,0,0,0,3,1,0,0,0,1,3,3,3,2,2,0,2,1,0,0,3,0,1,2,0,0,0,1,0,2,2,0,2,0,0,0,3,1,1,0,3,0,0,0,0,0,0,0,2,3,0,0,0,0,0,0,0,0,0,0,0,0,0,0,0,0,0,0,0,0,0,0,0,0,0,0,0,0,0,0,0,0,0,0,0,0,0,0,0,0,0,0,0],"split_type":[0,0,0,0,0,0,0,0,0,0,0,0,0,0,0,0,0,0,0,0,0,0,0,0,0,0,0,0,0,0,0,0,0,0,0,0,0,0,0,0,0,0,0,0,0,0,0,0,0,0,0,0,0,0,0,0,0,0,0,0,0,0,0,0,0,0,0,0,0,0,0,0,0,0,0,0,0,0,0,0,0,0,0,0,0,0,0,0,0,0,0,0,0,0,0,0,0],"sum_hessian":[1.917E3,1.175E3,7.42E2,4.5E1,1.13E3,1E1,7.32E2,1.5E1,3E1,1.082E3,4.8E1,5E0,5E0,6.43E2,8.9E1,7E0,8E0,1.5E1,1.5E1,9.62E2,1.2E2,2.2E1,2.6E1,1E0,4E0,6.33E2,1E1,6.8E1,2.1E1,3E0,4E0,5E0,3E0,5E0,1E1,1.1E1,4E0,2.44E2,7.18E2,4.4E1,7.6E1,1.3E1,9E0,3E0,2.3E1,3E0,1E0,1.4E1,6.19E2,3E0,7E0,5E0,6.3E1,1E1,1.1E1,1E0,3E0,3E0,2E0,1E0,2E0,2E0,3E0,8E0,2E0,9E0,2E0,3E0,1E0,2.04E2,4E1,4E0,7.14E2,1.2E1,3.2E1,7.3E1,3E0,1E0,1.2E1,3E0,6E0,4E0,1.9E1,1.1E1,3E0,4E0,6.15E2,6E0,1E0,3E0,2E0,1.1E1,5.2E1,5E0,5E0,5E0,6E0],"tree_param":{"num_deleted":"0","num_feature":"4","num_nodes":"97","size_leaf_vector":"1"}},{"base_weights":[1.3791487E-2,2.4197621E-2,-7.7512896E-1,3.956607E-1,3.926291E-3,2.2074638E-1,-8.6874443E-1,6.439196E-1,-2.1308901E0,-4.2562315E-1,3.8515054E-2,-6.292729E-1,-1.2690284E0,2.8166676E-1,3.8728983E0,-3.1211236E0,-7.144787E-1,-1.7195822E-1,-2.4265678E0,7.953463E-1,1.7930622E-3,-2.6880813E-1,-3.5294223E-1,-4.147861E-2,-4.2324442E-1,9.892591E-2,1.1621991E0,5.7185707E0,1.2526467E0,-1.0406642E0,-2.5951424E-1,8.601723E-2,-4.432566E-1,-1.3347356E0,1.799743E-1,-2.875622E0,9.845691E-2,7.128502E0,3.5067338E-1,-1.5899543E0,1.0858842E-2,-2.1289098E-1,-1.7506409E-1,-1.0996918E-1,1.5342565E-1,7.1517074E-1,-1.2001849E-1,2.4832092E-1,2.0203035E0,4.3105596E-1,7.737308E-2,-7.492661E-1,1.2714536E-1,-2.8873727E-1,9.876378E-2,-1.4534951E-3,-1.0191424E0,-4.580608E-1,2.9022186E0,-2.2008872E-1,3.3726737E-1,-9.2002386E-1,-2.1897218E-1,3.900671E-2,-2.8929006E-2,3.6098316E-2,-8.8074796E-2],"categories":[],"categories_nodes":[],"categories_segments":[],"categories_sizes":[],"default_left":[0,0,0,0,0,0,0,0,0,0,0,0,0,0,0,0,0,0,0,0,0,0,0,0,0,0,0,0,0,0,0,0,0,0,0,0,0,0,0,0,0,0,0,0,0,0,0,0,0,0,0,0,0,0,0,0,0,0,0,0,0,0,0,0,0,0,0],"id":10,"left_children":[1,3,5,7,9,-1,11,13,15,17,19,21,23,25,27,29,31,33,35,37,39,-1,41,-1,-1,43,45,47,49,-1,-1,-1,-1,51,53,55,-1,57,59,61,63,-1,65,-1,-1,-1,-1,-1,-1,-1,-1,-1,-1,-1,-1,-1,-1,-1,-1,-1,-1,-1,-1,-1,-1,-1,-1],"loss_changes":[1.5764792E1,1.4260364E1,4.1754484E0,6.2841507E1,2.6715471E1,0E0,1.5019951E0,1.0418273E2,1.0393227E1,6.7597046E1,4.6245045E1,9.368644E-1,1.0875559E0,1.3079586E1,3.636177E1,9.220848E-1,4.2434464E0,4.934652E1,1.9499283E1,2.143463E2,2.293279E1,0E0,5.102494E-1,0E0,0E0,1.3436245E1,2.7674372E1,1.926567E1,5.4560614E-1,0E0,0E0,0E0,0E0,5.8315083E1,1.6172844E1,1.9446678E1,0E0,1.2493489E2,6.205449E1,9.192551E0,2.021271E1,0E0,3.1540143E-1,0E0,0E0,0E0,0E0,0E0,0E0,0E0,0E0,0E0,0E0,0E0,0E0,0E0,0E0,0E0,0E0,0E0,0E0,0E0,0E0,0E0,0E0,0E0,0E0],"parents":[2147483647,0,0,1,1,2,2,3,3,4,4,6,6,7,7,8,8,9,9,10,10,11,11,12,12,13,13,14,14,15,15,16,16,17,17,18,18,19,19,20,20,22,22,25,25,26,26,27,27,28,28,33,33,34,34,35,35,37,37,38,38,39,39,40,40,42,42],"right_children":[2,4,6,8,10,-1,12,14,16,18,20,22,24,26,28,30,32,34,36,38,40,-1,42,-1,-1,44,46,48,50,-1,-1,-1,-1,52,54,56,-1,58,60,62,64,-1,66,-1,-1,-1,-1,-1,-1,-1,-1,-1,-1,-1,-1,-1,-1,-1,-1,-1,-1,-1,-1,-1,-1,-1,-1],"split_conditions":[3.2998474E1,8.161764E0,2.2999997E0,1.1000001E0,9.360001E0,2.2074638E-1,7.2999988E0,4E-1,2.1E0,9.255571E0,9.793059E0,2.5615924E2,1.6420001E0,7.9932966E0,3.2170002E0,8.496167E0,8.272508E1,6.521972E1,2.5965396E2,-1.2913334E0,9.885262E0,-2.6880813E-1,2.8170002E0,-4.147861E-2,-4.2324442E-1,4.4399166E0,1.3989919E2,7.386582E0,1.9044085E1,-1.0406642E0,-2.5951424E-1,8.601723E-2,-4.432566E-1,1.1516998E1,-6.809166E-1,7.8662506E1,9.845691E-2,-3.4600832E0,1.2686995E2,1.2045E0,9.014916E0,-2.1289098E-1,4.3524165E0,-1.0996918E-1,1.5342565E-1,7.1517074E-1,-1.2001849E-1,2.4832092E-1,2.0203035E0,4.3105596E-1,7.737308E-2,-7.492661E-1,1.2714536E-1,-2.8873727E-1,9.876378E-2,-1.4534951E-3,-1.0191424E0,-4.580608E-1,2.9022186E0,-2.2008872E-1,3.3726737E-1,-9.2002386E-1,-2.1897218E-1,3.900671E-2,-2.8929006E-2,3.6098316E-2,-8.8074796E-2],"split_indices":[2,2,1,1,2,0,1,1,1,2,2,3,0,2,0,0,3,3,3,0,2,0,0,0,0,0,3,2,0,0,0,0,0,0,0,3,0,0,3,0,0,0,0,0,0,0,0,0,0,0,0,0,0,0,0,0,0,0,0,0,0,0,0,0,0,0,0],"split_type":[0,0,0,0,0,0,0,0,0,0,0,0,0,0,0,0,0,0,0,0,0,0,0,0,0,0,0,0,0,0,0,0,0,0,0,0,0,0,0,0,0,0,0,0,0,0,0,0,0,0,0,0,0,0,0,0,0,0,0,0,0,0,0,0,0,0,0],"sum_hessian":[1.917E3,1.893E3,2.4E1,9.7E1,1.796E3,1E0,2.3E1,8.9E1,8E0,1.33E2,1.663E3,1.6E1,7E0,8.1E1,8E0,4E0,4E0,1.19E2,1.4E1,7.6E1,1.587E3,7E0,9E0,1E0,6E0,6.8E1,1.3E1,4E0,4E0,3E0,1E0,2E0,2E0,2.7E1,9.2E1,1.2E1,2E0,4E0,7.2E1,8E0,1.579E3,2E0,7E0,3.2E1,3.6E1,7E0,6E0,1E0,3E0,3E0,1E0,1.6E1,1.1E1,1E1,8.2E1,2E0,1E1,1E0,3E0,3E1,4.2E1,2E0,6E0,7.48E2,8.31E2,2E0,5E0],"tree_param":{"num_deleted":"0","num_feature":"4","num_nodes":"67","size_leaf_vector":"1"}},{"base_weights":[1.0007985E-2,1.1484538E-1,-5.9498616E-2,2.3467508E-3,5.43599E-1,-1.9810288E0,-3.4163132E-2,3.8163945E-2,-1.3230361E0,8.002976E-1,-6.3471544E-1,-3.294688E0,-4.1974095E-1,7.6487124E-1,-5.4970536E-2,-7.257609E-2,2.860615E-1,-2.5861058E-1,-1.7833558E0,1.0401288E0,-2.0825638E-1,-1.3123468E0,1.0169485E0,-2.9470855E-1,-3.9017363E0,-8.743547E-1,4.1438335E-1,1.1752006E0,1.0378363E-1,-2.2785854E-1,8.893392E-3,-1.3902234E-1,7.4426746E-1,-6.3145673E-1,4.5588064E-1,-2.5096314E0,1.4943078E0,-1.0082233E0,-1.0594091E0,6.171911E-1,2.4594498E0,1.8353127E0,-7.8221625E-1,-4.9296204E-2,-2.456093E0,3.169615E0,-1.3391078E0,-1.3942329E0,-4.820647E-1,-2.961363E-1,-2.966366E-2,1.8936925E0,-2.2637178E-1,-6.8537754E-1,-7.230608E-2,8.0431074E-1,-4.09616E-2,1.3840313E-2,-1.5247235E-1,1.2370107E0,-1.924526E-2,1.0857254E-1,-3.2897E-1,1.7684998E-1,-2.2253408E-1,-1.4722323E-1,-9.82111E-1,3.2942533E-2,5.7576144E-1,-4.1748273E-1,-8.887704E-2,1.0522572E-1,1.037954E0,1.1392086E0,6.1990917E-2,2.3226377E-1,6.516929E-1,-2.9662294E-2,-4.1833434E-1,-6.475169E-1,1.977637E-1,-3.9696324E-1,-9.5388806E-1,-4.199553E-3,1.1907054E0,-1.0655702E-1,-5.629969E-1,-7.543974E-2,8.077702E-1,-5.1317614E-1,1.7409034E-1,4.6345285E-1,-2.4922046E-1,7.081131E-1,-4.837415E-2,4.9687335E-1,5.9226425E-3,-1.0601442E-1,7.5718104E-3],"categories":[],"categories_nodes":[],"categories_segments":[],"categories_sizes":[],"default_left":[0,0,0,0,0,0,0,0,0,0,0,0,0,0,0,0,0,0,0,0,0,0,0,0,0,0,0,0,0,0,0,0,0,0,0,0,0,0,0,0,0,0,0,0,0,0,0,0,0,0,0,0,0,0,0,0,0,0,0,0,0,0,0,0,0,0,0,0,0,0,0,0,0,0,0,0,0,0,0,0,0,0,0,0,0,0,0,0,0,0,0,0,0,0,0,0,0,0,0],"id":11,"left_children":[1,3,5,7,9,11,13,15,17,19,21,23,25,27,29,31,33,35,37,39,41,43,45,-1,47,49,-1,-1,51,53,55,57,59,61,63,65,67,-1,69,71,73,75,77,79,81,83,85,-1,-1,-1,-1,87,89,91,93,95,97,-1,-1,-1,-1,-1,-1,-1,-1,-1,-1,-1,-1,-1,-1,-1,-1,-1,-1,-1,-1,-1,-1,-1,-1,-1,-1,-1,-1,-1,-1,-1,-1,-1,-1,-1,-1,-1,-1,-1,-1,-1,-1],"loss_changes":[1.3983089E1,3.689788E1,5.611238E1,2.8865688E1,4.8600956E1,2.9382092E1,1.8995493E1,1.6272453E1,7.3784237E0,3.1903244E1,3.3791954E1,7.3966293E0,7.757871E0,6.003103E1,1.227996E1,2.2356709E1,2.8801495E1,2.7425297E1,9.000992E0,6.2112198E1,3.1931704E1,3.0215725E1,4.9890686E1,0E0,2.7998352E0,5.1452684E-1,0E0,0E0,1.5202381E1,2.1300907E1,3.2272892E1,2.600151E1,8.4948074E1,1.3795548E1,2.5242016E1,3.0211716E0,2.142333E0,0E0,1.8694E0,6.1650085E1,7.155292E1,4.6369743E-1,8.6477585E0,1.7860252E1,4.8091507E0,1.2780514E1,1.9779482E0,0E0,0E0,0E0,0E0,7.5319395E0,2.7332731E1,2.5920937E1,4.9062828E1,3.2050518E1,1.58517065E1,0E0,0E0,0E0,0E0,0E0,0E0,0E0,0E0,0E0,0E0,0E0,0E0,0E0,0E0,0E0,0E0,0E0,0E0,0E0,0E0,0E0,0E0,0E0,0E0,0E0,0E0,0E0,0E0,0E0,0E0,0E0,0E0,0E0,0E0,0E0,0E0,0E0,0E0,0E0,0E0,0E0,0E0],"parents":[2147483647,0,0,1,1,2,2,3,3,4,4,5,5,6,6,7,7,8,8,9,9,10,10,11,11,12,12,13,13,14,14,15,15,16,16,17,17,18,18,19,19,20,20,21,21,22,22,24,24,25,25,28,28,29,29,30,30,31,31,32,32,33,33,34,34,35,35,36,36,38,38,39,39,40,40,41,41,42,42,43,43,44,44,45,45,46,46,51,51,52,52,53,53,54,54,55,55,56,56],"right_children":[2,4,6,8,10,12,14,16,18,20,22,24,26,28,30,32,34,36,38,40,42,44,46,-1,48,50,-1,-1,52,54,56,58,60,62,64,66,68,-1,70,72,74,76,78,80,82,84,86,-1,-1,-1,-1,88,90,92,94,96,98,-1,-1,-1,-1,-1,-1,-1,-1,-1,-1,-1,-1,-1,-1,-1,-1,-1,-1,-1,-1,-1,-1,-1,-1,-1,-1,-1,-1,-1,-1,-1,-1,-1,-1,-1,-1,-1,-1,-1,-1,-1,-1],"split_conditions":[1.4748811E2,1.2963771E2,1.4953455E2,1.2831227E2,1.4372974E1,4E-1,-1.7163334E0,1E-1,5.4607506E0,1.5962833E1,1.7698677E1,-9.5383334E-1,1.4437833E1,1.6737175E2,2E-1,1.909358E1,1.2250713E1,4.3158337E-1,8.375333E0,8.283667E0,8.942214E0,1.3555086E2,6.012833E0,-2.9470855E-1,5.16075E0,1.4144082E1,4.1438335E-1,1.1752006E0,7.2359104E0,1.0163227E1,9.693296E0,1.2599998E1,1.964558E1,3.2826345E0,1.8723461E1,-2.7163332E0,1.8940831E0,-1.0082233E0,1.3551501E1,1.4311488E2,1.3831792E2,1.7864918E1,1.3608714E2,-3.2466668E-1,1.5484185E1,-1.40175E0,1E-1,-1.3942329E0,-4.820647E-1,-2.961363E-1,-2.966366E-2,-3.4600832E0,2.4615816E2,-4.0383336E-1,1.6031415E2,7E-1,2.2012805E2,1.3840313E-2,-1.5247235E-1,1.2370107E0,-1.924526E-2,1.0857254E-1,-3.2897E-1,1.7684998E-1,-2.2253408E-1,-1.4722323E-1,-9.82111E-1,3.2942533E-2,5.7576144E-1,-4.1748273E-1,-8.887704E-2,1.0522572E-1,1.037954E0,1.1392086E0,6.1990917E-2,2.3226377E-1,6.516929E-1,-2.9662294E-2,-4.1833434E-1,-6.475169E-1,1.977637E-1,-3.9696324E-1,-9.5388806E-1,-4.199553E-3,1.1907054E0,-1.0655702E-1,-5.629969E-1,-7.543974E-2,8.077702E-1,-5.1317614E-1,1.7409034E-1,4.6345285E-1,-2.4922046E-1,7.081131E-1,-4.837415E-2,4.9687335E-1,5.9226425E-3,-1.0601442E-1,7.5718104E-3],"split_indices":[3,3,3,3,2,1,0,1,0,0,2,0,0,3,1,2,3,0,0,0,2,3,0,0,0,0,0,0,2,2,2,2,2,3,2,0,0,0,2,3,3,0,3,0,2,0,1,0,0,0,0,0,3,0,3,1,3,0,0,0,0,0,0,0,0,0,0,0,0,0,0,0,0,0,0,0,0,0,0,0,0,0,0,0,0,0,0,0,0,0,0,0,0,0,0,0,0,0,0],"split_type":[0,0,0,0,0,0,0,0,0,0,0,0,0,0,0,0,0,0,0,0,0,0,0,0,0,0,0,0,0,0,0,0,0,0,0,0,0,0,0,0,0,0,0,0,0,0,0,0,0,0,0,0,0,0,0,0,0,0,0,0,0,0,0,0,0,0,0,0,0,0,0,0,0,0,0,0,0,0,0,0,0,0,0,0,0,0,0,0,0,0,0,0,0,0,0,0,0,0,0],"sum_hessian":[1.917E3,7.64E2,1.153E3,6.06E2,1.58E2,1.4E1,1.139E3,5.91E2,1.5E1,1.3E2,2.8E1,7E0,7E0,2.8E1,1.111E3,4.09E2,1.82E2,5E0,1E1,1.05E2,2.5E1,2E1,8E0,2E0,5E0,6E0,1E0,4E0,2.4E1,2.99E2,8.12E2,3.79E2,3E1,2.8E1,1.54E2,2E0,3E0,2E0,8E0,8.2E1,2.3E1,5E0,2E1,1E1,1E1,4E0,4E0,3E0,2E0,5E0,1E0,3E0,2.1E1,7.5E1,2.24E2,4.7E1,7.65E2,2.53E2,1.26E2,5E0,2.5E1,9E0,1.9E1,1.39E2,1.5E1,1E0,1E0,1E0,2E0,5E0,3E0,7.6E1,6E0,1.4E1,9E0,2E0,3E0,1E1,1E1,2E0,8E0,5E0,5E0,1E0,3E0,2E0,2E0,1E0,2E0,7E0,1.4E1,4E0,7.1E1,7E0,2.17E2,2.2E1,2.5E1,1.33E2,6.32E2],"tree_param":{"num_deleted":"0","num_feature":"4","num_nodes":"99","size_leaf_vector":"1"}},{"base_weights":[7.5472635E-3,3.221468E-2,-2.0811182E-1,2.524022E-2,1.5233376E0,-3.0920535E-1,3.8819575E-1,8.439836E-2,-7.181795E-2,4.9129977E0,-4.25382E-1,7.9114026E-1,-3.545625E-1,1.0922258E0,-1.7301524E-1,6.676364E-2,9.1821116E-1,-2.0517193E-1,1.5534781E-1,1.9251574E0,2.8569162E-1,-6.092877E-1,-3.8380384E-2,-2.7126727E-1,6.894319E-1,-3.7598512E-1,4.6738568E-1,-2.0070624E-1,1.2947481E0,1.5190934E0,-6.4411664E-1,1.7704575E0,5.8516536E-2,-1.6515681E-1,2.2347684E0,-1.8437643E-1,-1.1112404E0,8.113886E-2,8.229397E-1,-4.394367E-2,-2.144193E-1,1.1542673E-1,-1.326979E-1,-2.1655844E-1,2.697493E-1,-5.6025004E-1,-1.436587E-1,1.6432949E0,-8.959727E-2,-3.9353356E-1,1.0885462E0,-1.2325684E0,-4.870677E-2,9.077374E-1,-4.8763156E-1,-2.5095516E-1,2.3598315E-2,3.150592E-1,-4.0707517E-1,-6.006726E-1,8.7840563E-1,-8.227277E-2,2.3793662E-3,-3.6811918E-1,-2.7697885E-2,3.961018E-2,-3.3462846E-1,4.0233198E-1,-1.143097E-1,1.2859519E-1,-7.20799E-3,-3.1771016E-1,-1.2355702E-1,-2.9343167E-1,-3.3095153E-3,8.069394E-2,5.29833E-1,-3.639257E-2,-1.4069754E-1,-1.2243302E-1,-4.4421893E-1,-1.537536E-1,1.6296794E-1],"categories":[],"categories_nodes":[],"categories_segments":[],"categories_sizes":[],"default_left":[0,0,0,0,0,0,0,0,0,0,0,0,0,0,0,0,0,0,0,0,0,0,0,0,0,0,0,0,0,0,0,0,0,0,0,0,0,0,0,0,0,0,0,0,0,0,0,0,0,0,0,0,0,0,0,0,0,0,0,0,0,0,0,0,0,0,0,0,0,0,0,0,0,0,0,0,0,0,0,0,0,0,0],"id":12,"left_children":[1,3,5,7,9,11,13,15,17,19,21,23,25,27,29,31,33,35,37,-1,-1,39,41,43,-1,45,-1,-1,47,49,51,53,55,57,59,61,63,65,67,-1,-1,-1,-1,-1,69,71,73,75,-1,77,-1,79,81,-1,-1,-1,-1,-1,-1,-1,-1,-1,-1,-1,-1,-1,-1,-1,-1,-1,-1,-1,-1,-1,-1,-1,-1,-1,-1,-1,-1,-1,-1],"loss_changes":[1.0209989E1,1.7869965E1,1.1995751E1,9.853214E0,5.4933876E1,8.71505E0,1.1647144E1,1.5613218E1,1.9722622E1,1.1761818E1,4.036461E-1,1.1830484E1,7.264057E0,5.5032063E0,1.4530104E1,1.4579211E1,3.174804E1,7.5203896E0,1.1872679E1,0E0,0E0,9.050739E-2,6.829599E-1,1.4136162E0,0E0,6.8546753E0,0E0,0E0,7.155302E0,1.7565863E1,4.845145E0,2.6233147E1,1.8835049E1,2.0254374E1,3.5235683E1,6.9495144E0,9.488373E-1,1.3423336E1,1.5483606E1,0E0,0E0,0E0,0E0,0E0,1.5034318E-1,6.2252884E0,8.068131E0,1.2128181E0,0E0,4.732102E-3,0E0,8.2788944E-1,2.4747436E0,0E0,0E0,0E0,0E0,0E0,0E0,0E0,0E0,0E0,0E0,0E0,0E0,0E0,0E0,0E0,0E0,0E0,0E0,0E0,0E0,0E0,0E0,0E0,0E0,0E0,0E0,0E0,0E0,0E0,0E0],"parents":[2147483647,0,0,1,1,2,2,3,3,4,4,5,5,6,6,7,7,8,8,9,9,10,10,11,11,12,12,13,13,14,14,15,15,16,16,17,17,18,18,21,21,22,22,23,23,25,25,28,28,29,29,30,30,31,31,32,32,33,33,34,34,35,35,36,36,37,37,38,38,44,44,45,45,46,46,47,47,49,49,51,51,52,52],"right_children":[2,4,6,8,10,12,14,16,18,20,22,24,26,28,30,32,34,36,38,-1,-1,40,42,44,-1,46,-1,-1,48,50,52,54,56,58,60,62,64,66,68,-1,-1,-1,-1,-1,70,72,74,76,-1,78,-1,80,82,-1,-1,-1,-1,-1,-1,-1,-1,-1,-1,-1,-1,-1,-1,-1,-1,-1,-1,-1,-1,-1,-1,-1,-1,-1,-1,-1,-1,-1,-1],"split_conditions":[2.3679407E1,2.3469128E1,9.999999E0,1.3583667E1,5E-1,-1.1008334E-1,2.6486313E1,1.3169083E1,1.9560751E1,7.825333E0,9.229499E0,-5.6841666E-1,2.374617E1,4.1211667E0,4.1211667E0,2.032191E0,1.3392774E1,1.9439917E1,6.2000003E0,1.9251574E0,2.8569162E-1,1.8940831E0,1.3821166E1,1.9000002E0,6.894319E-1,2.6142E2,4.6738568E-1,-2.0070624E-1,3.053803E2,2.2003334E0,7.685749E0,9.229499E0,9.6721945E0,1.2221649E2,2.1324045E1,1.7623251E1,2.3000002E0,4.1000004E0,1.8723461E1,-4.394367E-2,-2.144193E-1,1.1542673E-1,-1.326979E-1,-2.1655844E-1,-1.0267497E0,1E0,2.4149532E1,2.032191E0,-8.959727E-2,1.6420001E0,1.0885462E0,1.1800002E1,2.770831E1,9.077374E-1,-4.8763156E-1,-2.5095516E-1,2.3598315E-2,3.150592E-1,-4.0707517E-1,-6.006726E-1,8.7840563E-1,-8.227277E-2,2.3793662E-3,-3.6811918E-1,-2.7697885E-2,3.961018E-2,-3.3462846E-1,4.0233198E-1,-1.143097E-1,1.2859519E-1,-7.20799E-3,-3.1771016E-1,-1.2355702E-1,-2.9343167E-1,-3.3095153E-3,8.069394E-2,5.29833E-1,-3.639257E-2,-1.4069754E-1,-1.2243302E-1,-4.4421893E-1,-1.537536E-1,1.6296794E-1],"split_indices":[2,2,1,0,1,0,2,0,0,0,0,0,0,0,0,3,2,0,1,0,0,0,0,1,0,3,0,0,3,0,0,0,3,3,3,0,1,1,2,0,0,0,0,0,0,1,2,3,0,0,0,1,2,0,0,0,0,0,0,0,0,0,0,0,0,0,0,0,0,0,0,0,0,0,0,0,0,0,0,0,0,0,0],"split_type":[0,0,0,0,0,0,0,0,0,0,0,0,0,0,0,0,0,0,0,0,0,0,0,0,0,0,0,0,0,0,0,0,0,0,0,0,0,0,0,0,0,0,0,0,0,0,0,0,0,0,0,0,0,0,0,0,0,0,0,0,0,0,0,0,0,0,0,0,0,0,0,0,0,0,0,0,0,0,0,0,0,0,0],"sum_hessian":[1.917E3,1.721E3,1.96E2,1.714E3,7E0,1.68E2,2.8E1,1.065E3,6.49E2,2E0,5E0,6E0,1.62E2,1.2E1,1.6E1,1.044E3,2.1E1,4.09E2,2.4E2,1E0,1E0,3E0,2E0,4E0,2E0,1.61E2,1E0,1E0,1.1E1,3E0,1.3E1,4E0,1.04E3,1.2E1,9E0,4.01E2,8E0,2.17E2,2.3E1,1E0,2E0,1E0,1E0,2E0,2E0,8.9E1,7.2E1,9E0,2E0,2E0,1E0,6E0,7E0,3E0,1E0,2.2E1,1.018E3,6E0,6E0,1E0,8E0,2.73E2,1.28E2,7E0,1E0,2.09E2,8E0,1.6E1,7E0,1E0,1E0,1.9E1,7E1,9E0,6.3E1,1E0,8E0,1E0,1E0,2E0,4E0,4E0,3E0],"tree_param":{"num_deleted":"0","num_feature":"4","num_nodes":"83","size_leaf_vector":"1"}},{"base_weights":[6.757935E-3,6.297472E-2,-7.393742E-2,3.6855105E-2,8.1328756E-1,-1.3630497E-1,1.2583297E-1,5.720084E-2,-4.870781E-1,1.8521582E0,1.9898847E-1,-1.0773481E-1,-8.186905E-1,-3.1254646E-1,3.5461387E-1,2.0013686E-2,5.877709E-1,-1.0136589E0,1.165147E-1,8.637587E-1,2.2052028E0,-7.023032E-1,5.21641E-1,-1.3356404E-1,5.8371526E-1,5.412292E-1,-1.0111637E0,-5.6155485E-1,1.5931351E-2,-1.585453E-1,6.592788E-1,9.249316E-2,-3.1408215E-1,2.982341E0,8.220858E-2,2.1959068E-1,-1.1316397E0,5.8421636E-1,-1.9510387E-1,-7.8003806E-1,1.9886365E0,1.3966392E0,-1.4061782E-1,1.6742196E-2,-2.3669474E-1,1.6352376E0,5.4090466E-2,-3.0054936E-1,-1.1449484E0,-3.5591614E-1,-4.694107E-1,1.6872983E0,-3.189793E-1,-2.6257896E-1,6.9405055E-1,1.7550335E0,4.5318428E-1,1.7563066E-2,4.1005728E-1,9.308292E-2,-1.651922E-1,1.0720118E-1,1.6643367E0,-1.3404527E-1,2.550839E-1,-4.413358E-1,-1.8333006E-1,7.3413537E-3,-3.9034086E-1,1.8508688E-1,-3.5484847E-1,4.7759715E-2,1.1334822E0,6.65617E-1,-1.1735032E-1,-4.206176E-1,5.5938166E-2,1.0259583E-1,-1.1651474E-1,-2.642178E-1,-5.0873876E-2,8.0427945E-1,-1.9579932E-1,-3.204641E-2,3.4602845E-1,-3.3933035E-1,4.532487E-1,-3.531986E-1,-8.4315635E-2,-1.6131282E-1,1.110483E-1,8.717825E-2,1.0911173E0,-2.3725326E-1,5.3226758E-2,1.0553445E-2,-2.640867E-1,2.2556302E-1,1.0720135E0,-6.669872E-2,2.117608E-1],"categories":[],"categories_nodes":[],"categories_segments":[],"categories_sizes":[],"default_left":[0,0,0,0,0,0,0,0,0,0,0,0,0,0,0,0,0,0,0,0,0,0,0,0,0,0,0,0,0,0,0,0,0,0,0,0,0,0,0,0,0,0,0,0,0,0,0,0,0,0,0,0,0,0,0,0,0,0,0,0,0,0,0,0,0,0,0,0,0,0,0,0,0,0,0,0,0,0,0,0,0,0,0,0,0,0,0,0,0,0,0,0,0,0,0,0,0,0,0,0,0],"id":13,"left_children":[1,3,5,7,9,11,13,15,17,19,21,23,25,27,29,31,33,35,37,39,-1,-1,41,43,45,-1,47,49,51,53,55,57,59,61,63,-1,65,-1,67,69,71,73,75,77,79,81,83,85,87,89,-1,91,93,95,-1,97,99,-1,-1,-1,-1,-1,-1,-1,-1,-1,-1,-1,-1,-1,-1,-1,-1,-1,-1,-1,-1,-1,-1,-1,-1,-1,-1,-1,-1,-1,-1,-1,-1,-1,-1,-1,-1,-1,-1,-1,-1,-1,-1,-1,-1],"loss_changes":[8.705537E0,2.2135231E1,9.834993E0,1.168969E1,2.388218E1,1.1628816E1,1.8965887E1,2.0784067E1,1.314956E1,6.973703E1,2.1709595E1,1.0400831E1,1.3939833E1,5.325539E0,1.9490885E1,2.3905128E1,8.328653E1,5.3592377E0,1.1790624E1,2.5589127E1,0E0,0E0,1.3524324E1,8.653626E0,1.1606709E1,0E0,1.8424797E0,7.075678E0,1.6771212E1,1.2694756E1,1.6819313E1,3.500723E1,2.6165577E1,7.882927E1,2.394704E1,0E0,2.8119621E0,0E0,4.4032683E0,4.1059256E0,2.5590742E1,1.556517E1,6.0376883E0,3.0175085E1,1.4157873E1,1.8496859E1,2.776657E0,9.231118E0,2.0059776E-1,4.4229074E0,0E0,1.2559275E1,5.9961786E0,8.491632E0,0E0,1.9202278E1,1.15933075E1,0E0,0E0,0E0,0E0,0E0,0E0,0E0,0E0,0E0,0E0,0E0,0E0,0E0,0E0,0E0,0E0,0E0,0E0,0E0,0E0,0E0,0E0,0E0,0E0,0E0,0E0,0E0,0E0,0E0,0E0,0E0,0E0,0E0,0E0,0E0,0E0,0E0,0E0,0E0,0E0,0E0,0E0,0E0,0E0],"parents":[2147483647,0,0,1,1,2,2,3,3,4,4,5,5,6,6,7,7,8,8,9,9,10,10,11,11,12,12,13,13,14,14,15,15,16,16,17,17,18,18,19,19,22,22,23,23,24,24,26,26,27,27,28,28,29,29,30,30,31,31,32,32,33,33,34,34,36,36,38,38,39,39,40,40,41,41,42,42,43,43,44,44,45,45,46,46,47,47,48,48,49,49,51,51,52,52,53,53,55,55,56,56],"right_children":[2,4,6,8,10,12,14,16,18,20,22,24,26,28,30,32,34,36,38,40,-1,-1,42,44,46,-1,48,50,52,54,56,58,60,62,64,-1,66,-1,68,70,72,74,76,78,80,82,84,86,88,90,-1,92,94,96,-1,98,100,-1,-1,-1,-1,-1,-1,-1,-1,-1,-1,-1,-1,-1,-1,-1,-1,-1,-1,-1,-1,-1,-1,-1,-1,-1,-1,-1,-1,-1,-1,-1,-1,-1,-1,-1,-1,-1,-1,-1,-1,-1,-1,-1,-1],"split_conditions":[2.3596678E2,2.3147182E2,1.698575E1,9.199999E0,6.1524167E0,1.615658E1,3E-1,4.4E0,1.5716793E1,6.106584E0,7.1274166E0,1.4700001E1,8.161764E0,2.0248251E1,2.7286234E2,1.7632411E2,5.2E0,1.3772794E1,1.6179987E1,2.3326913E2,2.2052028E0,-7.023032E-1,9.729501E0,7.0000005E-1,9.96075E0,5.412292E-1,1.1304229E1,1.9212835E1,2.0564917E1,2.5264202E1,1.7960749E1,1.6571278E2,1.0495713E1,5.16075E0,1.7114204E1,2.1959068E-1,1.6737175E2,5.8421636E-1,1.69E1,-2.7163332E0,8.000001E-1,7.1E0,1.1609651E1,2.9849905E2,1E0,2.8385262E1,1.604825E1,1.1212135E1,3.508377E2,2.0192118E1,-4.694107E-1,3.265369E2,2.2669085E1,4.6E0,6.9405055E-1,1.7623251E1,1.9292002E1,1.7563066E-2,4.1005728E-1,9.308292E-2,-1.651922E-1,1.0720118E-1,1.6643367E0,-1.3404527E-1,2.550839E-1,-4.413358E-1,-1.8333006E-1,7.3413537E-3,-3.9034086E-1,1.8508688E-1,-3.5484847E-1,4.7759715E-2,1.1334822E0,6.65617E-1,-1.1735032E-1,-4.206176E-1,5.5938166E-2,1.0259583E-1,-1.1651474E-1,-2.642178E-1,-5.0873876E-2,8.0427945E-1,-1.9579932E-1,-3.204641E-2,3.4602845E-1,-3.3933035E-1,4.532487E-1,-3.531986E-1,-8.4315635E-2,-1.6131282E-1,1.110483E-1,8.717825E-2,1.0911173E0,-2.3725326E-1,5.3226758E-2,1.0553445E-2,-2.640867E-1,2.2556302E-1,1.0720135E0,-6.669872E-2,2.117608E-1],"split_indices":[3,3,0,1,0,0,1,1,2,0,0,1,2,0,3,3,1,3,2,3,0,0,0,1,0,0,2,0,0,2,0,3,2,0,2,0,3,0,1,0,1,1,2,3,1,2,0,2,3,2,0,3,0,1,0,0,0,0,0,0,0,0,0,0,0,0,0,0,0,0,0,0,0,0,0,0,0,0,0,0,0,0,0,0,0,0,0,0,0,0,0,0,0,0,0,0,0,0,0,0,0],"split_type":[0,0,0,0,0,0,0,0,0,0,0,0,0,0,0,0,0,0,0,0,0,0,0,0,0,0,0,0,0,0,0,0,0,0,0,0,0,0,0,0,0,0,0,0,0,0,0,0,0,0,0,0,0,0,0,0,0,0,0,0,0,0,0,0,0,0,0,0,0,0,0,0,0,0,0,0,0,0,0,0,0,0,0,0,0,0,0,0,0,0,0,0,0,0,0,0,0,0,0,0,0],"sum_hessian":[1.917E3,1.13E3,7.87E2,1.093E3,3.7E1,6E2,1.87E2,1.053E3,4E1,1.3E1,2.4E1,5.77E2,2.3E1,6.4E1,1.23E2,9.85E2,6.8E1,2.1E1,1.9E1,1.2E1,1E0,2E0,2.2E1,5.57E2,2E1,1E0,2.2E1,3.6E1,2.8E1,4.6E1,7.7E1,8.1E2,1.75E2,1.1E1,5.7E1,1E0,2E1,2E0,1.7E1,5E0,7E0,9E0,1.3E1,2.27E2,3.3E2,6E0,1.4E1,4E0,1.8E1,3.1E1,5E0,4E0,2.4E1,4.5E1,1E0,1.1E1,6.6E1,7.9E2,2E1,4.8E1,1.27E2,6E0,5E0,3.4E1,2.3E1,1.1E1,9E0,1.5E1,2E0,1E0,4E0,4E0,3E0,6E0,3E0,2E0,1.1E1,1.26E2,1.01E2,3E1,3E2,4E0,2E0,1.3E1,1E0,3E0,1E0,1.7E1,1E0,2.5E1,6E0,3E0,1E0,1.2E1,1.2E1,3.1E1,1.4E1,8E0,3E0,1.8E1,4.8E1],"tree_param":{"num_deleted":"0","num_feature":"4","num_nodes":"101","size_leaf_vector":"1"}},{"base_weights":[8.855235E-3,6.786144E-1,3.2193959E-3,1.6838112E0,-2.9029542E-1,-8.7919706E-1,1.7822541E-2,7.418505E-1,2.765789E-1,1.6388217E-1,-6.864139E-1,-5.980544E-1,-5.8823156E-1,7.9952025E-1,4.664401E-3,2.1043849E-1,-1.497104E-1,-1.0171175E-2,1.2901433E-1,-4.171212E-1,-1.6281539E-1,7.3703367E-1,-1.0226629E0,-2.8447577E-1,1.7089567E0,1.0780172E-1,-3.8161352E-2,-2.4700213E-2,1.2398339E-2,6.748867E-2,-1.10118605E-1,1.3862011E0,-1.7717698E-1,-1.210396E0,1.3338728E-1,1.4666327E0,-1.0545727E0,2.3173432E0,-8.476348E-1,-1.7306128E0,1.3514164E-1,-9.668913E-1,3.5430067E-3,4.7009972E-1,9.945145E-2,-4.0932214E-1,-9.907676E-2,7.028035E-1,3.0512907E-2,-5.8140736E-2,-4.5562664E-1,7.8091484E-1,-2.095256E-1,-2.9197103E-1,-7.062435E-2,-5.699628E-1,-8.186567E-2,1.0247903E0,3.4916013E-2,-4.9215806E-1,1.2938061E-1,1.7740808E-1,-7.992754E-3],"categories":[],"categories_nodes":[],"categories_segments":[],"categories_sizes":[],"default_left":[0,0,0,0,0,0,0,0,0,0,0,0,0,0,0,0,0,0,0,0,0,0,0,0,0,0,0,0,0,0,0,0,0,0,0,0,0,0,0,0,0,0,0,0,0,0,0,0,0,0,0,0,0,0,0,0,0,0,0,0,0,0,0],"id":14,"left_children":[1,3,5,7,9,11,13,-1,15,17,19,-1,21,23,25,-1,-1,27,-1,-1,29,31,33,35,37,39,41,-1,-1,-1,-1,43,-1,45,-1,47,49,51,53,55,57,59,61,-1,-1,-1,-1,-1,-1,-1,-1,-1,-1,-1,-1,-1,-1,-1,-1,-1,-1,-1,-1],"loss_changes":[7.237604E0,1.6071924E1,2.4537832E1,8.198782E0,1.7316642E0,8.87842E0,1.9261366E1,0E0,1.6682329E0,2.3600914E-1,1.6166618E0,0E0,1.572289E1,3.1046751E1,8.144522E0,0E0,0E0,1.8267939E-2,0E0,0E0,3.9938414E-1,6.8516264E0,6.0473423E0,2.177452E1,2.840598E1,2.742567E1,5.0471333E1,0E0,0E0,0E0,0E0,4.3396664E-1,0E0,1.9893208E0,0E0,5.7404003E0,4.1007624E0,1.388073E1,7.847023E-2,1.4554672E0,3.246032E1,5.345112E1,2.2159727E1,0E0,0E0,0E0,0E0,0E0,0E0,0E0,0E0,0E0,0E0,0E0,0E0,0E0,0E0,0E0,0E0,0E0,0E0,0E0,0E0],"parents":[2147483647,0,0,1,1,2,2,3,3,4,4,5,5,6,6,8,8,9,9,10,10,12,12,13,13,14,14,17,17,20,20,21,21,22,22,23,23,24,24,25,25,26,26,31,31,33,33,35,35,36,36,37,37,38,38,39,39,40,40,41,41,42,42],"right_children":[2,4,6,8,10,12,14,-1,16,18,20,-1,22,24,26,-1,-1,28,-1,-1,30,32,34,36,38,40,42,-1,-1,-1,-1,44,-1,46,-1,48,50,52,54,56,58,60,62,-1,-1,-1,-1,-1,-1,-1,-1,-1,-1,-1,-1,-1,-1,-1,-1,-1,-1,-1,-1],"split_conditions":[3.2826345E0,9.229499E0,9.6721945E0,2E-1,3E-1,1.0587918E1,1.4958678E1,7.418505E-1,8.417001E0,1.7479502E1,9.000001E-1,-5.980544E-1,1.191812E1,1.0931203E1,1.113384E1,2.1043849E-1,-1.497104E-1,2.032191E0,1.2901433E-1,-4.171212E-1,1.0860749E1,1.3685749E1,2.063023E1,1.1103788E1,1.7414474E1,1.8489271E1,1.1480557E1,-2.4700213E-2,1.2398339E-2,6.748867E-2,-1.10118605E-1,5.865894E0,-1.7717698E-1,1.62545E1,1.3338728E-1,1E-1,1.2250713E1,2.5389917E1,1.5000001E0,1.0799999E1,2.1324045E1,5E-1,1.191812E1,4.7009972E-1,9.945145E-2,-4.0932214E-1,-9.907676E-2,7.028035E-1,3.0512907E-2,-5.8140736E-2,-4.5562664E-1,7.8091484E-1,-2.095256E-1,-2.9197103E-1,-7.062435E-2,-5.699628E-1,-8.186567E-2,1.0247903E0,3.4916013E-2,-4.9215806E-1,1.2938061E-1,1.7740808E-1,-7.992754E-3],"split_indices":[3,0,3,1,1,2,3,0,0,0,1,0,2,2,2,0,0,3,0,0,0,0,2,3,2,3,2,0,0,0,0,3,0,0,0,1,3,0,1,2,3,1,2,0,0,0,0,0,0,0,0,0,0,0,0,0,0,0,0,0,0,0,0],"split_type":[0,0,0,0,0,0,0,0,0,0,0,0,0,0,0,0,0,0,0,0,0,0,0,0,0,0,0,0,0,0,0,0,0,0,0,0,0,0,0,0,0,0,0,0,0,0,0,0,0,0,0,0,0,0,0,0,0,0,0,0,0,0,0],"sum_hessian":[1.917E3,1.5E1,1.902E3,7E0,8E0,3E1,1.872E3,4E0,3E0,4E0,4E0,5E0,2.5E1,3E1,1.842E3,2E0,1E0,3E0,1E0,1E0,3E0,6E0,1.9E1,1.4E1,1.6E1,5.4E2,1.302E3,1E0,2E0,1E0,2E0,4E0,2E0,1.7E1,2E0,4E0,1E1,1.3E1,3E0,7E0,5.33E2,5.5E1,1.247E3,3E0,1E0,1.4E1,3E0,2E0,2E0,4E0,6E0,1.2E1,1E0,2E0,1E0,6E0,1E0,2E0,5.31E2,3.7E1,1.8E1,6E1,1.187E3],"tree_param":{"num_deleted":"0","num_feature":"4","num_nodes":"63","size_leaf_vector":"1"}},{"base_weights":[6.4706896E-3,1.2001336E-2,-6.1269164E-1,1.3155243E-3,3.3448106E-1,-1.4132667E0,-4.7535527E-2,3.4102477E-2,-1.2618311E-1,1.3262095E-1,1.8727418E0,1.0157805E-1,-5.285027E-1,3.5772827E-1,-4.555748E-1,2.3198E-2,1.0873823E0,-1.363165E0,-9.5670864E-2,3.8479865E-1,-1.1990427E0,2.6787589E0,-9.486723E-2,-7.3145425E-1,2.6271915E-1,-1.69453E-1,5.7737503E-2,1.7769102E0,-1.1218197E-1,-4.9523142E-1,-2.3769505E-1,-8.9451844E-1,-6.1647244E-2,-5.4559267E-1,7.193783E-1,-1.4695742E0,1.4478157E-1,1.1677147E0,-3.2636017E-1,-4.7459766E-1,4.3190742E-1,5.3738452E-2,-2.6613817E-1,-1.6200379E-2,-5.2541703E-1,8.9982636E-2,-8.064295E-4,2.0943943E-1,-3.5217083E-1,-2.252537E-2,-8.443741E-2,-4.867254E-1,-1.6441263E-2,9.4943486E-2,-4.769013E-2,-2.4765013E-1,1.9878007E-1,6.9141656E-1,1.134991E-1,-5.3968984E-1,-2.0713228E-1],"categories":[],"categories_nodes":[],"categories_segments":[],"categories_sizes":[],"default_left":[0,0,0,0,0,0,0,0,0,0,0,0,0,0,0,0,0,0,0,0,0,0,0,0,0,0,0,0,0,0,0,0,0,0,0,0,0,0,0,0,0,0,0,0,0,0,0,0,0,0,0,0,0,0,0,0,0,0,0,0,0],"id":15,"left_children":[1,3,5,7,9,11,13,15,17,19,21,-1,-1,-1,23,25,27,29,31,33,35,37,39,41,-1,43,45,-1,47,-1,49,51,53,55,57,59,-1,-1,-1,-1,-1,-1,-1,-1,-1,-1,-1,-1,-1,-1,-1,-1,-1,-1,-1,-1,-1,-1,-1,-1,-1],"loss_changes":[6.57529E0,6.553771E0,7.6244674E0,7.7044E0,1.8692959E1,4.8690386E0,6.1087294E0,1.6812468E1,1.4098734E1,1.8931261E1,1.1355612E1,0E0,0E0,0E0,3.946075E0,9.671494E0,8.767458E1,2.5208511E0,9.974158E0,1.5023117E1,4.8036747E0,2.7090717E1,9.12382E0,1.292934E0,0E0,4.026828E1,1.8031567E1,0E0,1.2003784E1,0E0,2.1579862E-4,9.079499E0,1.3113995E1,4.943351E0,1.8051786E1,8.110409E-1,0E0,0E0,0E0,0E0,0E0,0E0,0E0,0E0,0E0,0E0,0E0,0E0,0E0,0E0,0E0,0E0,0E0,0E0,0E0,0E0,0E0,0E0,0E0,0E0,0E0],"parents":[2147483647,0,0,1,1,2,2,3,3,4,4,5,5,6,6,7,7,8,8,9,9,10,10,14,14,15,15,16,16,17,17,18,18,19,19,20,20,21,21,22,22,23,23,25,25,26,26,28,28,30,30,31,31,32,32,33,33,34,34,35,35],"right_children":[2,4,6,8,10,12,14,16,18,20,22,-1,-1,-1,24,26,28,30,32,34,36,38,40,42,-1,44,46,-1,48,-1,50,52,54,56,58,60,-1,-1,-1,-1,-1,-1,-1,-1,-1,-1,-1,-1,-1,-1,-1,-1,-1,-1,-1,-1,-1,-1,-1,-1,-1],"split_conditions":[3.558761E2,3.4304736E2,1.0495713E1,1.964558E1,2.0248251E1,-8.059168E-1,1.191812E1,1.9386593E1,1.98E1,1.7708666E1,2.1181581E1,1.0157805E-1,-5.285027E-1,3.5772827E-1,3E0,9.360001E0,9.446513E1,1.4714916E1,5.854049E1,3.121167E0,3.508377E2,3.508377E2,2.302117E1,2.8899164E0,2.6271915E-1,9.255571E0,1.0703569E1,1.7769102E0,1.9523155E1,-4.9523142E-1,1.4831582E1,7.5795E0,2.2453485E2,1.6279802E1,5.5607505E0,3.4673834E2,1.4478157E-1,1.1677147E0,-3.2636017E-1,-4.7459766E-1,4.3190742E-1,5.3738452E-2,-2.6613817E-1,-1.6200379E-2,-5.2541703E-1,8.9982636E-2,-8.064295E-4,2.0943943E-1,-3.5217083E-1,-2.252537E-2,-8.443741E-2,-4.867254E-1,-1.6441263E-2,9.4943486E-2,-4.769013E-2,-2.4765013E-1,1.9878007E-1,6.9141656E-1,1.134991E-1,-5.3968984E-1,-2.0713228E-1],"split_indices":[3,3,2,2,0,0,2,2,2,0,0,0,0,0,1,2,3,0,3,0,3,3,0,0,0,2,2,0,2,0,0,0,3,2,0,3,0,0,0,0,0,0,0,0,0,0,0,0,0,0,0,0,0,0,0,0,0,0,0,0,0],"split_type":[0,0,0,0,0,0,0,0,0,0,0,0,0,0,0,0,0,0,0,0,0,0,0,0,0,0,0,0,0,0,0,0,0,0,0,0,0,0,0,0,0,0,0,0,0,0,0,0,0,0,0,0,0,0,0,0,0,0,0,0,0],"sum_hessian":[1.917E3,1.901E3,1.6E1,1.841E3,6E1,6E0,1E1,1.465E3,3.76E2,5.4E1,6E0,1E0,5E0,2E0,8E0,1.451E3,1.4E1,8E0,3.68E2,4.6E1,8E0,4E0,2E0,7E0,1E0,2.2E2,1.231E3,2E0,1.2E1,6E0,2E0,1.4E1,3.54E2,1.2E1,3.4E1,7E0,1E0,3E0,1E0,1E0,1E0,1E0,6E0,2.06E2,1.4E1,2.45E2,9.86E2,7E0,5E0,1E0,1E0,7E0,7E0,7.2E1,2.82E2,1E1,2E0,5E0,2.9E1,4E0,3E0],"tree_param":{"num_deleted":"0","num_feature":"4","num_nodes":"61","size_leaf_vector":"1"}},{"base_weights":[5.0807795E-3,-5.941244E-2,6.0044516E-2,1.6995918E0,-6.73404E-2,3.7138185E-1,-9.865922E-3,6.922134E-1,-1.8565107E-2,-2.3714775E-1,-4.744615E-3,2.3773251E-1,3.3821878E0,-1.3655658E0,8.8337524E-4,1.6544685E0,-3.1907326E-1,2.4443676E0,-5.511442E-2,-4.4447416E-1,3.4848973E-1,1.8725913E0,4.1792405E-1,2.4036388E-1,-6.1482653E-2,2.0686846E0,-3.1102133E-1,-1.0729312E0,-1.7213671E-1,5.8759637E0,2.6632917E-1,-1.2218306E0,-3.4392565E-2,-7.387273E-1,1.0020354E-1,-8.6690444E-1,4.453349E-1,-1.2267214E0,1.0494759E0,1.1726615E0,1.056177E-1,-5.274861E-1,2.7702928E-2,8.385567E-1,3.718703E-1,-5.5897355E-1,1.07559144E-1,-7.506806E-2,3.8223812E-1,2.7817411E0,1.5624061E-1,3.0853063E-1,-2.8302372E-1,-6.023954E-1,3.6945336E-2,2.3349708E-1,-1.7140433E-2,-7.777983E-2,-3.7371385E-1,1.4516693E-1,-1.7888947E-1,2.860406E-1,-3.9789778E-1,1.8229218E-1,-7.081032E-2,-4.7900644E-1,-1.7523194E-2,8.405059E-1,6.770127E-2,-1.6020674E-1,7.559948E-2,-3.02319E-1,3.517505E-2,3.0428007E-1,-6.5304562E-3],"categories":[],"categories_nodes":[],"categories_segments":[],"categories_sizes":[],"default_left":[0,0,0,0,0,0,0,0,0,0,0,0,0,0,0,0,0,0,0,0,0,0,0,0,0,0,0,0,0,0,0,0,0,0,0,0,0,0,0,0,0,0,0,0,0,0,0,0,0,0,0,0,0,0,0,0,0,0,0,0,0,0,0,0,0,0,0,0,0,0,0,0,0,0,0],"id":16,"left_children":[1,3,5,7,9,11,13,-1,-1,15,17,19,21,-1,23,25,27,29,31,33,35,-1,37,39,41,43,-1,45,47,49,51,53,55,57,59,61,63,65,-1,67,69,71,73,-1,-1,-1,-1,-1,-1,-1,-1,-1,-1,-1,-1,-1,-1,-1,-1,-1,-1,-1,-1,-1,-1,-1,-1,-1,-1,-1,-1,-1,-1,-1,-1],"loss_changes":[6.802471E0,1.2428164E1,2.2552958E1,4.425192E0,9.352592E0,7.5650475E1,4.135754E1,0E0,0E0,3.725617E1,7.95794E1,1.3982251E1,6.5208534E1,0E0,1.2650167E1,1.3292091E1,2.5070707E1,9.559898E1,1.523754E1,4.2411237E0,1.8983461E1,0E0,2.9621624E1,2.1860264E1,2.794346E1,1.9563866E0,0E0,4.2526276E1,2.2003103E1,8.611508E1,9.267801E0,1.1878275E1,1.1540873E1,3.8093863E0,2.9609237E0,1.1300431E1,1.640017E1,1.6356807E0,0E0,3.3306507E1,1.4553725E1,3.3558266E1,2.7597704E1,0E0,0E0,0E0,0E0,0E0,0E0,0E0,0E0,0E0,0E0,0E0,0E0,0E0,0E0,0E0,0E0,0E0,0E0,0E0,0E0,0E0,0E0,0E0,0E0,0E0,0E0,0E0,0E0,0E0,0E0,0E0,0E0],"parents":[2147483647,0,0,1,1,2,2,3,3,4,4,5,5,6,6,9,9,10,10,11,11,12,12,14,14,15,15,16,16,17,17,18,18,19,19,20,20,22,22,23,23,24,24,25,25,27,27,28,28,29,29,30,30,31,31,32,32,33,33,34,34,35,35,36,36,37,37,39,39,40,40,41,41,42,42],"right_children":[2,4,6,8,10,12,14,-1,-1,16,18,20,22,-1,24,26,28,30,32,34,36,-1,38,40,42,44,-1,46,48,50,52,54,56,58,60,62,64,66,-1,68,70,72,74,-1,-1,-1,-1,-1,-1,-1,-1,-1,-1,-1,-1,-1,-1,-1,-1,-1,-1,-1,-1,-1,-1,-1,-1,-1,-1,-1,-1,-1,-1,-1,-1],"split_conditions":[2E-1,2.032191E0,1.3916252E2,9.229499E0,7.508517E1,1.3608714E2,1.3989919E2,6.922134E-1,-1.8565107E-2,7.2359104E0,7.8662506E1,1.2250713E1,8E-1,-1.3655658E0,7.0000005E-1,8.375333E0,9.255571E0,7.07325E0,6.489992E0,2.7000003E0,8.942214E0,1.8725913E0,1.6981165E1,9.6932955E0,1.3E0,2.5312836E1,-3.1102133E-1,1.1516998E1,2.302117E1,1.0661107E1,1.0041354E1,4.4399166E0,7.386582E0,5.865894E0,7.399999E0,2.6655472E1,4.2000003E0,3.6908343E-1,1.0494759E0,2.1319292E2,2.1628313E2,9.604499E0,1.5E0,8.385567E-1,3.718703E-1,-5.5897355E-1,1.07559144E-1,-7.506806E-2,3.8223812E-1,2.7817411E0,1.5624061E-1,3.0853063E-1,-2.8302372E-1,-6.023954E-1,3.6945336E-2,2.3349708E-1,-1.7140433E-2,-7.777983E-2,-3.7371385E-1,1.4516693E-1,-1.7888947E-1,2.860406E-1,-3.9789778E-1,1.8229218E-1,-7.081032E-2,-4.7900644E-1,-1.7523194E-2,8.405059E-1,6.770127E-2,-1.6020674E-1,7.559948E-2,-3.02319E-1,3.517505E-2,3.0428007E-1,-6.5304562E-3],"split_indices":[1,3,3,0,3,3,3,0,0,2,3,3,1,0,1,0,2,0,2,1,2,0,2,2,1,3,0,0,0,2,2,0,2,3,1,3,1,0,0,3,3,0,1,0,0,0,0,0,0,0,0,0,0,0,0,0,0,0,0,0,0,0,0,0,0,0,0,0,0,0,0,0,0,0,0],"split_type":[0,0,0,0,0,0,0,0,0,0,0,0,0,0,0,0,0,0,0,0,0,0,0,0,0,0,0,0,0,0,0,0,0,0,0,0,0,0,0,0,0,0,0,0,0,0,0,0,0,0,0,0,0,0,0,0,0,0,0,0,0,0,0,0,0,0,0,0,0,0,0,0,0,0,0],"sum_hessian":[1.917E3,8.82E2,1.035E3,3E0,8.79E2,1.89E2,8.46E2,2E0,1E0,2.36E2,6.43E2,1.82E2,7E0,1E0,8.45E2,9E0,2.27E2,1.2E1,6.31E2,2.5E1,1.57E2,3E0,4E0,1.74E2,6.71E2,8E0,1E0,3.6E1,1.91E2,4E0,8E0,1E1,6.21E2,1.6E1,9E0,1.1E1,1.46E2,3E0,1E0,2.1E1,1.53E2,1.07E2,5.64E2,3E0,5E0,2.3E1,1.3E1,1.82E2,9E0,2E0,2E0,5E0,3E0,6E0,4E0,1.6E1,6.05E2,9E0,7E0,6E0,3E0,2E0,9E0,1.18E2,2.8E1,2E0,1E0,7E0,1.4E1,2.8E1,1.25E2,6.1E1,4.6E1,2.6E1,5.38E2],"tree_param":{"num_deleted":"0","num_feature":"4","num_nodes":"75","size_leaf_vector":"1"}},{"base_weights":[6.409398E-3,5.772057E-2,-3.9584324E-2,1.0034925E-1,-2.68837E-1,-1.4602454E0,-2.823619E-2,4.8162192E-2,5.649282E-1,-9.166354E-1,1.4924974E-2,-3.5003471E0,4.6388492E-1,-5.569776E-2,2.1279328E-1,9.172155E-2,-4.6240368E-1,-1.1868968E0,9.172902E-1,-1.3422105E0,1.5385094E-1,5.7185674E-1,-3.9988294E-1,-1.217734E0,-2.7360728E-1,3.2645792E-1,-9.451547E-2,-7.1063626E-1,-4.533278E-2,3.2107627E-1,-5.615563E-1,-9.074712E-2,2.145094E-1,-6.561266E-1,1.6835406E0,6.578857E-1,-1.6155738E0,5.50857E0,5.4426384E-1,2.2802186E-1,-1.5891465E0,-3.1787608E-2,2.736897E-1,8.583803E-1,-1.1470467E0,-6.554024E-1,3.148258E-1,-1.6770356E0,-1.5637293E-1,1.7174037E-1,-8.956617E-2,1.1709397E-1,1.7939389E0,-1.1318153E0,8.892512E-2,2.10854E-2,-5.4484284E-1,8.1907713E-1,4.8786122E-2,3.4752917E-1,-2.7372593E-1,1.676572E0,-2.0695825E-1,-2.2748326E-1,-8.506777E-1,1.8911488E0,3.4912992E-1,2.462473E-1,-2.1677013E-1,9.3671516E-2,-3.694153E-3,-1.24913804E-1,-5.3148377E-1,2.6441986E-2,-1.4868122E-1,3.795205E-1,-2.5309607E-1,-5.7852364E-1,2.967621E-1,-1.5666652E-1,-4.3713352E-1,4.626176E-1,-7.96775E-2,-1.6685401E-1,-6.716639E-1,-2.631575E-1,1.4111142E-1,9.275424E-1,8.876153E-3,-2.2477694E-1,-1.4639373E-2,5.5530834E-1,8.9405023E-4,6.4728516E-1,-2.7642658E-1,-4.638538E-1,2.0315531E-1,2.4202342E-1,-1.9533773E-1],"categories":[],"categories_nodes":[],"categories_segments":[],"categories_sizes":[],"default_left":[0,0,0,0,0,0,0,0,0,0,0,0,0,0,0,0,0,0,0,0,0,0,0,0,0,0,0,0,0,0,0,0,0,0,0,0,0,0,0,0,0,0,0,0,0,0,0,0,0,0,0,0,0,0,0,0,0,0,0,0,0,0,0,0,0,0,0,0,0,0,0,0,0,0,0,0,0,0,0,0,0,0,0,0,0,0,0,0,0,0,0,0,0,0,0,0,0,0,0],"id":17,"left_children":[1,3,5,7,9,11,13,15,17,19,21,23,25,27,29,31,33,35,37,39,41,43,45,-1,-1,-1,-1,47,49,51,53,55,57,59,61,-1,63,65,67,69,71,73,-1,75,77,79,81,83,85,87,89,91,93,95,97,-1,-1,-1,-1,-1,-1,-1,-1,-1,-1,-1,-1,-1,-1,-1,-1,-1,-1,-1,-1,-1,-1,-1,-1,-1,-1,-1,-1,-1,-1,-1,-1,-1,-1,-1,-1,-1,-1,-1,-1,-1,-1,-1,-1],"loss_changes":[4.5287495E0,1.2653067E1,1.6274082E1,1.9441532E1,1.931484E1,3.302713E1,6.6639957E0,1.6121876E1,5.1088135E1,1.4784815E1,1.7324135E1,2.0830612E0,2.7743192E0,6.097735E0,8.816736E0,1.4963556E1,2.4800581E1,2.3826967E1,1.1346336E2,9.28054E0,1.4369717E0,1.6744806E1,8.059082E0,0E0,0E0,0E0,0E0,7.2367134E0,8.561056E0,2.7129791E1,4.9229054E0,7.486756E1,5.1641327E1,2.570507E1,5.0196384E1,0E0,1.1446758E1,9.940048E0,2.3015846E1,8.48058E-2,3.5421371E0,5.4430187E-1,0E0,2.0448786E1,1.0253571E1,2.655774E0,8.957246E0,1.9035091E0,4.930296E0,6.2588154E1,1.986531E1,1.6021614E1,1.2850769E1,6.294139E0,4.243853E0,0E0,0E0,0E0,0E0,0E0,0E0,0E0,0E0,0E0,0E0,0E0,0E0,0E0,0E0,0E0,0E0,0E0,0E0,0E0,0E0,0E0,0E0,0E0,0E0,0E0,0E0,0E0,0E0,0E0,0E0,0E0,0E0,0E0,0E0,0E0,0E0,0E0,0E0,0E0,0E0,0E0,0E0,0E0,0E0],"parents":[2147483647,0,0,1,1,2,2,3,3,4,4,5,5,6,6,7,7,8,8,9,9,10,10,11,11,12,12,13,13,14,14,15,15,16,16,17,17,18,18,19,19,20,20,21,21,22,22,27,27,28,28,29,29,30,30,31,31,32,32,33,33,34,34,36,36,37,37,38,38,39,39,40,40,41,41,43,43,44,44,45,45,46,46,47,47,48,48,49,49,50,50,51,51,52,52,53,53,54,54],"right_children":[2,4,6,8,10,12,14,16,18,20,22,24,26,28,30,32,34,36,38,40,42,44,46,-1,-1,-1,-1,48,50,52,54,56,58,60,62,-1,64,66,68,70,72,74,-1,76,78,80,82,84,86,88,90,92,94,96,98,-1,-1,-1,-1,-1,-1,-1,-1,-1,-1,-1,-1,-1,-1,-1,-1,-1,-1,-1,-1,-1,-1,-1,-1,-1,-1,-1,-1,-1,-1,-1,-1,-1,-1,-1,-1,-1,-1,-1,-1,-1,-1,-1,-1],"split_conditions":[8.781584E0,3.0087442E2,8.821166E0,7.685749E0,3.1900192E2,1.1609651E1,3.1592023E2,6.9336667E0,1.0144082E1,1.7616106E1,1.191812E1,1E-1,1.835647E1,7.5685663E0,2.1181581E1,1.2413476E1,7.2999988E0,5.991594E0,1.0446206E1,-2.8517497E0,4.542E0,6.8795E0,1.7072504E1,-1.217734E0,-2.7360728E-1,3.2645792E-1,-9.451547E-2,1.2342E1,1.0086427E1,1.9817E1,2.302117E1,1.1770403E1,1.2535548E1,1.0823973E1,9.099999E0,6.578857E-1,8.417001E0,8.560751E0,7.1E0,-3.0371668E0,8.891343E0,2.426998E1,2.736897E-1,3.558761E2,3.543303E2,1.662249E1,3.265369E2,1.0056583E1,1.1698267E2,1.07544985E1,1.0390226E1,3.177486E2,3.508377E2,1.6375053E1,2.4516998E1,2.10854E-2,-5.4484284E-1,8.1907713E-1,4.8786122E-2,3.4752917E-1,-2.7372593E-1,1.676572E0,-2.0695825E-1,-2.2748326E-1,-8.506777E-1,1.8911488E0,3.4912992E-1,2.462473E-1,-2.1677013E-1,9.3671516E-2,-3.694153E-3,-1.24913804E-1,-5.3148377E-1,2.6441986E-2,-1.4868122E-1,3.795205E-1,-2.5309607E-1,-5.7852364E-1,2.967621E-1,-1.5666652E-1,-4.3713352E-1,4.626176E-1,-7.96775E-2,-1.6685401E-1,-6.716639E-1,-2.631575E-1,1.4111142E-1,9.275424E-1,8.876153E-3,-2.2477694E-1,-1.4639373E-2,5.5530834E-1,8.9405023E-4,6.4728516E-1,-2.7642658E-1,-4.638538E-1,2.0315531E-1,2.4202342E-1,-1.9533773E-1],"split_indices":[0,3,0,0,3,2,3,0,2,2,2,1,2,2,0,2,1,2,2,0,0,0,2,0,0,0,0,0,2,0,0,2,2,2,1,0,0,0,1,0,2,2,0,3,3,2,3,0,3,0,2,3,3,2,0,0,0,0,0,0,0,0,0,0,0,0,0,0,0,0,0,0,0,0,0,0,0,0,0,0,0,0,0,0,0,0,0,0,0,0,0,0,0,0,0,0,0,0,0],"split_type":[0,0,0,0,0,0,0,0,0,0,0,0,0,0,0,0,0,0,0,0,0,0,0,0,0,0,0,0,0,0,0,0,0,0,0,0,0,0,0,0,0,0,0,0,0,0,0,0,0,0,0,0,0,0,0,0,0,0,0,0,0,0,0,0,0,0,0,0,0,0,0,0,0,0,0,0,0,0,0,0,0,0,0,0,0,0,0,0,0,0,0,0,0,0,0,0,0,0,0],"sum_hessian":[1.917E3,9.06E2,1.011E3,8.02E2,1.04E2,7E0,1.004E3,7.22E2,8E1,3.1E1,7.3E1,3E0,4E0,9.02E2,1.02E2,6.66E2,5.6E1,1.3E1,6.7E1,2.2E1,9E0,3.1E1,4.2E1,2E0,1E0,2E0,2E0,1.3E1,8.89E2,9E1,1.2E1,2.68E2,3.98E2,5.2E1,4E0,1E0,1.2E1,4E0,6.3E1,3E0,1.9E1,8E0,1E0,2.7E1,4E0,3.1E1,1.1E1,4E0,9E0,1.5E2,7.39E2,8E1,1E1,6E0,6E0,2.46E2,2.2E1,7E0,3.91E2,6E0,4.6E1,1E0,3E0,8E0,4E0,3E0,1E0,5.2E1,1.1E1,2E0,1E0,3E0,1.6E1,7E0,1E0,2.2E1,5E0,3E0,1E0,2.8E1,3E0,3E0,8E0,2E0,2E0,4E0,5E0,6E0,1.44E2,4.2E1,6.97E2,4E0,7.6E1,9E0,1E0,5E0,1E0,3E0,3E0],"tree_param":{"num_deleted":"0","num_feature":"4","num_nodes":"99","size_leaf_vector":"1"}},{"base_weights":[5.605356E-3,1.0301931E-2,-5.201882E-1,-4.0302623E-2,5.40995E-2,-3.1434643E-1,